<?xml version="1.0"?>
<opencv_storage>
<opencv_ml_svm>
  <format>3</format>
  <svmType>C_SVC</svmType>
  <kernel>
    <type>LINEAR</type></kernel>
  <C>100.</C>
  <term_criteria><epsilon>1.1920928955078125e-007</epsilon>
    <iterations>1000</iterations></term_criteria>
  <var_count>3780</var_count>
  <class_count>2</class_count>
  <class_labels type_id="opencv-matrix">
    <rows>2</rows>
    <cols>1</cols>
    <dt>i</dt>
    <data>
      -1 1</data></class_labels>
  <sv_total>1</sv_total>
  <support_vectors>
    <_>
      -1.57547090e-002 -6.18070923e-003 -1.14141777e-002 5.58471831e-004
      -7.25804456e-003 1.96132232e-002 1.19274398e-002 1.28280483e-002
      -1.71688795e-002 -4.73302603e-003 1.59219737e-004 5.36168832e-003
      -8.80385516e-004 1.69028353e-003 2.69318633e-002 2.13718619e-002
      2.32558493e-002 -4.78292862e-003 -2.10932810e-002 -1.68982036e-002
      -1.68568380e-002 -1.48814498e-002 1.10160338e-003 5.32805407e-003
      7.73191126e-003 2.18022820e-002 9.60236473e-004 -1.56531688e-002
      -1.75746772e-002 -2.27123946e-002 -2.94883586e-002
      -5.97134279e-003 3.09359450e-002 3.31681818e-002 2.91201957e-002
      -8.40284512e-004 -1.24032144e-002 -4.40208148e-003 2.16612918e-003
      -5.06881811e-003 -1.45528105e-003 3.00381165e-002 2.84390971e-002
      2.30168123e-002 1.91508164e-003 -1.10637899e-002 -1.30700981e-002
      -1.05461339e-002 -2.04778127e-002 -2.19954997e-002 7.17662042e-004
      1.18189212e-002 1.09907920e-002 5.83135663e-003 -1.51892900e-002
      -8.96308385e-003 -1.68529209e-002 -1.51467193e-002
      -1.19425179e-002 2.25562155e-002 2.81647798e-002 2.58254465e-002
      4.28944593e-003 -1.04787312e-002 -7.26089953e-003 -1.34325074e-002
      -1.96849294e-002 -2.58143712e-002 -2.32791784e-003 3.43867508e-003
      2.06037015e-002 9.94575117e-003 5.09579806e-003 9.40777012e-004
      1.05994812e-003 -1.68834385e-002 -2.74386257e-002 -2.39829924e-002
      5.18920179e-003 1.16890203e-002 1.30816717e-002 -2.18474725e-003
      4.48723137e-003 8.97509605e-003 -9.41803586e-003 -1.96096245e-002
      -2.19523944e-002 6.07901393e-003 1.43625000e-002 9.29815322e-003
      7.57709937e-003 5.75654581e-003 -4.46289452e-003 -2.74029579e-002
      -2.82485299e-002 -1.27706602e-002 -2.95414869e-003 2.38712765e-002
      1.57893784e-002 -8.93587340e-003 -5.36762411e-003 -1.03023602e-002
      -2.15386879e-002 -1.25485566e-002 -6.92453049e-003 6.50312193e-003
      1.86032243e-002 2.38431781e-003 9.51321423e-003 8.78466351e-004
      7.97559414e-003 -1.33571192e-003 -1.69207584e-002 -2.14943122e-002
      1.76144543e-003 1.34956092e-002 1.71341430e-002 1.83214583e-002
      -1.20670535e-003 7.84143340e-003 -6.76837633e-004 -8.55613407e-003
      -1.14275124e-002 -6.56582415e-003 9.70566832e-003 1.70437340e-002
      -6.33252645e-003 -7.56821595e-003 -9.55768861e-003
      -1.00127934e-002 -1.06784245e-002 -1.31287957e-002 2.34233751e-003
      8.80571827e-003 1.35456721e-004 -4.99170972e-003 -1.21951904e-002
      -7.67772179e-003 -1.24980127e-002 -5.33890165e-003
      -2.10432988e-003 8.04498035e-004 -2.47639907e-003 -6.33851532e-003
      2.28635333e-002 1.42524177e-002 7.30091892e-003 -6.69373060e-003
      -1.75704360e-002 -1.43104233e-002 -1.48787012e-003 1.38935223e-002
      2.15285979e-002 2.88395528e-002 1.62591748e-002 1.51101174e-002
      1.23014739e-002 6.27514021e-003 -1.43460101e-002 3.61552625e-003
      1.86473709e-002 2.26199124e-002 -9.08442671e-005 -7.57761765e-003
      -4.60379291e-003 -2.45239511e-002 -1.78971291e-002
      -3.98178911e-003 -9.21518309e-004 1.44196115e-003 1.10123102e-002
      1.30735082e-003 -1.18297059e-002 -2.68110144e-003 3.98767320e-003
      -1.26602883e-002 -1.05927251e-002 3.15572787e-003 1.83191653e-002
      9.78372898e-003 2.12185085e-002 1.66783854e-002 1.70511361e-002
      1.19207241e-002 4.40451363e-003 -1.58020910e-002 2.64758733e-003
      1.26553336e-002 1.38115864e-002 2.47534597e-003 1.30056767e-002
      2.41285209e-002 1.44113433e-002 1.27530312e-002 -1.55284693e-002
      -1.44325392e-002 -1.24697629e-002 -4.30570031e-003
      -1.45983859e-003 -1.26191350e-002 -4.86144423e-003 2.35765055e-003
      -7.34242704e-003 -1.03214970e-002 4.49898094e-003 1.77020393e-002
      7.61064794e-003 -1.85670014e-002 -1.92707032e-002 -1.57650467e-002
      -6.08208124e-003 3.58260004e-003 -1.01166833e-002 -1.68419648e-002
      -1.92563364e-003 -7.59456726e-003 1.04040215e-002 1.01381037e-002
      1.02961650e-002 2.43504392e-003 -2.17719916e-002 -2.64656004e-002
      -1.40328947e-002 -8.18291027e-003 1.27998181e-002 2.08813250e-002
      1.73124578e-002 8.37854948e-003 1.71169246e-004 -2.23941077e-002
      -1.47780227e-002 -3.67051130e-003 1.12167113e-002 2.88766529e-002
      -8.25093687e-003 -5.94382221e-003 2.29386799e-003 2.84545822e-003
      -1.46415327e-002 -1.95615310e-002 -1.10743148e-002 6.83107320e-003
      8.88928492e-003 8.17867648e-003 8.16815998e-003 1.88801792e-002
      1.12088965e-002 2.81897926e-004 -9.44207422e-003 -1.42691121e-003
      4.25718725e-003 1.77892055e-002 7.55480444e-003 4.24662093e-003
      5.83483931e-003 1.14197461e-002 -2.14358717e-002 -1.88945439e-002
      -9.38715320e-003 -1.28636984e-002 2.85299588e-003 1.38582829e-002
      1.26220407e-002 1.55978855e-002 2.10582204e-002 4.01837192e-003
      -1.04358094e-002 -6.76426059e-003 -1.20236920e-002 1.05512366e-002
      8.82676896e-003 -8.46828707e-003 -7.03728525e-003 6.08213618e-003
      -1.04661593e-002 -2.48333253e-002 -1.64414570e-002
      -1.11594135e-002 5.90971299e-003 2.76865289e-002 1.77116767e-002
      2.92957528e-003 2.14507021e-002 1.52579146e-002 -6.00425666e-003
      -6.20433502e-003 -1.38282320e-002 2.20811125e-002 1.43485414e-002
      8.50935746e-003 1.54981529e-002 1.70965493e-003 -1.50190406e-002
      -1.24278087e-002 -9.77658760e-003 1.47648761e-003 1.56390443e-002
      1.98219568e-002 1.92454122e-002 2.53588464e-002 1.08541297e-002
      -7.69642508e-003 -1.10930880e-003 -5.55377593e-003 5.52885607e-003
      9.51117277e-003 1.49871120e-002 -1.06873782e-003 -2.28158059e-003
      -8.09010305e-003 3.32082552e-003 -2.07048655e-002 -9.13540646e-003
      -3.72465746e-003 8.51105247e-003 4.33938665e-004 -6.11297740e-003
      1.91192906e-002 -7.89574813e-003 -6.91334251e-003 -5.70707070e-003
      3.12827106e-005 8.68898351e-003 1.09365908e-004 1.71309840e-002
      2.33421028e-002 1.90888923e-002 8.63176025e-003 5.74082183e-003
      -1.73772592e-002 -4.88146208e-003 6.54177088e-003 6.26563793e-003
      1.89435817e-002 2.17263196e-002 1.77334212e-002 6.98417006e-003
      -2.06711069e-002 -3.37977894e-002 -1.64988881e-003 1.49993533e-002
      2.38463804e-002 -4.98202164e-003 5.06192865e-003 2.28495225e-002
      -1.98797625e-003 -3.71853355e-003 -1.47117050e-002 4.48922114e-003
      5.05035045e-003 -5.13311941e-003 8.87128618e-003 7.50104664e-003
      1.07304137e-002 2.12076982e-003 -1.26368785e-002 -2.27908622e-002
      6.09695562e-004 1.20822210e-002 1.08337048e-002 4.35276404e-002
      2.80625559e-002 2.50213966e-002 3.38150910e-003 -2.63230819e-002
      -2.46412233e-002 -5.46598900e-003 7.58727314e-003 3.07416711e-002
      4.98003885e-002 3.84397693e-002 2.72407997e-002 5.53048169e-003
      -3.61951403e-002 -2.29189731e-002 -6.85518549e-004 9.04073007e-003
      2.57798303e-002 3.30760852e-002 1.98854133e-002 1.78201497e-002
      -5.27004525e-003 -2.24607456e-002 -2.19503511e-002
      -3.15478723e-003 1.14609459e-002 1.90182868e-002 3.09851039e-002
      4.30792794e-002 3.10541485e-002 -3.05794575e-003 -3.95172499e-002
      -2.06373259e-002 -2.10803444e-003 1.13904402e-002 1.85717139e-002
      2.24127341e-002 2.39798576e-002 2.78892759e-002 1.23252126e-003
      -2.88777240e-002 -2.82901060e-003 1.17391869e-002 1.87755395e-002
      2.12853886e-002 2.15192791e-002 2.78239064e-002 2.83123627e-002
      -1.46960197e-002 -1.17550604e-002 2.01765504e-002 3.14698927e-002
      2.41583921e-002 3.77184115e-002 8.31084605e-003 2.06959844e-002
      3.29276137e-002 -3.44697735e-003 -3.81139256e-002 -8.42165016e-003
      -8.67025834e-003 -2.64738011e-003 -2.62181205e-003 1.20006278e-002
      2.01681089e-002 2.76605748e-002 -3.05176107e-003 -1.74953658e-002
      3.68250418e-003 4.27585701e-003 -1.93313172e-003 8.40748474e-003
      3.11161503e-002 1.66574940e-002 1.05820235e-003 -2.60359291e-002
      -2.20338795e-002 9.31738038e-003 2.79157162e-002 1.84339415e-002
      4.17644344e-002 4.51581329e-002 2.07387954e-002 -6.72957802e-004
      5.42170659e-004 -4.85262088e-003 2.96367914e-003 1.28721343e-002
      6.98061520e-003 3.14837769e-002 4.61862748e-003 1.30471298e-002
      1.10348733e-002 -1.02776634e-002 -1.26747172e-002 -6.30435953e-003
      -6.20465958e-004 -1.76298283e-002 1.05750104e-002 7.65035674e-003
      4.43857023e-003 -1.37335304e-002 -2.92397686e-004 2.32778816e-003
      -3.56669864e-003 -1.25612998e-002 -2.18459219e-002 7.45226815e-003
      3.19844224e-002 2.19898503e-002 6.69484306e-003 1.29203768e-002
      7.94037990e-003 -1.20654714e-003 4.74535720e-003 -1.66923669e-003
      9.35724378e-003 2.99433898e-002 2.35716160e-002 -5.46458317e-003
      -2.29903087e-002 -1.40208686e-002 2.99758464e-002 7.83842802e-003
      6.60668360e-003 1.23767229e-002 7.06443330e-004 2.56198109e-003
      -1.35735767e-002 6.09014975e-003 -8.37606099e-003 -9.70322732e-003
      -2.12367289e-002 -2.53617000e-002 4.59170574e-003 1.49885537e-002
      5.73807489e-003 -2.32271128e-003 -5.17202262e-003 -4.86553125e-002
      -8.39191675e-003 -8.56011815e-004 5.40525513e-003 2.35952772e-002
      3.65782231e-002 1.52253052e-002 -4.21720324e-003 -2.46583074e-002
      -9.89584904e-003 3.03651765e-002 3.45587544e-003 6.55933237e-003
      2.48406641e-002 3.15547660e-002 1.22077083e-002 1.03670936e-002
      -1.33804604e-002 -3.21109332e-002 -1.17103867e-002
      -1.03608612e-003 -3.42291780e-004 2.71621495e-002 1.86740793e-002
      1.56034809e-003 -1.75715005e-003 -1.50293848e-002 -3.50110382e-002
      -3.74155026e-003 5.00127254e-003 7.97714852e-003 2.65585482e-002
      2.67771445e-002 3.02044395e-003 2.08500167e-003 -2.23977249e-002
      -2.94886287e-002 -1.27139874e-002 4.99514351e-003 1.03475228e-002
      2.78180372e-002 2.43150652e-003 -4.33323393e-003 -1.51996047e-003
      2.63839448e-003 7.92083424e-003 6.54336438e-003 9.45460517e-003
      3.19198631e-002 2.14255601e-002 5.66948019e-003 -1.06267044e-002
      -9.49899852e-003 -1.20280245e-002 6.83583692e-003 2.28557345e-002
      3.83213721e-002 4.42848019e-002 1.02993222e-002 -2.69906223e-002
      -2.40246840e-002 -1.30694164e-002 -1.20652458e-002
      -1.41724627e-002 -2.34162202e-003 -1.43860443e-003 5.66514209e-003
      -3.17797922e-002 -1.52205750e-002 -1.39672849e-002
      -1.24337047e-003 -2.30973177e-002 -1.03670890e-002
      -1.42242722e-002 -2.98244086e-005 -3.84161691e-003
      -9.94542893e-003 -3.18003731e-004 -3.74796521e-003
      -8.79731774e-003 -1.41672632e-002 -1.34599367e-002 2.95052095e-003
      1.23832142e-002 2.95973159e-002 9.04025976e-003 1.97778884e-002
      1.57137346e-002 -4.04980173e-003 -1.97331384e-002 -2.35165507e-002
      -8.58347025e-003 1.35673431e-003 3.48938294e-002 2.33699419e-002
      -1.76915936e-002 -2.26528198e-003 4.99749044e-003 -2.70406753e-002
      -2.07026005e-002 -2.22083218e-002 -1.36428149e-002
      -1.41519774e-002 -1.59771200e-002 8.41457862e-003 1.84285939e-002
      1.48917213e-002 -9.82518960e-003 -3.99184879e-003 -2.45992616e-002
      -2.00536139e-002 1.64482407e-002 6.88433275e-003 2.56051831e-002
      1.71470903e-002 -4.82391799e-003 -2.45956089e-002 -2.76701692e-002
      -1.06737996e-002 -3.53488867e-004 2.46246830e-002 2.52870806e-002
      1.08358860e-002 7.21766241e-003 -9.20960400e-003 -2.37296354e-002
      -2.58066300e-002 -1.06091266e-002 -7.43352855e-003 2.01758798e-002
      2.10140906e-002 1.24827633e-002 7.31874956e-003 2.28778212e-004
      -2.10578125e-002 -2.15481054e-002 -2.18217373e-002
      -1.63955875e-002 1.93394925e-002 1.56859141e-002 1.79398246e-002
      -4.80523007e-003 -3.50293554e-002 -3.08985040e-002
      -3.17023806e-002 -2.40076073e-002 -1.47918044e-002 1.49648543e-002
      1.01765990e-002 -4.05318150e-003 5.85627696e-003 -5.40039083e-003
      -9.42395721e-003 -1.37154935e-002 2.80230166e-003 1.56366196e-003
      1.51187787e-002 1.49318557e-002 -1.11201145e-002 -7.79583701e-004
      -5.99493831e-003 -4.47847834e-003 -1.04309171e-002 8.56805313e-003
      1.42402425e-002 5.24088973e-003 5.84300794e-003 -6.38865400e-003
      -4.84525925e-003 -2.39184164e-002 -2.02202797e-002
      -1.69575103e-002 -1.37401307e-002 -5.00078499e-003
      -9.82040074e-004 1.88130524e-003 -3.19360457e-002 -1.75485052e-002
      -1.99575908e-002 -1.61926765e-002 5.61809586e-003 2.08987040e-003
      -7.81725161e-004 -8.17894563e-003 -9.25927050e-003
      -7.63429515e-003 -8.98958556e-003 -6.04328234e-003
      -7.80498423e-003 -1.07709756e-002 1.04407337e-003 7.94466026e-003
      4.17627627e-003 9.73850582e-003 -5.02476655e-003 -1.81599725e-002
      -3.34638054e-003 1.97867714e-002 1.13592921e-002 1.16424831e-002
      1.11957360e-002 1.12306634e-002 1.08453073e-002 -3.30871716e-002
      -1.57688223e-002 -1.08245807e-002 -9.54615884e-003 1.05338255e-002
      1.26078660e-002 -2.48312484e-004 8.07194784e-003 -1.63550524e-003
      -3.04989927e-002 -3.62575203e-002 -7.88949430e-003 1.62638258e-002
      1.51601778e-002 3.13297659e-002 9.64030344e-003 6.72230916e-003
      -1.47976559e-002 -6.31913776e-003 -1.83641538e-002
      -7.05282297e-003 1.19716143e-002 1.32191582e-002 8.42320267e-003
      6.63158903e-003 1.51801817e-002 1.06106494e-002 -8.08644108e-003
      -1.93432327e-002 -1.07207885e-002 7.88669009e-003 2.03154404e-002
      7.75769074e-003 7.32608256e-004 1.34266149e-002 8.14436562e-003
      -1.14381015e-002 -4.10752669e-002 -1.93500202e-002 1.08768949e-002
      2.65323855e-002 3.09576131e-002 6.20459206e-003 1.33202234e-002
      -3.78748984e-003 -1.43539421e-002 -3.13513614e-002
      -1.78295355e-002 2.65234179e-004 3.05409655e-002 2.11005956e-002
      1.59741903e-003 2.40727607e-003 -9.01084207e-003 9.28271853e-004
      -2.96647660e-003 8.13264307e-003 5.84220001e-003 3.16424086e-003
      -8.01152177e-003 -4.61985916e-003 -3.42564401e-003 4.69568744e-003
      7.62914214e-003 6.74059032e-004 1.74964778e-002 1.74707435e-002
      2.29169317e-002 1.16178310e-002 2.03655357e-003 -5.14318701e-003
      8.23728554e-003 -1.27709778e-002 -2.87128650e-002 -4.63574519e-003
      2.63798726e-003 6.61660731e-003 -2.74994527e-003 -9.86879691e-003
      -2.47373171e-002 -1.36476289e-002 -8.61199293e-003
      -2.66337264e-002 6.93085277e-003 3.03578991e-002 2.21181531e-002
      1.49443317e-002 -1.49045121e-002 -3.26043330e-002 -3.49291302e-002
      5.71643468e-003 -8.24052189e-003 -5.10933623e-003 5.65683050e-003
      1.22202402e-002 1.68087916e-003 -1.08615486e-002 1.14887545e-003
      6.88527850e-003 1.46464584e-002 2.12226785e-003 1.13647729e-002
      2.27061957e-002 3.19298282e-002 -3.64147301e-004 -6.75738510e-003
      -2.45117629e-003 2.61833658e-003 -3.74699570e-002 -4.05426547e-002
      -4.61483886e-003 2.58385260e-002 2.73456089e-002 9.09890793e-003
      -1.92834456e-002 -3.47760245e-002 -4.11390327e-002
      -2.68066395e-002 -1.69466883e-002 1.89271420e-002 2.87432279e-002
      3.31466421e-002 9.46626626e-003 -1.01142051e-002 -3.01483870e-002
      -3.10188215e-002 1.10799344e-002 2.45129224e-003 2.29673833e-002
      1.20857460e-002 2.76612770e-002 -1.05284592e-002 -4.60745953e-003
      7.01488275e-003 9.11753275e-004 1.05171418e-002 3.29185720e-003
      2.71577202e-002 5.37529122e-003 1.79468673e-002 8.83130170e-003
      4.93614143e-003 1.98579505e-002 1.11906258e-002 -2.60208976e-002
      -1.32374279e-002 2.63730213e-002 5.62834647e-003 1.90907884e-002
      -1.74817145e-002 -2.83946935e-002 -3.18327881e-002
      -3.39246988e-002 -2.21043807e-002 -8.48932564e-003 2.61265934e-002
      5.22060320e-003 9.74998157e-003 5.59129566e-003 -2.06760969e-002
      -1.85805392e-002 -2.19601076e-002 8.16536043e-003 3.78474523e-003
      1.91021618e-002 -8.00996181e-003 -4.85271122e-003 1.49783480e-003
      6.18766644e-004 1.13943135e-002 7.75052933e-003 1.33018158e-002
      6.31864136e-003 2.48920117e-002 -8.91656033e-004 -1.75126607e-003
      -1.05572064e-004 1.15632359e-002 1.86835900e-002 2.32088771e-002
      -3.08467671e-002 -1.33890323e-002 1.34096928e-002 3.16432305e-003
      -7.62825424e-004 6.42473809e-003 -1.93694904e-002 -1.65940076e-002
      -2.99392585e-002 -2.50161793e-002 -1.19765950e-002 1.79033875e-002
      1.17713595e-002 2.90606520e-003 3.73800285e-003 -2.78722937e-003
      2.57548504e-003 -5.74205257e-003 1.49727240e-002 1.47229224e-003
      1.88539103e-002 -6.93627074e-003 -1.43819312e-002 6.66781003e-003
      1.11137386e-002 2.88859326e-002 3.02377958e-002 1.99481919e-002
      2.59961728e-002 2.99862772e-002 -5.23346569e-003 -2.67322622e-002
      -4.02526790e-003 3.27699562e-003 1.89972073e-002 3.16807814e-002
      -2.31577605e-002 -2.06794944e-002 1.72732826e-002 1.03226081e-002
      -3.64445313e-003 2.73022614e-003 2.96648964e-003 2.00384930e-002
      4.30054590e-003 -2.65785698e-002 -1.28078321e-002 7.20365997e-003
      -7.20049208e-003 -1.35733569e-002 -7.02235906e-004 2.70841224e-003
      1.50843794e-002 -1.20417261e-002 1.18145449e-002 3.03955749e-002
      2.65058354e-002 4.27743420e-003 -1.04645770e-002 6.91743800e-003
      8.51089135e-003 1.22663677e-002 2.11752877e-002 1.91727914e-002
      1.63181014e-002 1.28031056e-002 8.25264957e-003 1.06588155e-002
      1.00342631e-002 1.80064188e-003 -4.82630654e-004 2.79375520e-002
      -2.97627170e-002 7.20022130e-004 2.83949031e-003 -5.60499169e-003
      3.48175387e-003 1.29945632e-002 2.43442692e-003 1.22880945e-002
      -1.35878045e-002 -1.45524601e-002 -1.02081774e-002
      -1.61439627e-002 1.13349780e-003 1.09935403e-002 1.15744013e-003
      -1.88882207e-003 -1.28229503e-002 -1.11213727e-002 1.79718044e-002
      1.32650388e-002 1.61772631e-002 1.03002600e-002 1.26365516e-002
      1.13108549e-002 6.45881006e-003 -3.19634611e-003 1.99137554e-002
      1.29488930e-002 9.96463839e-003 6.88829133e-003 1.38401184e-002
      2.66589411e-002 1.97564568e-002 -1.16373913e-003 4.97604627e-003
      1.90545041e-002 -2.09561642e-002 -1.42728528e-002 -9.00075585e-003
      2.18063616e-003 3.32312076e-003 -3.99347715e-004 9.76129493e-004
      -8.56242143e-003 -1.09837167e-002 -2.43816953e-002
      -1.74667761e-002 -1.75282825e-002 1.89357623e-003 8.15131422e-003
      -2.71149958e-003 -8.63539614e-003 -8.09457246e-003
      -1.62442885e-002 6.20342046e-003 6.06140681e-003 4.74280585e-003
      1.85805783e-002 1.48159191e-002 1.19931698e-002 -8.97294376e-003
      -8.60931250e-005 1.88810118e-002 2.27300618e-002 1.39338234e-002
      2.05228534e-002 2.43535452e-002 -1.29429232e-002 4.64288751e-004
      6.44052634e-003 1.48712462e-002 2.75400598e-002 -2.04214286e-002
      -2.84638964e-002 -2.02966146e-002 -8.17132834e-003 5.82565879e-003
      -1.95159577e-003 -2.79623568e-002 -1.79339033e-002
      -1.58636905e-002 -3.57262534e-003 -1.19466018e-002
      -3.37432924e-004 -1.16050933e-002 -6.60091313e-003
      -5.37665794e-003 -1.71200633e-002 4.57903836e-003 2.52243102e-004
      2.02074312e-002 1.11919828e-002 1.07189678e-002 -2.59925053e-003
      -3.07596102e-002 -1.15265939e-002 7.70394271e-003 1.48469852e-002
      3.16449180e-002 1.81668997e-002 6.30173925e-003 9.56724584e-003
      -1.47889061e-002 -9.54591762e-003 5.44822949e-004 1.93792917e-002
      2.37606149e-002 2.69129351e-002 3.26280086e-003 -3.20929824e-003
      5.55237755e-003 -6.79812487e-003 -1.70748010e-002 -2.04905812e-002
      6.04327535e-003 1.55995488e-002 6.77804323e-003 2.52376939e-003
      3.97062534e-003 1.70528051e-002 8.72741267e-003 -9.17150360e-003
      -3.87492171e-003 1.58716105e-002 6.31870562e-003 1.22168742e-003
      -3.79117765e-002 -4.86711739e-003 1.86694674e-002 1.18620889e-002
      1.27659813e-002 1.33756688e-002 1.08285034e-002 -6.53414172e-004
      -3.32709067e-002 -4.70957439e-003 2.50190515e-002 4.00643647e-002
      6.02623541e-003 5.28033590e-003 1.78560265e-003 3.29059386e-003
      -1.59307907e-003 -2.87081860e-003 -2.98545603e-002
      -1.87344998e-002 1.00846672e-002 4.75860853e-003 1.57962888e-002
      -9.98306088e-003 8.09555408e-003 -1.42255193e-002 -3.26938927e-002
      -1.01880683e-002 -1.22771934e-002 2.90116705e-002 1.52604701e-002
      -2.17000931e-003 -8.71778093e-003 3.09536210e-003 -2.26158891e-002
      -2.20930446e-002 -1.16405133e-002 1.11010605e-002 1.73548628e-002
      -6.79487828e-003 -1.07379686e-002 -1.03612579e-002 9.28205322e-004
      -4.68072202e-003 -2.32988279e-002 -2.30010459e-003 2.18359847e-002
      1.46816848e-002 3.25623155e-003 1.41997272e-002 -2.30222382e-003
      3.66909313e-003 6.71102805e-003 -5.21296542e-003 -2.40716934e-002
      -1.89884808e-002 -1.28777176e-002 -1.00233993e-002
      -1.17649110e-002 -9.35220812e-003 8.04679876e-004 -1.24641992e-002
      -2.94443071e-002 -2.51511429e-002 -1.12109364e-003
      -1.16413692e-002 6.70969894e-005 2.42685643e-003 1.61757991e-002
      1.11021986e-002 1.15256943e-002 -1.58552155e-002 -3.01330513e-003
      1.34123978e-003 3.86030250e-003 -4.84919641e-003 1.16308685e-003
      4.03993716e-003 4.74792812e-003 2.58037429e-002 8.71607848e-003
      -3.18725011e-003 -9.43121035e-003 -2.06857044e-002
      -1.51530793e-003 5.59413899e-003 6.10280223e-003 1.32330479e-002
      2.52021328e-002 5.28197922e-003 -2.37181038e-002 -1.07743768e-002
      -2.02769060e-002 -1.75642371e-002 -1.74333027e-003 9.88162309e-003
      1.09424600e-002 1.93821620e-002 -1.65072996e-002 -2.95022596e-002
      -1.65880769e-002 -2.61457544e-002 -1.75665263e-002
      -7.85143487e-003 -4.85414173e-003 8.20082519e-003 1.13668889e-002
      -1.77544113e-002 -8.80148448e-003 -7.08505558e-003
      -1.32858418e-002 4.01702455e-005 5.24307974e-003 -6.44145068e-004
      5.99012198e-003 2.24901759e-003 5.15292445e-003 -1.56120714e-002
      -2.17266809e-002 -1.38980914e-002 -1.41928182e-003 2.67034750e-002
      1.16217164e-002 3.57325654e-003 3.94765520e-003 1.19607588e-002
      -1.54379597e-002 -1.30706709e-002 -1.39261680e-002
      -4.96849557e-003 3.21552157e-004 -6.45765243e-003 -2.98881496e-004
      -6.42420258e-003 -7.86750764e-003 -2.16897903e-003
      -8.48937873e-003 -8.02905019e-003 -7.65998755e-003 8.64621997e-003
      8.05834215e-003 1.28972800e-002 1.14915548e-002 9.24482290e-003
      -3.37048024e-002 -2.67931875e-002 -1.67805888e-002 3.78054501e-005
      1.77295264e-002 3.45999468e-003 2.50097201e-003 3.40193161e-003
      -3.17728613e-003 -4.14112359e-002 -2.53679492e-002
      -3.31114559e-003 7.06417300e-003 2.26790942e-002 2.55944114e-002
      9.90952458e-003 2.59262481e-004 -2.02092864e-002 -3.87864932e-003
      -1.16375936e-002 -2.51396652e-003 3.76763800e-003 1.62724487e-003
      -1.28259114e-003 6.08340418e-003 1.56512018e-002 -1.09292596e-004
      -1.41848279e-002 -4.04844014e-003 1.16246603e-002 8.54492374e-003
      2.05252599e-002 1.42486366e-002 6.74250128e-004 2.90582213e-003
      -1.44919064e-002 -3.27409208e-002 -4.51331884e-002
      -1.75940320e-002 4.31745371e-004 1.79307014e-002 2.32419856e-002
      6.03180891e-003 -3.58226779e-003 -1.46421436e-002 -3.02778371e-002
      -5.23276739e-002 -2.01111976e-002 -1.82333577e-003 1.87450722e-002
      2.04263367e-002 2.94737052e-003 -1.60777499e-003 -1.04280878e-002
      -1.48811063e-003 -1.73219759e-002 2.88827880e-003 3.23710684e-003
      1.68765858e-002 1.34639703e-002 -1.56708702e-003 -2.09887722e-003
      4.66431753e-004 9.73463897e-003 -1.93071663e-002 -1.12894075e-002
      3.39352177e-004 7.80314906e-003 1.97321624e-002 1.68814268e-002
      1.64532997e-002 2.17769649e-002 -1.76677536e-002 -3.18047889e-002
      -9.75281466e-003 -1.20393345e-002 4.75674309e-003 2.11986946e-003
      -1.61776952e-002 -2.03385428e-002 -1.19528277e-002
      -1.67487096e-002 -1.92042496e-002 -1.02154687e-002 4.99436585e-003
      3.96457780e-003 -1.04056522e-002 -3.94696705e-002 -3.51008102e-002
      -3.21778692e-002 1.55787636e-002 -3.41250969e-004 -1.06511470e-002
      -4.18755366e-003 5.79259498e-003 6.71110768e-003 6.11413922e-003
      1.07303467e-002 3.31932791e-002 1.15369605e-002 1.29878344e-002
      -6.63781445e-003 5.22430195e-003 8.72768927e-003 -5.16420277e-003
      -2.29732413e-002 -9.08486079e-003 1.26211951e-002 -2.57624164e-002
      -2.24553365e-002 -1.87775691e-003 2.23901980e-002 3.17538194e-002
      7.76574574e-003 -3.45253572e-002 -3.31351757e-002 -3.96788418e-002
      -2.25355886e-002 -2.64087878e-003 1.48550486e-002 2.70975102e-002
      4.10138071e-002 1.78937651e-002 -4.58126655e-003 -2.65886560e-002
      -3.52261662e-002 -3.32840893e-004 1.95972761e-003 -5.64359361e-003
      1.50096100e-002 2.77620330e-002 5.93269616e-003 -2.73268297e-002
      -1.76966097e-002 -7.83267338e-003 -9.84488800e-003 2.29262427e-004
      -1.39917829e-003 1.69100724e-002 3.11718974e-002 1.87163092e-002
      -1.48772425e-003 -1.41809238e-002 -1.79573298e-002
      -2.19761394e-002 6.88054645e-003 2.57725473e-002 1.98542401e-002
      3.63176726e-002 9.90509987e-003 1.67367328e-003 -2.13680808e-002
      -3.59778069e-002 -2.04494111e-002 1.43674556e-002 2.66015194e-002
      3.35586518e-002 4.33484465e-002 1.68437827e-002 9.49656533e-004
      -7.37570785e-003 -4.23181206e-002 -1.24587733e-002 1.18810935e-002
      1.31487567e-002 7.03665055e-003 2.61946190e-002 6.54577557e-003
      3.06340796e-003 -1.76043808e-002 -2.89494395e-002 -2.02392582e-002
      6.04882278e-003 1.14086661e-002 2.72413492e-002 2.97738444e-002
      1.14501901e-002 -1.50959874e-002 -1.09670190e-002 -2.50576641e-002
      -3.21727544e-002 -6.09373813e-003 2.07152311e-002 3.66971754e-002
      4.71710339e-002 2.03709844e-002 5.65948104e-003 -3.13608535e-003
      -3.72675061e-002 -2.86630690e-002 -1.73603017e-002 1.92705169e-002
      3.30020636e-002 4.74589840e-002 2.04381756e-002 1.20288571e-002
      2.73482827e-003 -1.04664853e-002 -3.58019471e-002 -2.37124283e-002
      1.73492730e-003 2.95395311e-002 3.33367437e-002 1.97944865e-002
      2.67855503e-004 -5.18056378e-003 -2.85135470e-002 -4.64248583e-002
      -2.37729084e-002 -4.57619829e-003 2.55588610e-002 3.60761434e-002
      2.52917390e-002 1.17631396e-002 4.30715410e-003 -2.65763775e-002
      -2.75418442e-002 -2.10588872e-002 1.95068996e-002 3.68171968e-002
      4.12339196e-002 1.64295994e-002 1.59618333e-002 1.37147633e-002
      -2.32342537e-003 -3.32488455e-002 -2.34135985e-002 8.92823935e-003
      2.04392429e-002 3.51020955e-002 2.75823548e-002 2.15707868e-002
      2.49525309e-002 -1.40535608e-002 -3.58497836e-002 -3.03376988e-002
      -4.27678321e-003 2.28719804e-002 2.85808891e-002 2.02656630e-002
      7.29545951e-003 -3.66752874e-003 -1.82912257e-002 -3.03608850e-002
      -3.51012275e-002 -2.70724553e-003 9.27839614e-003 2.04763133e-002
      1.22363148e-002 -2.00031023e-003 -1.53829884e-002 -2.39378009e-002
      -2.73582172e-002 -1.46735888e-002 3.83592816e-003 1.90749764e-002
      3.38811800e-002 3.53859477e-002 1.53152803e-002 1.16257276e-002
      -1.93545856e-002 -2.20005754e-002 -9.59090423e-003 1.95102766e-003
      2.70576607e-002 3.44974734e-002 3.39317173e-002 2.10625734e-002
      -1.36185248e-004 -1.49167124e-002 -3.75746712e-002
      -2.95343623e-002 -1.00296922e-003 1.29361693e-002 1.08749131e-002
      1.70938000e-002 -2.31631077e-003 -1.91283710e-002 -3.16028707e-002
      -3.50652710e-002 -2.14311965e-002 -3.13968561e-003 1.86433792e-002
      1.36095360e-002 3.58938351e-002 1.95987262e-002 -4.96273907e-003
      -1.86604559e-002 -2.33590771e-002 -1.93908438e-002
      -5.94451558e-004 2.17565857e-002 2.67820153e-002 2.31369752e-002
      1.48389004e-002 -3.85926757e-003 -2.01824009e-002 -1.64959431e-002
      -6.84967777e-003 -7.71245174e-003 2.18161009e-002 1.28182396e-002
      -1.17694435e-003 -6.80949260e-003 -9.33347270e-003
      -1.76349357e-002 -2.12146845e-002 -1.29046589e-002 1.83363480e-003
      2.77970321e-002 2.25438643e-002 1.84461474e-002 8.05289298e-003
      -8.46964959e-003 -2.34204587e-002 -1.70858577e-002
      -2.58469110e-004 7.08136475e-003 3.66294011e-002 1.32150082e-002
      -2.85179145e-003 -1.63156167e-002 -2.36736778e-002
      -2.94471532e-002 -9.76393279e-003 -1.21381171e-002
      -1.95869971e-002 7.62096792e-003 1.85789913e-002 9.69731156e-003
      -2.08485071e-002 -7.32041569e-003 -4.14882554e-003 6.35201344e-003
      2.66403146e-003 7.06090825e-003 1.86676276e-004 2.46672668e-002
      1.81570332e-002 -9.98709816e-004 1.32841123e-002 1.06015243e-002
      -8.01652670e-003 5.20410761e-003 -9.93574224e-003 9.46739968e-003
      1.44093391e-002 1.21548446e-002 -1.91564951e-002 -2.37629898e-002
      -2.06580553e-002 -5.59936929e-003 -2.67913286e-003
      -1.27429768e-004 -1.24516143e-002 -3.18068406e-003 6.89173490e-003
      -7.40831764e-003 1.35930302e-003 4.25047148e-003 4.84410935e-004
      1.93067524e-003 1.16257677e-002 5.90793230e-003 -7.60463951e-003
      -2.74266861e-003 7.26081664e-003 1.05151413e-002 6.64928695e-003
      -1.68592215e-003 8.38678423e-003 2.48443447e-002 2.67664678e-002
      1.85468644e-002 1.95149798e-002 9.67479590e-003 -4.65137279e-003
      6.04892662e-003 -1.21271927e-002 -1.79844424e-002 -1.66308377e-002
      -2.65880190e-002 -3.04891132e-002 -1.59633830e-002
      -8.91957339e-003 3.08767124e-003 2.67196470e-003 2.12904275e-003
      -4.56459867e-003 5.13604144e-003 1.02586916e-003 1.03921320e-005
      1.77802946e-002 -4.68704198e-003 -7.90656451e-003 1.05332891e-002
      -2.09691525e-002 -1.51520744e-002 -1.01836976e-002
      -8.27399734e-003 1.39440876e-002 -1.55782616e-002 4.16235300e-003
      3.47313774e-003 -8.64725281e-003 4.13421029e-003 -1.71710420e-002
      5.85472956e-003 -9.61629488e-003 -2.88628135e-003 -2.32740194e-002
      3.17274849e-003 -1.11221280e-002 -1.97189278e-003 -1.90265924e-002
      -5.53095946e-003 -2.57972209e-003 -1.84402976e-003 2.21244954e-002
      -5.79187414e-004 1.62363390e-003 5.58294542e-003 -7.54125277e-003
      5.31250471e-003 -1.10122813e-002 -4.43408825e-003 -1.49518149e-002
      8.55160877e-003 -3.46900970e-002 -2.89629283e-003 3.62175517e-003
      3.27710342e-003 2.87281000e-004 -1.30032348e-002 -1.19129652e-002
      -2.00671814e-002 -2.38415822e-002 -1.33917686e-002 6.50583021e-003
      -6.67327456e-003 -8.34883936e-003 -1.36223203e-002
      -1.97882857e-002 -1.37597658e-002 -1.00419931e-002 4.85925889e-003
      2.24733874e-002 2.65670083e-002 9.15764179e-003 -1.30246496e-002
      1.11334538e-002 -4.34035994e-003 -1.09868934e-002 -2.62666028e-002
      -2.49438807e-002 -2.19781063e-002 -8.86255223e-003
      -6.39605243e-003 8.80739372e-003 -6.30258070e-003 -2.57635061e-002
      -2.73697525e-002 -8.67901091e-003 6.05974346e-003 1.15051037e-002
      -3.70777212e-003 -2.20010057e-003 -7.03996746e-003
      -1.78707037e-002 -1.42378677e-002 -1.58134550e-002
      -1.78145468e-002 1.29023902e-002 1.66503172e-002 2.15646513e-002
      1.40018649e-002 -1.62661076e-002 -7.88520370e-003 -3.01692332e-003
      -1.21495016e-002 -1.70116487e-003 -1.08494576e-004
      -8.71020555e-003 7.52063934e-003 4.91367280e-003 -1.44066596e-002
      -7.51020946e-003 -1.98795460e-002 -2.22983435e-002
      -9.22934059e-003 1.41360154e-002 9.18908231e-003 -3.18169128e-003
      -6.18860964e-003 -8.11050925e-003 -1.29906191e-002
      -2.95720086e-003 -1.45451147e-002 -3.11813364e-003 2.93393782e-003
      -4.75993706e-003 5.48393652e-003 -5.50987478e-003 -1.15861725e-002
      -4.41450626e-003 1.85761612e-003 -1.09814629e-002 -2.50843843e-003
      -1.75345950e-002 -1.93147380e-002 -2.35535088e-003
      -8.49654432e-003 -1.22073069e-002 1.66182220e-002 -5.50558278e-003
      2.02783220e-003 -6.51791971e-003 -1.17832711e-002 2.86154565e-003
      8.62987898e-003 9.55145434e-003 2.06070337e-002 -7.38016190e-003
      -1.28740829e-003 -9.27759334e-003 -8.35034065e-003
      -9.06320754e-003 -7.89619610e-003 -3.44763510e-003
      -1.24030728e-002 -9.26438160e-003 1.37128606e-002 -5.74761443e-003
      6.39497954e-003 9.28096473e-003 9.55091417e-003 2.20616218e-002
      1.33325579e-002 9.93002951e-003 1.02235982e-002 1.02202622e-002
      -2.02874094e-002 -5.26377233e-003 -1.16993226e-002
      -1.22131100e-002 -1.41795138e-002 -6.25021057e-003 1.18547967e-002
      1.32728205e-003 -9.23889037e-003 -1.23766391e-002 6.25369558e-003
      3.58071830e-003 1.23938574e-002 3.54003947e-004 -7.68056652e-003
      7.06375402e-004 -5.23673650e-003 5.59055246e-003 -1.55695109e-002
      -1.03646098e-002 -4.43578232e-003 1.39726186e-003 1.42187215e-002
      8.24322272e-003 6.40669512e-003 7.61254318e-003 -1.01979461e-003
      -5.75364335e-003 -5.91489894e-004 1.00092636e-002 2.34259441e-002
      2.57043466e-002 2.09466591e-002 6.74411422e-003 2.41897535e-003
      -3.56096728e-003 -1.87614094e-002 -8.07742961e-003 1.21702976e-003
      1.56875458e-002 2.75853230e-003 -9.69896093e-003 -1.84519012e-002
      -1.68174226e-002 9.86600015e-003 -1.86396539e-002 -1.12585174e-002
      6.05818117e-003 4.99079796e-003 7.57808273e-004 4.49342746e-003
      -6.82629226e-003 1.78544633e-002 -5.57533186e-003 -1.81632470e-002
      -5.73424855e-003 1.89309865e-002 2.74633486e-002 2.52698902e-002
      1.04284734e-002 -1.56454891e-002 -1.89371221e-002 -1.76537887e-003
      -8.97242501e-003 8.02427749e-005 2.57892888e-002 1.24199977e-002
      8.62011593e-003 -5.85257215e-003 -2.72270367e-002 -1.44083258e-002
      1.70719046e-002 -3.36281164e-003 -9.20100696e-003 -2.55355029e-003
      -5.52196614e-003 -8.00649449e-003 4.47860966e-003 3.85301653e-003
      2.97829639e-002 9.77074727e-003 1.76424682e-002 -5.53671084e-003
      -6.12691161e-004 -1.11583434e-002 -1.74831785e-002
      -1.74998827e-002 -1.52973528e-003 1.62209142e-002 -1.62912509e-003
      -9.07893851e-003 2.95926118e-003 1.70327518e-002 4.79784422e-003
      -2.00502085e-003 -9.38371848e-003 -2.23109387e-002
      -7.28778634e-003 4.44229506e-003 -5.17945085e-003 -3.49619123e-003
      -2.03534239e-003 -2.85341148e-003 -1.80722941e-002
      -8.80780723e-003 -9.81895532e-003 -1.00239543e-002 1.35221314e-002
      1.75628923e-002 2.69271317e-003 4.71083866e-003 6.38221204e-003
      -1.67362159e-005 -8.88239127e-003 5.91458473e-003 2.03384850e-002
      1.99553464e-002 1.75703189e-003 -1.17969876e-002 3.01715278e-004
      5.53050917e-003 9.30743944e-003 1.49435317e-002 1.42663289e-002
      1.44689921e-002 1.08219427e-003 7.90978689e-003 4.57287719e-003
      -1.47441700e-002 -1.16995238e-002 -1.84385143e-002
      -7.43038533e-003 -1.44334855e-002 -6.54512027e-004
      -8.79214960e-004 -3.17004626e-003 -1.80485081e-002
      -1.46134421e-002 -1.39136249e-002 -1.02079762e-002
      -2.45486805e-003 -6.88849669e-003 8.37423286e-005 8.13694950e-003
      4.25935211e-003 -6.96191285e-003 6.88365617e-005 6.34462573e-003
      -2.24233349e-003 -2.27924949e-003 1.76093215e-003 -2.82669952e-003
      -9.09584761e-003 4.02106531e-003 2.54172040e-003 1.12173185e-002
      8.76435265e-003 6.21400366e-004 -7.74682872e-003 -1.28677012e-002
      -3.20415408e-003 2.25912035e-003 6.98046153e-003 -5.67999622e-003
      1.60571781e-003 1.21657224e-003 -3.68135213e-003 -4.00740094e-003
      -1.29968701e-002 -8.77924822e-003 -7.97027070e-003 1.61246397e-002
      2.01761182e-002 2.33599599e-002 1.81242116e-002 1.25533324e-002
      -2.61133900e-005 -1.85924247e-002 -1.02567943e-002
      -2.05688719e-002 -1.51277473e-002 -3.19105526e-003 1.52600342e-002
      2.64891703e-002 1.05643412e-002 4.33167955e-003 -2.61942716e-003
      -2.03740667e-003 -1.91225763e-002 -2.19054651e-002
      -8.77417903e-003 1.90482568e-002 1.70743223e-002 1.54783502e-002
      1.73131302e-002 1.49614336e-002 -2.98730377e-003 -1.67853329e-002
      8.00467853e-004 1.48326820e-002 2.10327748e-002 3.73144858e-002
      1.26893893e-002 -2.72747711e-003 -1.03531135e-002 -1.49295582e-002
      -1.53013580e-002 -1.79649424e-002 -4.51562321e-003 3.73984152e-003
      1.83396675e-002 1.60995163e-002 -6.87105209e-003 -9.56101064e-003
      -1.72336977e-002 -1.66694112e-002 -1.98825374e-002
      -1.07003190e-002 9.25272424e-003 1.07886903e-002 1.62258651e-002
      1.91856977e-002 6.17549941e-003 2.00201804e-003 -2.05166545e-002
      -2.26132479e-002 -3.03683919e-003 9.77236591e-003 4.93379962e-003
      6.17620163e-003 8.39156378e-003 -5.61635243e-003 1.50265649e-003
      -1.02706421e-002 -7.31719052e-003 5.04090777e-003 -6.86002150e-003
      8.16568453e-003 1.18120108e-002 6.52007898e-003 -6.29593199e-003
      -6.93576131e-003 -9.03176051e-003 -9.50132217e-003 1.23168724e-002
      1.38939954e-002 1.74951870e-002 1.20437015e-002 1.68486834e-002
      8.07892065e-003 8.01095087e-003 -1.74551494e-002 -1.02999425e-002
      5.69952093e-003 1.27308369e-002 1.53226219e-002 -1.83209754e-003
      3.95900710e-003 -7.78436475e-003 -9.40093398e-003 -1.61971655e-002
      -4.72587626e-003 6.04040083e-003 2.57569868e-002 2.36689597e-002
      2.51170248e-002 1.04863942e-002 -1.07742306e-002 -1.28833782e-002
      -1.38651012e-002 -5.71150612e-003 1.53695615e-002 1.58816725e-002
      2.76542697e-002 9.05597769e-003 9.71295964e-003 5.71094046e-004
      -4.79864702e-003 -9.31424182e-003 4.54611145e-003 2.23706048e-002
      2.64214091e-002 3.56374420e-002 2.43119132e-002 1.53161930e-002
      -1.17535321e-002 -1.47716329e-002 -1.08508980e-002
      -7.07672723e-003 5.76416962e-003 1.85676720e-002 1.55612305e-002
      -3.10060568e-003 -4.40916140e-003 -8.42109974e-003
      -1.25497999e-002 -6.50136359e-003 -7.01434352e-003
      -1.01598635e-004 2.25127153e-002 9.06980317e-003 -2.66196020e-003
      -1.43078268e-002 -1.38322823e-002 -1.44647844e-002 1.21881149e-003
      8.07170570e-003 1.82116777e-002 2.49621514e-002 1.66488625e-002
      7.26839481e-003 -6.01560692e-004 -9.88148991e-003 -9.77084693e-003
      -2.85185268e-003 -9.00402945e-003 3.57420021e-003 8.35522916e-003
      2.93716672e-003 1.81750562e-002 -3.46919266e-003 -5.06170373e-003
      -7.82522745e-003 -7.89078977e-003 4.69436432e-004 -6.74210349e-003
      1.38187967e-002 7.62613025e-003 1.12809474e-002 -1.02578867e-002
      -1.13908071e-002 -9.01795831e-003 3.88266332e-003 -3.39210778e-003
      -5.06602228e-003 -2.13178489e-002 -2.66898870e-002 2.52548931e-003
      -4.19485755e-003 3.32673686e-003 1.28755439e-002 -1.34091533e-003
      -1.16568049e-002 -1.22385807e-002 1.65711548e-002 6.67302869e-003
      1.45123182e-002 -2.68873386e-003 -7.11344462e-003 -8.31028633e-003
      7.49348663e-003 -5.76955592e-003 -1.47585189e-002 -1.39884632e-002
      -2.23076902e-002 -3.83019634e-003 -2.00991193e-003 7.59883551e-004
      8.19763355e-003 -2.29474521e-004 -1.13755856e-002 -7.41308788e-003
      -1.54691823e-002 -4.17420641e-002 -8.25245492e-003
      -1.25056645e-003 7.65375700e-003 1.12209767e-002 1.93247702e-002
      3.60456732e-004 8.26853793e-003 1.99516788e-002 8.63155234e-004
      1.51718603e-002 7.67681282e-003 7.70742493e-003 2.12972760e-002
      4.82531870e-003 -4.79836762e-003 -5.79293305e-003 -9.08976421e-003
      -4.15424034e-002 -2.24687625e-002 -1.65736023e-002
      -3.56601522e-004 6.08254084e-003 1.71589796e-002 1.30290175e-002
      2.08640005e-002 9.01092403e-003 -2.74983440e-002 -1.32182031e-003
      2.90075690e-003 2.12219507e-002 1.81372426e-002 -2.32346132e-002
      -1.16244620e-002 3.87975224e-003 -1.88540586e-003 2.23263744e-002
      1.04229096e-002 7.15844566e-004 -9.49869957e-003 -3.46483886e-002
      -1.44245718e-002 -8.36338568e-003 4.27429797e-003 -1.37328142e-002
      7.22578494e-003 -2.04673205e-002 -8.31687544e-003 -7.69213727e-003
      -1.81433372e-002 -2.26898231e-002 -1.36374505e-002 4.15378110e-003
      1.07601117e-002 3.03619634e-002 1.61288176e-002 1.92976347e-003
      -1.73975173e-002 -3.49748023e-002 -1.69980992e-002
      -9.13712848e-003 1.15073826e-002 -9.00681131e-003 2.60416996e-002
      1.49241590e-003 2.71266326e-003 -6.78158086e-003 -2.16527823e-002
      1.00743328e-003 -3.28776729e-003 1.05453341e-003 -1.18296212e-002
      -1.29423579e-002 -2.01707669e-002 -2.04853863e-002
      -2.67003849e-003 1.16117997e-002 5.17291715e-004 -2.43541803e-002
      -2.66201589e-002 -1.44588086e-003 6.04667561e-003 1.77322719e-002
      -1.31095173e-002 6.09442871e-003 5.21289650e-003 2.44671106e-003
      2.31565046e-003 4.60730307e-003 -6.69465773e-003 -8.24631285e-003
      -1.38264997e-002 -5.13729267e-003 5.34090959e-003 8.44077487e-003
      1.28088435e-002 7.86569621e-003 -6.06177561e-003 -2.28278153e-002
      -1.93378665e-002 -5.20256953e-003 -1.74521015e-003 2.58695241e-003
      1.70918573e-002 2.28805677e-003 -1.28410980e-002 -1.98741518e-002
      -1.41896901e-003 9.26293433e-003 1.25186378e-002 -1.62174404e-002
      -1.27861602e-002 -3.74983123e-004 -3.48133780e-003
      -1.49144968e-002 -2.56910175e-002 -8.46555177e-003 8.89604725e-003
      1.39424009e-002 2.68599717e-003 -2.29965504e-002 -1.74819529e-002
      3.30413459e-003 2.92189565e-004 -1.12337805e-002 -1.78326685e-002
      -7.06663262e-003 1.27866641e-002 -5.85077843e-003 -1.68617722e-002
      -1.20284939e-002 -4.67630662e-003 -2.41371561e-002
      -1.91170443e-002 -6.35346305e-003 9.56783909e-003 4.55678999e-003
      -5.55265695e-003 -1.35595091e-002 -5.60960360e-003
      -5.46892453e-003 -1.91636514e-002 -2.00955961e-002
      -1.20351389e-002 -2.58713565e-003 -2.76614609e-003
      -1.10120634e-002 -1.96299721e-002 -1.72766596e-002 4.55791969e-003
      -1.15292585e-002 -1.07829517e-004 1.16135487e-002 1.96223743e-002
      1.12143913e-002 1.64001749e-003 7.11516617e-003 6.69529662e-003
      -3.05402995e-004 -1.58616006e-002 -9.60610807e-003
      -4.19425126e-003 1.22552635e-002 -1.02126012e-002 -1.98512338e-002
      -2.70531513e-002 -1.25286253e-002 1.22999577e-002 -1.40314328e-003
      1.37210609e-002 1.90194193e-002 2.47569066e-002 -1.25670107e-002
      -3.66739929e-003 -1.81754567e-002 -4.33722278e-003
      -8.54725391e-003 -2.34210696e-002 -5.62522653e-003 7.36877741e-003
      1.05825877e-002 1.03153121e-002 7.21060438e-003 4.18237038e-003
      -6.78598954e-005 -1.07154576e-002 -1.74770337e-002
      -2.88874190e-003 2.65230946e-002 2.75092572e-002 3.47749777e-002
      1.32025825e-002 4.28847969e-003 1.39475334e-003 -1.71731040e-002
      -1.06056230e-002 1.55868037e-002 2.56096870e-002 2.63329931e-002
      -3.51996580e-003 -8.80187191e-003 -2.50635874e-002
      -2.31357366e-002 -4.64931391e-002 -1.61414426e-002 7.96585251e-003
      3.68145071e-002 2.98210401e-002 2.03112178e-002 -2.46824045e-003
      -3.05138193e-002 -3.74901816e-002 -2.16192962e-003
      -7.39580579e-003 1.37973297e-003 2.67940480e-002 3.01583689e-002
      4.15201746e-002 1.53508652e-002 3.39871319e-003 -1.97773008e-003
      -1.53724095e-002 -6.74334820e-003 9.75637324e-003 2.50011496e-002
      2.05069166e-002 2.70205382e-002 6.62586000e-003 -5.23406686e-003
      -1.58646945e-002 -4.70842607e-002 -2.09020562e-002 1.30752986e-002
      2.71862298e-002 1.44310612e-002 2.54227985e-002 5.03996015e-003
      -1.42601375e-002 -3.72351184e-002 -4.50110920e-002
      -2.11634897e-002 1.23485820e-002 2.07672510e-002 -2.94802571e-003
      1.36077134e-002 -1.16666255e-003 -9.36247315e-003 -3.42174619e-002
      -6.43405644e-003 -6.38005976e-003 1.38903726e-002 2.86043938e-002
      2.10487787e-002 1.12263560e-002 4.81478730e-003 -5.06524788e-003
      -1.00324610e-002 1.37045237e-004 -8.93986505e-003 1.38563022e-003
      1.26395449e-002 1.40909459e-002 4.45676781e-003 1.06420061e-002
      -2.06454634e-003 -7.02238688e-003 -2.06447914e-002 2.94339843e-003
      7.37343170e-003 9.51880310e-003 1.23266026e-003 5.03291888e-003
      6.28928840e-003 8.74153804e-003 -1.39623731e-002 -1.05924373e-002
      1.21898847e-002 -7.45208061e-004 -7.78798154e-003 -2.12719711e-003
      -1.48558319e-002 3.20733711e-003 -1.10448264e-002 -1.41700655e-002
      -3.35985771e-003 1.43506960e-003 5.72174834e-003 -5.04734972e-003
      2.81187333e-003 3.17066535e-003 2.70797173e-003 -1.18802674e-002
      -6.57580607e-003 -5.53221209e-003 1.21121136e-002 9.50705539e-003
      -3.97250114e-004 1.03159016e-002 7.38384714e-003 -1.09783569e-002
      -1.58266667e-002 -1.19709531e-002 1.80749074e-002 5.21586603e-003
      3.62258963e-003 -1.38289717e-004 7.13427458e-003 5.19415771e-004
      -9.24436282e-003 -2.32495740e-002 2.25549869e-004 5.03879553e-003
      7.96638243e-003 2.24953308e-003 1.20553141e-002 1.51109565e-002
      5.29236533e-003 -1.81504432e-002 -3.49955484e-002 -1.36853894e-002
      -4.00513923e-003 7.36588752e-003 1.17397010e-002 1.56423636e-002
      2.00722739e-002 1.34112211e-002 -9.49404296e-003 -2.68335734e-002
      -2.62577217e-002 -6.85269421e-004 1.75030772e-002 2.45599002e-002
      3.36773805e-002 4.29943092e-002 3.37817892e-002 -6.01046020e-003
      -2.32286453e-002 -1.46400249e-002 -2.55645229e-003 8.25113337e-003
      -2.53349822e-003 8.83780047e-003 1.28105311e-002 4.48673405e-003
      -1.40908342e-002 -2.99011450e-002 -1.98158491e-002 7.69276172e-004
      7.86831416e-003 6.64865179e-003 1.73204187e-002 2.05567162e-002
      1.55376233e-002 -1.49401855e-002 -2.54262220e-002 -1.21942591e-002
      -1.43203316e-002 1.31207125e-004 1.66314300e-002 2.49465704e-002
      4.71107215e-002 2.69380081e-002 -8.93630087e-003 -1.60920527e-002
      -1.86063200e-002 -2.56825667e-002 -1.53674800e-002 6.78397249e-003
      1.23972185e-002 4.12691869e-002 2.04370301e-002 -1.91094056e-002
      -8.37032404e-003 -2.17526034e-002 -6.01814408e-003
      -1.19146064e-003 1.08806370e-002 2.20362023e-002 3.75433825e-002
      1.25120012e-002 -2.01092269e-002 -3.01200468e-002 -2.32540816e-002
      -1.56247448e-002 -2.36057956e-003 1.57354493e-002 2.83736121e-002
      3.50936353e-002 1.67254694e-002 -1.60522647e-002 -1.75088942e-002
      -2.73668636e-002 -2.40178984e-002 -1.29217459e-002 1.38027258e-002
      5.22473827e-003 1.58397723e-002 1.26272924e-002 -1.32618584e-002
      -1.56018715e-002 -2.51298212e-002 -1.19443759e-002
      -1.38672739e-002 2.26561539e-002 2.45193150e-002 2.38555446e-002
      1.63700450e-002 2.69200513e-003 -1.24685736e-002 -6.46188576e-003
      -6.97707664e-003 -3.24769551e-003 1.81370694e-002 1.92293078e-002
      2.13988051e-002 4.58867149e-003 -8.29275697e-003 -1.34686027e-002
      -1.56545490e-002 2.11372710e-004 2.65795458e-003 2.17670090e-002
      2.31436640e-002 2.93948241e-002 1.22946082e-002 -3.59857618e-003
      -1.01157222e-002 3.47446464e-003 -2.39344761e-002 -1.93297602e-002
      8.55335407e-003 1.19270915e-002 1.78543646e-002 7.06548523e-003
      -5.65156993e-003 -1.45066520e-002 -2.07014158e-002
      -2.00402997e-002 -3.97599256e-003 1.51201803e-002 2.69643851e-002
      2.32079532e-002 9.06041451e-003 1.41489517e-003 -1.36950342e-002
      -3.59868221e-002 -1.04751904e-002 -1.36690645e-003 1.64026171e-002
      2.06346158e-002 2.07093265e-002 4.33174241e-003 -1.22404182e-002
      -1.48949530e-002 -1.65654086e-002 -1.24037766e-003 1.59668531e-002
      2.26623863e-002 3.27932313e-002 3.73709016e-002 2.33799033e-002
      -3.46638099e-003 -1.53869642e-002 -2.47159470e-002
      -1.33651467e-002 6.50932500e-003 8.04836676e-003 1.21644028e-002
      1.56333093e-002 -2.42399285e-003 7.43407640e-004 -1.71730779e-002
      -2.87069064e-002 -1.72433052e-002 -7.69080361e-003 3.82068683e-003
      2.04782505e-002 7.13019026e-003 1.56613402e-002 -8.37741420e-003
      -2.65479498e-002 -2.25224551e-002 3.93825071e-003 2.03802846e-002
      1.37022752e-002 1.38220880e-002 2.93907244e-002 -6.15041108e-006
      -7.67093198e-003 -1.89893208e-002 -1.76669434e-002
      -3.28176352e-003 1.55227343e-002 1.81745980e-002 2.67234165e-002
      2.91581750e-002 -1.63179415e-004 -1.24275954e-002 -3.27615514e-002
      -6.37044990e-003 -7.78693240e-003 -1.08135901e-002
      -8.48423783e-003 2.81860046e-002 6.64484128e-003 6.66149147e-003
      -1.72655042e-002 -2.56516952e-002 -1.68383624e-002 2.73652258e-003
      -5.62723959e-003 -1.68284215e-002 -1.54630300e-002
      -9.28092375e-003 -1.37288477e-002 -1.77482106e-002
      -1.32794511e-002 -1.15764905e-002 8.23207386e-003 1.74241196e-002
      9.49825440e-003 4.18944173e-002 2.52582077e-002 1.21448049e-002
      -1.52886072e-002 -2.78148819e-002 -2.71449401e-003 1.70259010e-002
      1.80666782e-002 8.77378974e-003 4.78239357e-003 1.25204697e-002
      -1.59418359e-002 -1.63448881e-002 -5.71610592e-003 2.85060867e-003
      4.53391485e-003 -2.20625941e-003 -6.67172018e-003 -8.68314505e-003
      -2.38808468e-002 -2.64184792e-002 -2.23027505e-002
      -6.33072853e-003 -6.60746638e-003 1.50294136e-002 1.01757022e-002
      1.83918253e-002 5.53937338e-004 -2.02546101e-002 -5.80540113e-003
      3.92801035e-003 1.24034081e-002 1.20590376e-002 1.71391461e-002
      1.33222351e-002 1.23597262e-002 -1.35559598e-002 -3.45844775e-003
      -2.66072545e-002 -1.89144965e-002 -1.51681842e-003 4.14465962e-004
      2.70933099e-002 1.80507079e-002 2.47456990e-002 6.28317287e-003
      -7.29362760e-003 -5.91140147e-003 4.49748291e-003 1.75665841e-002
      2.27463208e-002 -2.83773933e-002 -1.68887544e-002 -6.62101852e-003
      2.93899141e-003 1.44603299e-002 -1.88358279e-003 -1.39332656e-002
      -1.92430783e-002 -3.40217650e-002 -1.94103867e-002
      -1.22914398e-002 6.79517910e-003 -1.07892444e-002 6.20411476e-003
      1.03995353e-002 1.64783914e-002 -1.54020805e-002 -2.17683762e-002
      -4.23289426e-002 -5.98719530e-003 4.47422295e-004 7.62977451e-003
      2.06980426e-002 1.36801191e-002 -1.09395469e-002 -7.28279026e-003
      -3.97256352e-002 -1.09784687e-002 3.76117416e-004 9.24402382e-003
      2.99187331e-003 2.14975700e-002 6.25123130e-003 1.22174742e-002
      -3.76686826e-003 -2.08874866e-002 -4.34283121e-003
      -1.53720921e-005 1.11536821e-002 -6.65012002e-003 -2.15552114e-002
      -6.84871047e-004 1.56507548e-002 -2.65802559e-003 -6.42123073e-003
      9.10005346e-003 1.82895642e-002 -1.48557487e-003 -2.35306956e-002
      -3.04612946e-002 -1.08599579e-002 7.18319649e-003 -1.80298823e-003
      5.94984449e-004 4.11401363e-003 7.98006076e-003 8.81284289e-003
      -1.21279142e-003 1.07803494e-002 1.68787374e-003 1.92784425e-002
      5.76200848e-003 -3.98607785e-003 9.47158225e-003 8.20651930e-003
      -2.35124375e-003 -4.40343097e-003 4.56388388e-003 -1.72593049e-003
      9.60129499e-003 3.89198563e-003 1.62273506e-003 7.66532961e-003
      6.61076047e-003 -8.94675590e-003 -2.19832528e-002 -2.09911186e-002
      -6.02406915e-003 -1.22669647e-002 -1.15351696e-002
      -1.31323151e-002 1.72187889e-003 -1.32064875e-002 -1.13444515e-002
      -4.42297524e-003 1.23080378e-002 4.30559274e-003 -9.70103964e-003
      8.03441450e-004 -6.01058779e-003 1.18807852e-002 4.27894760e-003
      -9.83737176e-004 -4.68060048e-003 -8.91951844e-003
      -1.66380573e-002 -6.81394804e-003 1.08856264e-004 9.39861871e-004
      1.81362312e-002 9.75686964e-003 -1.07278720e-004 -2.56395550e-003
      9.14853159e-003 -4.70862119e-003 2.87457078e-004 1.43908225e-002
      6.07235031e-003 -6.75989548e-003 -1.51816411e-002 -1.44117167e-002
      -3.07365693e-003 7.84908328e-003 -5.44590270e-003 -2.28871964e-002
      -2.12930553e-002 -2.13053618e-002 3.74359405e-003 -9.07035545e-004
      9.49266553e-003 3.06815878e-002 1.52847683e-002 -1.60290301e-002
      -2.90210042e-002 -3.33867855e-002 -2.37520523e-002 6.21383497e-003
      1.42404949e-003 2.99912674e-004 1.26421452e-002 9.22366325e-003
      2.51403218e-003 -1.37674445e-002 -1.40496446e-002 -3.96014238e-003
      1.23369489e-002 8.04957189e-003 9.94464010e-003 2.52763964e-002
      1.01784067e-002 2.30044909e-002 6.60515740e-004 -1.80729218e-002
      9.64510441e-003 -3.50147975e-003 -7.80930743e-004 1.12739606e-002
      2.10824925e-002 2.28766818e-002 1.96428201e-003 -1.41980639e-002
      -3.35943103e-002 -2.87717991e-002 -2.78721713e-002 1.58876603e-004
      1.68645531e-002 3.09388209e-002 2.05888562e-002 1.26501080e-002
      6.98340405e-003 -3.04629821e-002 -3.71006094e-002 5.38011314e-003
      2.10046652e-003 6.08231919e-003 7.50663644e-003 1.42619833e-002
      2.05298383e-002 7.01628253e-003 -8.53316952e-003 4.02542530e-003
      1.07609862e-002 9.64778848e-003 7.85323139e-003 1.57186761e-003
      1.26840528e-002 2.07994673e-002 2.41991468e-002 4.36965469e-003
      -9.56835970e-003 -2.97199842e-002 -3.13267624e-003 1.82193872e-002
      1.41988173e-002 1.59962999e-003 8.54874309e-003 3.96627234e-003
      -2.41632890e-002 -3.33054997e-002 -1.66744459e-002
      -7.00965105e-003 1.26912044e-002 6.91356463e-003 4.98509454e-003
      8.88282433e-003 -1.68025971e-003 -1.47991544e-002 -1.39137441e-002
      1.66565776e-002 1.53306732e-002 1.03445286e-002 1.33498688e-003
      -4.91902558e-003 1.33121824e-002 1.51234129e-002 -5.62437857e-003
      4.66633867e-003 7.68899499e-003 1.13842487e-002 1.49801616e-002
      -3.16924485e-003 2.47061974e-003 1.46392770e-002 1.98357068e-002
      -6.85330667e-003 2.92892859e-004 -8.17079376e-003 6.04421459e-003
      4.07389691e-003 -7.04451930e-003 5.78292704e-004 -3.29099922e-003
      -1.22756623e-002 -1.66676678e-002 -1.10631986e-002
      -2.29217950e-003 1.79243982e-002 1.41474809e-002 -6.43604761e-003
      -6.96154218e-003 -1.22059854e-002 -1.92637928e-002
      -1.56164756e-002 -1.75200440e-002 7.08345138e-003 7.39191566e-003
      5.58169838e-003 -8.13792367e-003 1.95098086e-003 2.23541050e-003
      1.19274873e-002 -3.52970231e-003 -3.01408407e-004 -2.33508321e-003
      1.23696951e-002 2.09970251e-002 1.37095973e-002 -5.74528519e-003
      -5.88437589e-003 3.67417163e-003 -1.25654088e-003 -2.58566719e-003
      2.54672393e-003 3.62230581e-003 3.52385826e-003 -5.90282213e-003
      -1.40378000e-002 -1.21768434e-002 -2.49700956e-002
      -2.39262357e-002 -1.91574115e-002 -5.95801743e-003
      -2.49356125e-003 -3.75974312e-004 8.86721257e-003 -7.18030031e-004
      -8.88776686e-003 -2.89564747e-002 -4.39945720e-002
      -2.70437431e-002 -1.47531755e-004 1.43246807e-003 1.36170210e-002
      5.38665475e-003 -1.03064077e-002 -2.39295023e-003 -4.77599353e-003
      4.46492166e-004 1.07467268e-002 6.93110097e-003 1.12213800e-003
      -7.03097833e-003 1.06330812e-002 3.46912490e-003 1.27287908e-002
      6.54477254e-003 1.26668485e-003 1.09699946e-002 -1.46513376e-002
      2.74668855e-004 -7.03965221e-003 -7.85860640e-004 -5.37868310e-003
      -5.05060516e-003 -1.13391532e-002 -3.83367203e-002
      -2.31963713e-002 -1.89385936e-002 -3.96318268e-004
      -9.08020325e-003 -9.23893508e-003 9.75799048e-004 1.91435614e-003
      -1.66628473e-002 -2.60972492e-002 -1.56594217e-002 5.29809715e-003
      7.45571591e-003 1.35886739e-003 1.22605907e-002 5.85296936e-003
      8.14581849e-003 2.57787649e-002 1.28454883e-002 5.72172552e-003
      6.12334441e-003 1.48034077e-002 2.52529401e-002 1.89521853e-002
      1.81123167e-002 1.14381807e-002 1.69729069e-002 9.83705465e-003
      4.06802678e-003 -2.29521021e-002 -1.19509688e-002 -3.32681928e-003
      -1.89623865e-003 1.53008755e-002 1.20477856e-003 -2.11033896e-002
      -3.96277979e-002 -3.84349972e-002 -1.70726571e-002
      -1.01392670e-002 9.35161836e-004 1.32552227e-002 2.10449621e-002
      1.11028999e-002 -1.71098169e-002 -3.20548043e-002 -2.67928597e-002
      1.92577415e-003 8.05898011e-003 1.31283794e-002 1.25089502e-002
      2.27127448e-002 9.02783312e-003 3.87779117e-004 -2.06245948e-003
      -1.92140590e-003 1.26004880e-002 1.21533275e-002 1.12439860e-002
      3.00881676e-002 2.43029725e-002 3.31329517e-002 1.99161400e-003
      -1.01800915e-002 3.79119534e-003 -1.57750919e-002 -1.76021624e-002
      -1.39569910e-002 -1.02483518e-002 -6.33827783e-003
      -1.54978810e-002 -1.83813591e-002 -2.99830157e-002
      -2.73649748e-002 -1.17570506e-002 -1.09350849e-002 7.40174786e-004
      -2.37189117e-003 -7.27310544e-003 -1.21419011e-002
      -1.14331301e-002 -2.14915965e-002 -8.97721108e-003 1.81928147e-002
      1.00478912e-002 7.15836789e-003 1.26438299e-002 -2.41787941e-003
      1.84849966e-002 4.07746667e-003 -5.39748883e-003 7.62637472e-003
      3.11786942e-002 1.45564005e-002 1.73089467e-002 1.74626596e-002
      -5.90079138e-003 1.28586376e-002 2.26737913e-002 1.25898123e-002
      2.78823730e-002 -1.39242522e-002 -5.19060995e-003 -3.20699834e-003
      -1.31897803e-003 -2.04045679e-002 -1.34031912e-002
      -1.59652103e-002 -2.08335854e-002 -1.91099644e-002 4.34076181e-003
      1.01248464e-002 3.58121237e-004 6.49813330e-003 -1.56470621e-003
      -3.71357688e-004 -1.82320196e-002 -2.76177973e-002
      -2.35442836e-002 2.73969937e-002 1.11683356e-002 1.57563016e-002
      2.96108145e-002 -1.46830203e-002 1.14526069e-002 1.15447110e-002
      6.07714802e-003 2.05298811e-002 3.24230231e-002 1.89697761e-002
      2.12524626e-002 1.94164496e-002 -2.08963510e-002 2.48445962e-002
      4.94429376e-003 3.56957386e-003 1.42154433e-002 6.13326207e-003
      1.72907691e-002 1.04906466e-002 4.74806130e-003 1.01873670e-002
      -1.01189734e-002 -2.65318155e-002 -1.65902395e-002
      -1.20041771e-002 -5.18460199e-003 1.45946704e-002 1.25160776e-002
      4.12075635e-004 7.94264488e-003 -1.71425082e-002 -2.79185735e-002
      -3.50908227e-002 -1.18565904e-002 1.37295565e-002 1.60665046e-002
      1.51270675e-002 2.75440654e-003 -1.53916739e-002 8.24727770e-003
      -3.24611971e-003 1.21211633e-002 2.08471660e-002 1.19269239e-002
      1.01201562e-002 8.00579786e-003 -1.18629215e-003 -7.88504258e-003
      -1.50604676e-002 -1.37094241e-002 5.33784414e-003 1.39889140e-002
      2.93385331e-003 1.70082729e-002 1.44907888e-002 1.47009669e-002
      6.58273464e-003 6.57663075e-003 -6.53678412e-003 -2.73062289e-002
      -7.08171865e-003 4.77858447e-003 5.37942071e-003 1.10535957e-002
      2.56300252e-003 -8.44459608e-003 -1.75089277e-002 -1.26894088e-002
      -1.58854108e-002 -8.15354288e-003 1.54097592e-002 1.40634142e-002
      1.18211154e-002 1.08371796e-002 -2.08616350e-002 -2.66507082e-003
      -2.91094789e-003 2.92884465e-003 1.39460545e-002 1.74252558e-002
      1.19631486e-002 5.17809484e-003 3.37158889e-003 -2.26176511e-002
      -1.10925036e-002 7.11363088e-003 -3.22199333e-003 1.35327950e-002
      6.64074207e-003 9.11112130e-003 1.38153443e-002 -1.01084439e-002
      -8.84888880e-003 -3.26004475e-002 -2.21477095e-002
      -1.35937165e-002 -7.30657252e-003 1.10600088e-002 9.83552635e-003
      1.06453719e-002 -5.52978460e-003 5.16159320e-003 -1.96582098e-002
      -9.42493975e-003 1.11458553e-002 1.48486253e-002 1.83104277e-002
      2.17398051e-002 1.97646040e-002 -8.60831421e-003 -2.61328500e-002
      -3.04572266e-002 -7.81331025e-003 -5.87009452e-003 1.13471365e-002
      2.17299685e-002 3.37511972e-002 2.94363610e-002 8.67579132e-003
      6.21380052e-003 -1.92249045e-002 -8.50369129e-003 1.55253159e-002
      2.16753334e-002 -3.13989855e-002 1.33497536e-003 7.30296131e-003
      9.22498293e-003 2.13957485e-002 1.69259645e-002 -1.62664950e-002
      -1.68034285e-002 -3.93747427e-002 -1.43742841e-002 5.35720680e-003
      2.43842043e-003 -3.65067902e-003 2.59640124e-002 -8.45395215e-003
      -1.56805776e-002 -4.14428208e-003 -1.62458327e-002
      -2.88634822e-002 -8.54844402e-004 2.97229318e-003 -1.59726944e-002
      1.72188580e-002 -4.66861716e-003 -1.23689426e-002 -1.40448194e-002
      -2.38714572e-002 -7.23580550e-003 5.24566625e-004 -5.32296533e-003
      -2.60782428e-002 7.87486974e-003 -1.91396549e-002 -1.80964116e-002
      -6.28059090e-004 -4.52926150e-003 -1.09699192e-002
      -5.56257181e-003 1.91123073e-003 -2.31537758e-003 2.36670896e-002
      -5.10003265e-005 -4.24237968e-003 1.62097148e-003 -1.80767346e-002
      -3.52113741e-003 -4.41829581e-003 1.04194190e-002 2.26604263e-003
      2.29014698e-002 -4.59323823e-003 -7.25814700e-003 -1.19105522e-002
      -1.22721680e-002 -1.12702344e-002 -7.35120010e-003 1.09171926e-003
      -1.53220287e-002 2.34066192e-002 -5.49899368e-003 -1.70493126e-002
      -8.54882225e-003 -1.30440956e-002 -1.76338516e-002
      -1.54824397e-002 8.11982900e-003 6.87666063e-004 2.36019697e-002
      -1.54435383e-002 -1.21043352e-002 -2.65473481e-002
      -2.41307728e-002 4.14856616e-003 2.49756966e-003 7.92154483e-003
      -1.43712498e-002 -1.03675444e-002 -2.30890810e-002
      -5.41105075e-003 -1.18847014e-002 -5.44313481e-003 2.12635137e-002
      2.01567542e-002 1.51307154e-002 2.40214969e-004 -1.03791954e-003
      -8.49657319e-003 -2.25625187e-003 9.89373401e-003 2.84962612e-003
      -9.21827275e-003 -9.28525813e-003 2.16440321e-003 -1.51143279e-002
      -5.56882331e-003 -2.23861504e-002 -2.51722033e-003
      -1.72285289e-002 -1.53131392e-002 -2.50766380e-003 6.18795108e-004
      6.19357266e-003 3.48028168e-003 -2.87074642e-003 -2.54817978e-002
      -1.18027851e-002 -2.76751816e-003 -6.39295764e-003
      -1.41186209e-003 -2.11639889e-003 2.12647161e-003 1.02121299e-002
      8.40477122e-004 -4.77601495e-003 -1.89138502e-002 -1.81224681e-002
      -1.06950495e-002 3.48090171e-003 -8.29797331e-003 -3.96353332e-003
      3.97271430e-003 2.94863363e-003 1.94866434e-002 5.98548213e-003
      9.18404083e-004 1.10903680e-002 -8.93197116e-003 -1.12083787e-002
      5.02181379e-003 7.96839315e-003 -1.12196188e-002 -2.37586722e-002
      -2.17397157e-002 -1.48349460e-002 -1.17871957e-002
      -1.82727905e-004 -1.73230153e-002 1.49722025e-003 -5.85620850e-003
      -1.00986511e-002 -1.62131060e-002 7.06175808e-003 2.73622340e-003
      5.61611727e-003 -4.99496376e-003 -7.69402459e-003 4.91356384e-003
      1.62022756e-004 -1.60691701e-002 2.17975639e-002 1.63499173e-002
      4.69370687e-004 3.82992066e-003 4.59545804e-003 7.28919776e-003
      6.93146605e-003 -3.80352093e-003 -1.06497854e-002 5.37995668e-003
      1.53881246e-002 1.58467088e-002 -2.03007250e-003 7.79593457e-003
      1.69040402e-003 5.49106672e-003 -3.25196935e-003 -3.03076953e-002
      -8.38839263e-003 4.25631367e-003 -3.00894096e-003 -2.29485543e-003
      2.61297319e-002 1.43489428e-002 3.70611949e-003 -4.50807158e-003
      -2.71150824e-002 -1.29724974e-002 1.26147764e-002 1.28193507e-002
      1.52880950e-002 4.22140956e-003 8.49274360e-003 2.78041582e-003
      -3.86584760e-003 -1.50454175e-002 1.21114580e-002 1.16205318e-002
      5.88844018e-003 1.10410794e-003 -4.10369597e-003 3.42319231e-003
      5.93172200e-003 -1.08892443e-002 -1.88226718e-002 1.94438715e-002
      2.03270540e-002 -1.98220508e-003 -7.45093403e-003 9.50942561e-003
      4.49344935e-003 1.66017143e-003 -6.86948048e-003 -2.09586136e-002
      9.68530029e-003 1.32837947e-002 1.60691533e-002 1.54692056e-002
      7.15519954e-003 1.84960160e-002 8.42489582e-003 4.79554338e-003
      -2.92333774e-002 -2.84273480e-003 9.06215794e-003 9.45709087e-003
      6.57631503e-003 -6.42107194e-003 -1.06824131e-003 -3.35906702e-003
      -1.98710430e-002 -1.38673838e-002 2.88479705e-003 1.34934504e-002
      6.86331466e-003 -1.79684954e-004 -1.07817361e-002 2.76099867e-003
      2.67670886e-003 1.38316734e-003 -2.51763240e-002 -2.15952545e-002
      1.51548535e-002 2.58191349e-003 -2.84270127e-003 3.13106067e-002
      2.47186795e-002 4.35039774e-003 -4.34193900e-003 -3.34413573e-002
      -1.54598011e-002 1.04140425e-002 1.50699420e-002 1.92057248e-002
      4.07876670e-002 2.10659523e-002 7.26325111e-003 -3.10904160e-003
      -3.53602953e-002 -1.16650993e-002 3.90893556e-002 3.37074362e-002
      3.69331911e-002 -8.91285669e-003 -1.10041630e-002 -6.39609480e-003
      -8.80315155e-003 -4.00022343e-002 -2.39198171e-002 3.67460400e-003
      -6.85976539e-003 -6.34279335e-003 -7.93499779e-003
      -8.50970950e-003 -2.03323271e-002 -1.13337059e-002
      -1.02514364e-002 5.72253065e-003 1.70356277e-002 -1.49457122e-003
      -6.90332800e-003 4.18009646e-002 1.03755090e-002 1.91256183e-003
      7.86065648e-004 -2.11672913e-002 -3.28789768e-003 2.94759553e-002
      2.08363291e-002 3.82677130e-002 5.17202802e-002 1.91423260e-002
      1.23234093e-002 6.22183317e-003 -9.01425071e-003 -4.99979942e-004
      7.15730945e-003 1.10215610e-002 3.66670005e-002 -1.59259513e-002
      -3.93284019e-003 -7.33861374e-003 -3.58300633e-003
      -2.11494043e-002 -1.37314564e-002 1.46468598e-002 9.26781818e-003
      -1.50586264e-002 3.87719437e-003 2.72048591e-003 1.28211025e-002
      -5.99425426e-003 -3.47675569e-002 -3.41382995e-002
      -1.11780018e-002 1.05047645e-002 -4.77937236e-003 5.18634580e-002
      1.73113719e-002 1.09464861e-002 -1.18430546e-002 -2.43091118e-002
      -1.42799672e-002 -6.12914329e-003 1.86694264e-002 4.46512438e-002
      4.69020680e-002 4.04018164e-002 1.89222544e-002 -1.57089755e-002
      -3.90453264e-002 -3.37939151e-002 -2.14898158e-002 1.88088175e-002
      4.33273949e-002 9.30845272e-003 -8.22865288e-004 8.66296294e-004
      -6.48687221e-003 -1.57283358e-002 -1.80420764e-002
      -1.23761175e-002 -1.44465175e-003 1.53380376e-003 1.12492004e-002
      1.46315722e-002 8.65490548e-003 1.39144091e-002 -8.16022046e-003
      5.16285049e-003 -2.12292261e-002 -1.77844446e-002 -4.47754981e-003
      3.68946381e-002 3.10393479e-002 2.70212488e-003 -1.48852812e-002
      -2.98381764e-002 -1.91564504e-002 -1.08700460e-002 6.84239296e-003
      2.92855836e-002 3.12437061e-002 2.86637917e-002 1.32365236e-002
      -3.20358947e-003 -1.34798456e-002 -1.11123445e-002 8.18428234e-004
      5.41319326e-003 1.25273969e-002 2.47159079e-002 2.09210832e-002
      1.43181002e-002 1.02184070e-002 -2.94665135e-002 -9.97627433e-003
      -1.29460040e-002 -1.27291381e-002 6.68606395e-003 4.26122025e-002
      2.80244984e-002 1.75775457e-002 1.45687843e-002 -4.20764834e-002
      -1.60963405e-002 5.79714950e-004 -3.01424181e-003 2.47398634e-002
      3.36442292e-002 2.66802050e-002 1.78937409e-002 2.51847412e-003
      -3.86737995e-002 -3.52324806e-002 -1.02965012e-002 4.30574827e-003
      2.11798828e-002 4.35759053e-002 3.27118188e-002 1.34691428e-002
      -7.00387917e-003 -5.71641140e-002 -5.16194552e-002
      -5.43169817e-003 5.34045557e-003 3.77398171e-002 3.40750702e-002
      2.79141385e-002 2.52208598e-002 3.45738940e-002 -2.85888687e-002
      3.44584842e-005 -6.90504629e-003 -3.94093106e-003 1.62013415e-002
      3.56582850e-002 1.94352027e-002 2.50956807e-002 1.75448321e-002
      -3.29781249e-002 4.58271289e-003 9.03581444e-004 5.77614317e-003
      2.56596077e-002 3.43849771e-002 3.47908251e-002 2.24276297e-002
      -8.46596994e-003 -5.28646111e-002 -2.47488841e-002
      -1.80220753e-002 -4.06570872e-003 2.01531500e-002 3.07434760e-002
      1.54796923e-002 8.75560474e-003 -9.27348807e-003 -3.62189449e-002
      -1.54120326e-002 -1.15712900e-002 8.83165933e-003 2.45291106e-002
      3.21727470e-002 1.64900348e-002 1.98216662e-002 -2.45298888e-003
      -2.35648584e-002 1.83851330e-003 1.31386332e-002 2.49726698e-002
      3.72920036e-002 9.32597835e-003 4.28464822e-003 7.94856809e-003
      -6.76546805e-003 -3.41543965e-002 -2.27365699e-002
      -4.11221152e-003 1.53461853e-002 1.89881735e-002 4.02998738e-002
      7.50662526e-003 -8.48984520e-004 -1.63444895e-002 -1.97439436e-002
      -4.69139079e-003 5.28870476e-003 1.98931601e-002 4.25036587e-002
      3.25784199e-002 -6.19555078e-003 -1.35126337e-002 -2.43386738e-002
      -4.17714156e-002 -3.04338578e-002 -4.82024485e-003 1.83132496e-002
      3.57706547e-002 1.94451474e-002 1.17421150e-002 1.47204045e-002
      4.03854204e-003 -3.79768163e-002 -9.59759858e-003 6.77389372e-003
      1.60091370e-002 1.81425326e-002 1.93559434e-002 1.51627501e-002
      9.94735025e-003 1.64017570e-003 -3.30078527e-002 -9.82976984e-003
      1.24495253e-002 7.80852931e-003 1.86153445e-002 2.35770363e-002
      6.04726980e-003 6.87430846e-003 -2.21091807e-002 -3.07277851e-002
      -1.95740703e-002 5.14461054e-003 1.66465100e-002 2.66140066e-002
      2.47516297e-002 1.46078235e-002 1.26931807e-002 -1.78385451e-002
      -3.63742150e-002 -2.90907472e-002 1.05547765e-003 1.17871258e-002
      1.95355471e-002 1.87995918e-002 1.11318287e-002 1.58627182e-002
      -8.33927188e-003 -3.61295938e-002 -2.03438923e-002
      -1.77099789e-003 5.46528772e-003 2.14392040e-002 2.65561026e-002
      2.51853466e-002 2.20261421e-002 6.99657621e-003 5.76200476e-003
      -2.44261231e-003 -3.02370265e-003 1.04699414e-002 2.03916859e-002
      2.43990403e-002 6.03829185e-003 4.49186005e-003 -1.71703156e-002
      -3.17911580e-002 -3.95961069e-002 -1.40700908e-002 2.04631733e-003
      1.79760456e-002 2.24555992e-002 1.25136727e-003 2.31075776e-003
      -3.21441400e-003 -5.88463480e-003 -1.83892623e-002
      -2.07619816e-002 1.59388664e-003 1.59853548e-002</_></support_vectors>
  <decision_functions>
    <_>
      <sv_count>1</sv_count>
      <rho>-5.7153374813791735e-001</rho>
      <alpha>
        1.</alpha></_></decision_functions></opencv_ml_svm>
</opencv_storage>
