<?xml version="1.0"?>
<opencv_storage>
<opencv_ml_svm>
  <format>3</format>
  <svmType>C_SVC</svmType>
  <kernel>
    <type>RBF</type>
    <gamma>1.</gamma></kernel>
  <C>1.</C>
  <term_criteria><epsilon>1.1920928955078125e-007</epsilon>
    <iterations>1000</iterations></term_criteria>
  <var_count>3780</var_count>
  <class_count>2</class_count>
  <class_labels type_id="opencv-matrix">
    <rows>2</rows>
    <cols>1</cols>
    <dt>i</dt>
    <data>
      0 1</data></class_labels>
  <sv_total>24</sv_total>
  <support_vectors>
    <_>
      1.40746117e-001 1.51089504e-001 1.89504951e-001 1.23137906e-001
      7.08275735e-002 3.75852399e-002 5.07411510e-002 9.93890986e-002
      1.70060247e-001 1.70133114e-001 2.01642916e-001 1.45869181e-001
      8.63191485e-002 5.42103089e-002 9.36263055e-003 2.85151936e-002
      1.15309224e-001 2.20090106e-001 2.44059280e-001 2.39229158e-001
      2.84406632e-001 6.52140900e-002 6.38584718e-002 6.81181028e-002
      1.19811267e-001 2.14360416e-001 2.54145056e-001 3.41182560e-001
      2.32999891e-001 1.35739729e-001 2.42162608e-002 2.56865118e-002
      2.95282770e-002 9.96240824e-002 2.01175511e-001 3.37614924e-001
      1.79973334e-001 1.31172672e-001 7.80970976e-002 3.08544245e-002
      4.51689102e-002 2.24582274e-002 6.38407469e-002 1.58721820e-001
      1.94718704e-001 2.57609636e-001 2.50610322e-001 1.58776581e-001
      3.87685560e-002 7.18015805e-002 6.04890659e-002 1.15553245e-001
      1.44197688e-001 1.57127470e-001 3.53765994e-001 1.68036789e-001
      4.15460691e-002 2.03997791e-002 2.05101203e-002 9.04869586e-002
      1.48321047e-001 1.56352594e-001 2.70311862e-001 3.53765994e-001
      2.32767299e-001 9.93764028e-002 6.08325899e-002 3.79047543e-002
      1.45887017e-001 1.89041153e-001 1.84534982e-001 2.78372318e-001
      1.85259864e-001 2.16417089e-001 1.33548871e-001 2.04886179e-002
      4.55743335e-002 3.34866308e-002 1.43099159e-001 1.56461552e-001
      1.26900584e-001 2.22797111e-001 1.51740834e-001 6.90127164e-002
      2.15712562e-002 4.77240160e-002 7.39381313e-002 1.50370941e-001
      2.05956429e-001 2.60546148e-001 2.74881452e-001 1.66624412e-001
      9.66177806e-002 2.69459244e-002 1.37495194e-002 3.83409224e-002
      1.15543827e-001 1.90788820e-001 3.13243628e-001 3.21203649e-001
      1.91016108e-001 8.83752704e-002 5.34507707e-002 9.73629765e-003
      5.95110841e-002 1.32899001e-001 2.43621662e-001 3.47013175e-001
      1.06269509e-001 1.03717007e-001 7.22627044e-002 5.24835400e-002
      7.93232098e-002 1.11939929e-001 1.14577822e-001 8.77242014e-002
      1.05648905e-001 1.08542904e-001 1.43495426e-001 1.08743586e-001
      2.10139021e-001 2.75441259e-001 2.48748645e-001 1.72298536e-001
      8.91867429e-002 1.01816520e-001 1.92588866e-001 1.72247693e-001
      8.32779780e-002 5.74708432e-002 8.29695910e-002 9.39517468e-002
      1.28542721e-001 1.53620347e-001 1.65716171e-001 2.22706780e-001
      2.43089512e-001 1.31309077e-001 2.75441259e-001 2.75441259e-001
      2.45439813e-001 2.31387571e-001 2.33764008e-001 1.89517319e-001
      5.22836149e-002 9.33983475e-002 5.82147911e-002 1.45091772e-001
      1.73453793e-001 1.10452257e-001 4.62698154e-002 4.06814553e-002
      5.94614446e-002 1.48661792e-001 2.28999063e-001 1.34507224e-001
      2.63892919e-001 2.18208820e-001 9.91926789e-002 7.01023191e-002
      1.13054842e-001 1.71128795e-001 9.00194943e-002 1.33902743e-001
      6.13912754e-002 2.63892919e-001 2.37646908e-001 1.68057159e-001
      8.65308568e-002 9.60679054e-002 1.11312807e-001 1.82050660e-001
      2.63892919e-001 1.84489086e-001 2.63892919e-001 2.63892919e-001
      2.63892919e-001 1.67337701e-001 1.18149161e-001 2.10176855e-001
      2.06112340e-001 1.86796814e-001 1.26803219e-001 1.94439530e-001
      1.82136133e-001 7.29623735e-002 5.16947098e-002 7.00507239e-002
      1.55547768e-001 2.37610862e-001 2.37610862e-001 1.45751163e-001
      1.29346117e-001 1.92487016e-001 1.00940138e-001 1.24160826e-001
      1.06256150e-001 2.37610862e-001 1.31866708e-001 2.37610862e-001
      1.83334708e-001 2.37610862e-001 1.80949017e-001 1.25687838e-001
      9.83544812e-002 7.33719096e-002 1.37121439e-001 2.22737581e-001
      1.78719521e-001 1.36454567e-001 1.15133591e-001 1.30654946e-001
      1.26185194e-001 2.06566349e-001 1.51418790e-001 2.37610862e-001
      1.84543669e-001 1.84907690e-001 1.24042727e-001 1.40315011e-001
      1.61247388e-001 7.46724382e-002 9.81431082e-002 1.68477938e-001
      2.52791911e-001 1.60991639e-001 8.83324444e-002 1.46090582e-001
      1.79768085e-001 1.74934626e-001 1.39265567e-001 1.04099378e-001
      2.52791911e-001 2.52791911e-001 2.52791911e-001 1.24079064e-001
      7.55166113e-002 7.82982111e-002 9.15801302e-002 7.17027858e-002
      1.19718544e-001 1.25687793e-001 2.52791911e-001 2.52791911e-001
      1.62594974e-001 1.43435419e-001 1.36836767e-001 1.09055296e-001
      1.26155749e-001 1.41405493e-001 2.11167932e-001 2.52791911e-001
      1.86584577e-001 9.05216262e-002 1.21858209e-001 4.40006144e-002
      9.49187577e-002 1.04873016e-001 1.11400478e-001 2.31098756e-001
      2.34544158e-001 2.16820225e-001 1.22376040e-001 8.63611028e-002
      4.62468751e-002 1.03762403e-001 1.08529568e-001 1.40187010e-001
      1.70818478e-001 2.28914797e-001 2.34544158e-001 1.66052714e-001
      1.70759112e-001 6.48741573e-002 8.87945294e-002 1.63967192e-001
      2.30221912e-001 2.03789324e-001 2.34544158e-001 2.34544158e-001
      1.48303151e-001 1.38680682e-001 9.82180685e-002 1.63740695e-001
      2.13431671e-001 2.18252048e-001 1.68860346e-001 2.16803670e-001
      1.78920105e-001 1.63521037e-001 1.52546138e-001 1.31037697e-001
      1.49811968e-001 1.75969690e-001 1.53057232e-001 1.41176149e-001
      2.04838008e-001 8.49390104e-002 7.26784319e-002 8.88995081e-002
      1.66822314e-001 2.73636699e-001 1.52084708e-001 7.41428062e-002
      5.06116785e-002 1.08080514e-001 2.24485442e-001 1.60353690e-001
      1.88024908e-001 2.02133372e-001 2.16507792e-001 2.51885533e-001
      1.61097199e-001 1.26025856e-001 2.42271900e-001 9.94795114e-002
      9.05208960e-002 1.36552423e-001 2.50468105e-001 2.73636699e-001
      1.86119407e-001 7.80215189e-002 7.78253749e-002 9.52268094e-002
      1.25768408e-002 6.25314238e-003 1.88496578e-002 1.34691477e-001
      4.14293528e-001 1.04517467e-001 2.03140508e-002 5.81544498e-003
      1.35152787e-002 4.15061659e-004 1.02470955e-003 2.46087043e-003
      1.02990068e-001 4.14293528e-001 1.02694236e-001 8.35193135e-003
      5.54184255e-004 1.53558896e-004 2.23565549e-002 1.35675194e-002
      2.88382620e-002 3.10841352e-001 4.14293528e-001 1.73441902e-001
      2.40315869e-002 1.78109203e-002 1.69868022e-002 6.82161888e-003
      4.74580843e-003 8.38289969e-003 3.03335458e-001 4.14293528e-001
      1.89683750e-001 1.60788856e-002 5.40650077e-003 2.06153677e-003
      2.14562728e-003 4.32914216e-003 6.07761927e-003 7.14240149e-002
      4.28219885e-001 7.82352090e-002 1.18895797e-002 2.21980759e-003
      1.09890511e-003 1.53871661e-003 3.04294401e-003 2.40181852e-002
      1.89408749e-001 4.28219885e-001 1.37317598e-001 1.67670567e-002
      1.44074613e-003 1.19967724e-003 6.02403749e-003 1.28791304e-002
      1.62143540e-002 1.65623024e-001 4.28219885e-001 1.32924125e-001
      1.97896026e-002 7.87656195e-003 6.38225861e-003 2.36678007e-003
      7.63022900e-003 4.42890413e-002 3.04504484e-001 4.28219885e-001
      2.31743678e-001 2.54039951e-002 4.15625283e-003 4.79272706e-003
      8.35025124e-003 6.80270931e-003 4.24781702e-002 2.72703826e-001
      4.57443953e-001 1.83868021e-001 2.40912214e-002 3.58693278e-003
      5.06243715e-003 2.58160308e-002 1.57642551e-002 2.36700252e-002
      2.02011809e-001 2.85476565e-001 9.68908593e-002 2.26115678e-002
      1.26826456e-002 9.91359353e-003 9.03495122e-003 1.39615098e-002
      7.52756745e-002 3.62313271e-001 4.57443953e-001 2.73388982e-001
      3.87016088e-002 1.12306224e-002 1.09049855e-002 2.17086319e-002
      2.08395310e-002 2.65980624e-002 1.53651014e-001 2.87737191e-001
      9.36120823e-002 3.14162299e-002 2.20539831e-002 1.78485643e-002
      3.50904129e-002 1.71723682e-002 4.95751202e-002 3.14547926e-001
      3.46819788e-001 1.94949687e-001 3.76608409e-002 3.59968841e-002
      1.95480566e-002 6.12962730e-002 4.51136492e-002 8.03773254e-002
      2.75867492e-001 3.37890983e-001 1.73098966e-001 6.62321076e-002
      6.19260781e-002 3.73423994e-002 1.83721930e-002 9.69370827e-003
      3.31392325e-002 3.03292036e-001 3.46819788e-001 1.75202698e-001
      2.79919878e-002 1.49084982e-002 1.19301798e-002 3.05545107e-002
      4.66086827e-002 7.68191516e-002 2.89821744e-001 3.46819788e-001
      1.73901096e-001 2.73174178e-002 7.47717591e-003 1.20069692e-002
      4.18921560e-002 3.92882563e-002 4.47909012e-002 1.41719833e-001
      2.36323744e-001 1.52902350e-001 1.01249434e-001 7.16992542e-002
      3.20090652e-002 3.27415317e-002 3.97707447e-002 5.82578704e-002
      3.33435893e-001 3.54004860e-001 2.97516972e-001 1.69252962e-001
      7.56379589e-002 4.86452170e-002 5.34347333e-002 7.97134340e-002
      6.81998730e-002 1.37196139e-001 2.65970290e-001 1.54498518e-001
      7.83364996e-002 4.74309176e-002 3.28885466e-002 6.02587275e-002
      8.39112401e-002 7.85088614e-002 1.88830420e-001 3.54004860e-001
      3.54004860e-001 2.31827885e-001 9.63275582e-002 6.86708316e-002
      4.71425280e-002 7.17229918e-002 1.04580104e-001 2.66810238e-001
      3.20928335e-001 1.53928131e-001 1.01332113e-001 5.09452708e-002
      7.09518790e-002 4.76867706e-002 1.03733867e-001 2.17822403e-001
      2.76652068e-001 3.18159729e-001 2.14171931e-001 6.63815141e-002
      4.53783795e-002 4.59889174e-002 5.90994433e-002 9.59881991e-002
      1.13472529e-001 1.72798976e-001 3.20928335e-001 2.08277076e-001
      1.48056358e-001 6.90936148e-002 8.75670314e-002 7.34567493e-002
      1.31366804e-001 1.83769643e-001 2.63035238e-001 2.48229071e-001
      1.66122079e-001 9.05481055e-002 7.21932352e-002 7.48718157e-002
      3.15601468e-001 9.14843827e-002 9.38220769e-002 1.19740628e-002
      3.09514385e-002 1.20809842e-002 4.01298366e-002 1.51634023e-001
      3.26569229e-001 3.39548439e-001 6.83587864e-002 3.24640721e-002
      2.82345363e-003 1.04514193e-002 1.56249497e-002 5.94516508e-002
      1.17923804e-001 3.39548439e-001 3.39548439e-001 6.14204556e-002
      2.55870707e-002 1.90299321e-002 3.44765224e-002 1.45373754e-002
      2.81467270e-002 1.27906352e-001 3.39548439e-001 3.39548439e-001
      3.51421610e-002 5.53166214e-003 2.31490424e-003 1.19752577e-002
      1.73395444e-002 3.99721935e-002 7.34247640e-002 3.39548439e-001
      3.36627871e-001 6.91666976e-002 7.63708772e-003 2.13709660e-003
      1.68030884e-003 4.07760330e-002 9.26049799e-002 8.06978568e-002
      3.09507191e-001 3.36627871e-001 1.13155618e-001 1.72936544e-002
      8.74248985e-003 3.66494246e-003 4.22056727e-002 7.98287317e-002
      8.16912502e-002 3.34732682e-001 3.36627871e-001 5.30842692e-002
      1.07477913e-002 1.57327449e-003 2.54893675e-003 5.53256646e-002
      6.30806535e-002 4.66535725e-002 3.36627871e-001 3.36627871e-001
      1.51723132e-001 4.77320179e-002 2.02695304e-003 1.98250660e-003
      7.75989741e-002 8.63290131e-002 9.12445113e-002 3.36627871e-001
      3.09506148e-001 5.26528060e-002 1.04557909e-002 3.54648591e-003
      1.81013544e-003 8.37042928e-003 2.58396007e-002 7.77991638e-002
      3.09506148e-001 3.09506148e-001 7.75713250e-002 4.76100408e-002
      3.20498087e-002 9.05050151e-003 3.51066776e-002 4.29925360e-002
      1.36975631e-001 3.09506148e-001 3.09506148e-001 1.28028855e-001
      7.10759610e-002 1.09743746e-002 3.15072644e-003 4.66524884e-002
      1.05968021e-001 1.17617801e-001 3.09506148e-001 3.09506148e-001
      1.64940894e-001 2.21229970e-001 8.28723833e-002 2.54465956e-002
      7.78180882e-002 1.10347092e-001 1.97285905e-001 3.09506148e-001
      1.82621256e-001 1.18756801e-001 6.63357005e-002 3.46257426e-002
      7.51018822e-002 4.74363640e-002 4.89564985e-002 1.47740632e-001
      1.93915144e-001 2.32538804e-001 2.26131931e-001 1.56838223e-001
      1.62657395e-001 1.79732651e-001 8.73782709e-002 8.46904516e-002
      2.29956359e-001 1.99878976e-001 2.29104117e-001 1.65588915e-001
      1.68347582e-001 9.98567864e-002 6.60224333e-002 6.84669688e-002
      6.11993074e-002 1.73450649e-001 1.89768806e-001 2.67404675e-001
      2.67404675e-001 2.67404675e-001 2.42234945e-001 1.53526619e-001
      5.17566502e-002 5.69034219e-002 1.73076585e-001 2.20459536e-001
      1.79817230e-001 1.63675472e-001 1.28070101e-001 1.95918322e-001
      1.37830347e-001 1.11042053e-001 6.77939504e-002 1.32948324e-001
      1.38644174e-001 2.68357068e-001 2.68357068e-001 2.11803824e-001
      1.78009063e-001 1.24835759e-001 1.60395339e-001 7.76747242e-002
      6.45751879e-002 1.82223573e-001 2.68357068e-001 2.68357068e-001
      2.37028182e-001 1.79677427e-001 1.17631420e-001 8.21630880e-002
      3.50685567e-002 5.74844927e-002 1.50466859e-001 2.68357068e-001
      2.31729224e-001 1.75434649e-001 8.62371475e-002 1.02525316e-001
      1.37419552e-001 2.64942162e-002 2.98422650e-002 1.73531041e-001
      2.31502935e-001 2.69552082e-001 2.69552082e-001 1.55517414e-001
      1.42654404e-001 9.60284248e-002 6.90767318e-002 4.90608029e-002
      1.55569345e-001 2.69552082e-001 2.38059416e-001 1.83434322e-001
      8.15150663e-002 1.00569002e-001 7.09990039e-002 1.30688041e-001
      1.50793836e-001 2.69552082e-001 2.43403226e-001 2.16221392e-001
      1.81032315e-001 6.74360394e-002 1.26270890e-001 6.31986558e-002
      1.99322868e-002 3.77953090e-002 1.50425568e-001 2.69552082e-001
      2.69552082e-001 1.63628072e-001 7.37880021e-002 1.26888677e-001
      1.21962549e-002 4.37393859e-002 8.10126960e-002 1.61347285e-001
      2.86062777e-001 1.33731619e-001 8.34766701e-002 2.87834294e-002
      3.95721197e-002 4.70995232e-002 8.25766623e-002 1.34914979e-001
      2.86062777e-001 2.86062777e-001 2.66048312e-001 2.19071627e-001
      1.17039867e-001 6.15085810e-002 7.68366382e-002 1.25792846e-001
      2.20839441e-001 2.86062777e-001 1.84527457e-001 2.52204508e-001
      1.99425220e-001 9.37706381e-002 6.88374341e-002 2.59828977e-002
      4.97796685e-002 7.31323957e-002 1.11453682e-001 1.58362120e-001
      2.34053433e-001 2.86062777e-001 1.61923617e-001 8.61509368e-002
      4.39556278e-002 7.47292712e-002 1.43534377e-001 1.15064666e-001
      2.54596323e-001 2.04915822e-001 2.34294996e-001 1.05470985e-001
      5.97642399e-002 1.11392289e-001 1.88867718e-001 1.45999774e-001
      2.54596323e-001 2.54596323e-001 1.56324610e-001 1.31609917e-001
      9.65166911e-002 9.47923437e-002 1.51762873e-001 1.66454151e-001
      1.74022704e-001 2.54596323e-001 1.82585269e-001 1.77892223e-001
      2.54596323e-001 1.46046892e-001 6.79658651e-002 2.84797251e-002
      7.00984672e-002 1.03288636e-001 1.41923651e-001 2.34925658e-001
      1.43317655e-001 1.39252961e-001 8.85280594e-002 5.91481961e-002
      8.32692310e-002 1.07158102e-001 1.84770152e-001 2.54596323e-001
      2.29238227e-001 1.06304407e-001 6.88165128e-002 9.25668478e-002
      8.79288167e-002 1.27501085e-001 8.55522677e-002 1.34319454e-001
      2.70891249e-001 1.14478402e-001 6.87751025e-002 8.79089236e-002
      2.61470079e-001 2.70891249e-001 1.60083964e-001 6.98136836e-002
      8.81374627e-002 1.15495101e-001 2.19859049e-001 9.39967260e-002
      4.30610664e-002 3.14661972e-002 4.19364795e-002 1.01956092e-001
      1.00164227e-001 2.61252224e-001 2.70891249e-001 2.70891249e-001
      1.41458526e-001 9.57348719e-002 1.78280488e-001 2.70891249e-001
      1.68142378e-001 9.76202339e-002 1.89050645e-001 2.70891249e-001
      1.97742563e-002 1.25180595e-002 2.24593561e-002 3.15184236e-001
      3.15184236e-001 1.16633236e-001 1.87527072e-002 2.32992675e-002
      1.13667669e-002 8.10941961e-003 1.01349475e-002 7.46878656e-003
      2.71896571e-001 3.15184236e-001 9.82478186e-002 1.51454154e-002
      1.05024781e-002 5.67960227e-003 2.16564804e-001 7.74978697e-002
      6.80127889e-002 2.33182728e-001 3.15184236e-001 1.42084807e-001
      5.43685742e-002 3.61172073e-002 1.78154916e-001 3.15184236e-001
      1.54008478e-001 9.17986184e-002 1.83537126e-001 3.15184236e-001
      1.49333090e-001 7.98941627e-002 4.32174802e-002 1.90975830e-001
      8.26288480e-003 1.35723697e-002 1.21192737e-002 1.24968059e-001
      3.66851151e-001 7.15344548e-002 2.19281111e-002 1.11760814e-002
      9.80927423e-003 3.27702705e-003 5.85759338e-003 1.83418468e-002
      1.59428090e-001 3.66851151e-001 1.49401560e-001 1.46657061e-002
      3.95959429e-003 3.30199022e-003 3.09979111e-001 1.44535244e-001
      7.41003379e-002 9.24556479e-002 3.03918213e-001 1.49229109e-001
      1.29787028e-001 1.51236996e-001 2.55487531e-001 1.02880940e-001
      7.67503902e-002 5.58123551e-002 1.86688989e-001 3.66851151e-001
      2.28757933e-001 1.63176864e-001 1.56093299e-001 1.18282534e-001
      1.04033574e-002 1.49541339e-002 4.26825583e-002 2.17322528e-001
      4.42402124e-001 2.21305907e-001 2.20748968e-002 9.19029303e-003
      1.10234255e-002 1.77988261e-002 1.89317521e-002 2.78249234e-002
      9.34150442e-002 2.75257021e-001 1.04628429e-001 3.24430093e-002
      1.69028305e-002 2.13439669e-002 8.70075598e-002 7.17668384e-002
      1.00860775e-001 2.42843017e-001 4.42402124e-001 2.89625555e-001
      2.00383425e-001 1.60039410e-001 9.87500548e-002 4.51151356e-002
      4.56091575e-002 9.21372622e-002 1.60290807e-001 2.88127989e-001
      1.44827873e-001 1.16908379e-001 6.72396496e-002 6.82603046e-002
      7.60441320e-003 1.14628049e-002 2.98605170e-002 1.64399311e-001
      3.68150681e-001 1.74195558e-001 3.41275595e-002 1.06586376e-002
      1.14679979e-002 7.63573637e-003 2.56711412e-002 4.58759405e-002
      1.75846070e-001 3.68150681e-001 1.83891416e-001 4.38698605e-002
      2.21874379e-002 9.59916878e-003 4.03605066e-002 3.99117358e-002
      1.27324030e-001 2.21829101e-001 3.68150681e-001 2.23635301e-001
      1.35245815e-001 5.73121235e-002 5.26277535e-002 5.56451492e-002
      2.78257541e-002 8.83189887e-002 1.66015372e-001 3.68150681e-001
      2.59110749e-001 2.21969083e-001 1.36552185e-001 8.34522322e-002
      2.09999364e-002 4.88505103e-002 4.02774252e-002 1.13583572e-001
      2.60283440e-001 1.33514985e-001 5.98834381e-002 4.03519087e-002
      3.22927721e-002 2.30109710e-002 5.75654581e-002 6.68825582e-002
      1.21531978e-001 3.55939120e-001 2.89938271e-001 1.57302156e-001
      6.82031661e-002 4.88374010e-002 4.42962460e-002 7.69633651e-002
      5.64353764e-002 1.63092211e-001 2.57565796e-001 1.57820970e-001
      1.65885910e-001 1.09588079e-001 9.95943993e-002 3.85145470e-002
      1.42167807e-001 1.89750627e-001 3.55939120e-001 3.55939120e-001
      3.18433851e-001 1.44862697e-001 6.62492886e-002 7.35803843e-002
      2.28796676e-002 5.11115789e-002 6.81766719e-002 1.39883697e-001
      3.46127212e-001 2.08895355e-001 1.32079229e-001 6.74974769e-002
      5.55179305e-002 3.90970968e-002 7.76023194e-002 7.02133402e-002
      1.74850538e-001 2.29304224e-001 1.39810875e-001 1.09829009e-001
      7.82340318e-002 6.45383522e-002 3.41553316e-002 9.17366818e-002
      1.41387507e-001 3.46127212e-001 3.46127212e-001 2.87231863e-001
      1.31186709e-001 6.37873784e-002 5.64593263e-002 6.19503893e-002
      9.52374041e-002 8.30603987e-002 3.06186289e-001 3.03839862e-001
      1.71251878e-001 1.37459353e-001 8.22553933e-002 7.82544017e-002
      3.56186718e-001 1.78966865e-001 8.59375075e-002 5.86376265e-002
      1.12487033e-001 7.99419284e-002 5.61394021e-002 1.13440074e-001
      3.62809539e-001 3.75555605e-001 6.75669238e-002 2.01018658e-002
      1.06264120e-002 5.88924289e-002 6.56682774e-002 8.24332163e-002
      1.35414943e-001 3.75555605e-001 1.78131506e-001 1.91339806e-001
      1.76856443e-001 1.08223855e-001 1.90959156e-001 2.02035725e-001
      7.06936121e-002 1.06286578e-001 1.57774940e-001 9.83874872e-002
      8.30339938e-002 7.09060431e-002 3.76970097e-002 1.01479068e-001
      1.32392794e-001 9.89277884e-002 1.16500176e-001 1.89050183e-001
      1.88894466e-001 4.38731275e-002 1.91213824e-002 3.84790474e-003
      1.07103316e-002 7.47094303e-002 8.33259821e-002 8.46805871e-002
      2.43525535e-001 2.58523256e-001 1.95588589e-001 1.00822218e-001
      3.54499631e-002 2.32086275e-002 1.27841249e-001 1.43668309e-001
      1.21479452e-001 2.85095096e-001 7.70118535e-002 5.99539354e-002
      4.83453497e-002 2.46121734e-002 3.08549535e-002 4.98233922e-002
      6.22166544e-002 7.46837929e-002 1.04125917e-001 2.29020968e-001
      3.42361569e-001 3.42361569e-001 3.04953784e-001 3.42361569e-001
      1.98096961e-001 8.05853829e-002 9.48317870e-002 2.03478172e-001
      1.19942099e-001 1.26916483e-001 5.25288470e-002 1.83231942e-002
      8.23422149e-003 3.06771267e-002 4.85248715e-002 3.77086550e-002
      8.84662420e-002 1.97469100e-001 1.53963342e-001 9.63082910e-002
      3.05313282e-002 1.35851931e-002 1.74360089e-002 2.81075686e-002
      7.65158162e-002 1.77196339e-001 2.88771600e-001 2.88771600e-001
      2.26964936e-001 1.41639248e-001 2.88771600e-001 9.50663462e-002
      2.59003844e-002 2.61345766e-002 1.27223760e-001 2.88771600e-001
      2.88771600e-001 2.05226868e-001 2.81072885e-001 2.73353726e-001
      6.10909574e-002 4.29435000e-002 1.98924139e-001 2.88771600e-001
      1.46764129e-001 1.27685502e-001 1.36439532e-001 9.98635888e-002
      4.37261388e-002 1.57243833e-002 2.20250804e-002 7.14743510e-002
      1.21485636e-001 1.78574517e-001 2.35053957e-001 2.72221595e-001
      2.63343930e-001 7.64878467e-002 3.23319584e-002 2.90979501e-002
      2.40483582e-002 6.42277822e-002 2.72221595e-001 1.29992574e-001
      2.15842903e-001 2.72221595e-001 2.72221595e-001 3.26110683e-002
      3.72935571e-002 2.00397193e-001 2.72221595e-001 7.82119259e-002
      1.85820386e-001 2.72221595e-001 2.72221595e-001 2.41367593e-001
      7.12000206e-002 3.02341674e-002 3.71047445e-002 9.11286250e-002
      2.67673463e-001 2.78539747e-001 2.78539747e-001 2.78539747e-001
      1.64817199e-001 1.54685378e-001 2.95402221e-002 2.96398439e-002
      1.03516348e-001 1.79501474e-001 1.55647978e-001 1.27687812e-001
      1.27140582e-001 1.66155577e-001 2.34306872e-001 7.58492649e-002
      7.95132741e-002 1.09394014e-001 7.12896585e-002 1.48275092e-001
      2.78539747e-001 2.73646981e-001 1.88875452e-001 1.80077836e-001
      5.64599223e-002 5.77587746e-002 1.53194696e-001 6.52355254e-002
      5.41311018e-002 9.20491442e-002 8.22868645e-002 1.31214127e-001
      2.09546775e-001 1.23496771e-001 1.92263946e-001 1.42780781e-001
      2.07087293e-001 1.49385676e-001 1.20084926e-001 9.85403359e-002
      1.41521707e-001 1.28701180e-001 8.49148929e-002 1.44076854e-001
      1.70988038e-001 2.93535590e-001 2.93535590e-001 1.58341512e-001
      1.00164376e-001 9.00702178e-002 1.79661755e-002 9.55145359e-002
      1.79778472e-001 2.93535590e-001 1.73432961e-001 9.78049040e-002
      8.45240355e-002 5.67022562e-002 7.57735595e-002 8.77143368e-002
      1.08677812e-001 2.58536875e-001 2.38411471e-001 2.93535590e-001
      1.48181126e-001 7.83075541e-002 3.62807512e-002 2.13073548e-002
      1.88907217e-002 1.09033830e-001 2.38957062e-001 2.93535590e-001
      2.30835378e-001 2.38354683e-001 2.08448634e-001 1.37489855e-001
      6.35799915e-002 3.02077886e-002 8.89876708e-002 1.04963437e-001
      2.24969655e-001 1.75018117e-001 1.79717481e-001 2.76420176e-001
      1.78439260e-001 1.07449397e-001 6.31474629e-002 1.58722430e-001
      2.28957757e-001 2.44061828e-001 1.93989545e-001 9.36010703e-002
      5.81320077e-002 4.18841615e-002 2.63777133e-002 4.79288287e-002
      1.29906788e-001 1.95032597e-001 2.76420176e-001 1.49236962e-001
      8.32683370e-002 8.39882642e-002 8.83646905e-002 8.07149038e-002
      1.05588503e-001 1.61251619e-001 2.76420176e-001 2.76420176e-001
      1.67578116e-001 1.85602397e-001 2.53126472e-001 2.29549035e-001
      9.59776714e-002 4.74267565e-002 1.41314253e-001 1.60464033e-001
      1.85422167e-001 1.67141616e-001 1.42309129e-001 2.09515154e-001
      1.85670108e-001 1.34347215e-001 1.74938574e-001 1.73196569e-001
      1.73822224e-001 2.25783035e-001 1.86604440e-001 1.23627014e-001
      1.00547642e-001 1.12573974e-001 7.32582882e-002 6.10415600e-002
      9.67656672e-002 2.15081230e-001 2.53126472e-001 2.37694785e-001
      1.23804614e-001 1.44505024e-001 1.02315888e-001 8.60126987e-002
      1.21827148e-001 1.02029160e-001 1.98698953e-001 2.51452297e-001
      8.59220624e-002 4.52405959e-002 4.37507331e-002 2.44385712e-002
      5.47667630e-002 9.97202247e-002 8.15202221e-002 1.50603548e-001
      1.52417392e-001 2.96151847e-001 1.68741420e-001 1.26501277e-001
      8.11236054e-002 1.71870023e-001 2.25078225e-001 9.96413454e-002
      1.52951047e-001 2.96151847e-001 9.78384763e-002 5.11866473e-002
      8.06511715e-002 5.04148938e-002 8.65357295e-002 9.69745964e-002
      8.52383748e-002 1.69375613e-001 1.21679544e-001 2.22496241e-001
      1.54322475e-001 1.94221631e-001 2.54691273e-001 2.96151847e-001
      2.96151847e-001 2.90143520e-001 1.58116594e-001 1.73812956e-001
      2.62491196e-001 1.39412433e-001 9.73720104e-002 1.16175719e-001
      1.59409910e-001 1.37068972e-001 4.77328412e-002 5.14336005e-002
      2.62491196e-001 2.62491196e-001 2.16928288e-001 1.46148145e-001
      1.23033255e-001 1.31677195e-001 1.29385412e-001 9.42464694e-002
      6.86998069e-002 2.62491196e-001 2.12180272e-001 1.04708530e-001
      1.26728803e-001 2.24129468e-001 2.62491196e-001 2.36656040e-001
      1.59208417e-001 6.94003180e-002 1.37562811e-001 2.49031588e-001
      1.15741208e-001 1.50375441e-001 1.93124786e-001 9.52398330e-002
      9.98530835e-002 9.60581452e-002 7.55876228e-002 1.82809189e-001
      2.44640470e-001 1.64551154e-001 1.08908877e-001 7.69674480e-002
      1.21909574e-001 1.23718187e-001 1.70898810e-001 1.84463695e-001
      2.44640470e-001 1.50143370e-001 1.05212659e-001 4.20409665e-002
      8.64121169e-002 2.09833309e-001 1.36138603e-001 2.44640470e-001
      2.44640470e-001 2.44640470e-001 1.94012508e-001 1.16963886e-001
      1.43185467e-001 1.65305242e-001 1.42434075e-001 1.37517795e-001
      1.32347211e-001 1.09727152e-001 2.03616500e-001 9.44163725e-002
      9.20985639e-002 9.34328884e-002 8.87281746e-002 1.41130194e-001
      2.44640470e-001 1.71669424e-001 2.32759431e-001 2.18767673e-001
      6.93192557e-002 5.45665286e-002 2.90448274e-002 4.83238809e-002
      1.39634177e-001 9.35913622e-002 1.69142053e-001 2.84633726e-001
      2.47213125e-001 5.64086661e-002 3.12352609e-002 2.92891152e-002
      4.64601927e-002 7.45470002e-002 3.80758196e-002 7.91550949e-002
      2.76402950e-001 2.34552220e-001 5.57235368e-002 4.70472984e-002
      6.21440336e-002 4.67210263e-002 7.01265410e-002 1.65973321e-001
      1.40251696e-001 2.84633726e-001 2.84633726e-001 2.27584973e-001
      4.92599383e-002 2.31862545e-001 2.35453144e-001 2.27580011e-001
      1.11739583e-001 1.41686589e-001 2.84633726e-001 2.84633726e-001
      4.55007963e-002 2.25411821e-002 3.09826992e-002 5.10506779e-002
      1.34381175e-001 5.04597463e-002 7.49161914e-002 1.49724856e-001
      1.59495100e-001 5.08836061e-002 2.10561063e-002 3.00301965e-002
      3.66905294e-002 1.62440613e-001 8.10814425e-002 7.67829567e-002
      5.83221354e-002 1.09335959e-001 2.29662165e-001 4.92918566e-002
      2.76123494e-001 2.28949383e-001 2.65489697e-001 1.32225841e-001
      2.76123494e-001 2.76123494e-001 2.76123494e-001 2.41362959e-001
      1.98708996e-001 1.55092433e-001 7.18826130e-002 1.47995904e-001
      1.30418673e-001 2.76123494e-001 1.96545556e-001 2.76123494e-001
      7.85838589e-002 6.91945478e-002 4.07960676e-002 5.54188713e-002
      1.43686607e-001 7.67990798e-002 6.81059733e-002 4.66793291e-002
      1.07328519e-001 6.43429682e-002 1.00234456e-001 8.96048769e-002
      1.84938058e-001 2.43546858e-001 1.59733608e-001 4.04298492e-002
      2.54847184e-002 8.57019871e-002 2.98492283e-001 2.98492283e-001
      1.49957001e-001 7.01556355e-002 1.11297429e-001 8.59311149e-002
      1.21533610e-001 1.57150149e-001 2.98492283e-001 2.98492283e-001
      2.98492283e-001 1.32087737e-001 1.61835507e-001 1.96545392e-001
      1.76450029e-001 7.96258077e-002 2.11152181e-001 2.98492283e-001
      6.08470216e-002 1.13433652e-001 1.19868137e-001 2.29520157e-001
      2.63719350e-001 1.85928568e-001 4.87405248e-002 7.23472908e-002
      5.71870431e-002 9.05426294e-002 7.59111643e-002 7.44636804e-002
      1.50932446e-001 1.29262835e-001 9.70676839e-002 4.85682674e-002
      9.39975306e-002 6.61802813e-002 1.54785708e-001 2.71113068e-001
      1.70414224e-001 2.11803690e-001 2.71113068e-001 2.71113068e-001
      1.42738134e-001 2.42435291e-001 2.71113068e-001 1.28771842e-001
      1.15409240e-001 8.11416358e-002 1.21431477e-001 2.71113068e-001
      2.41335839e-001 1.23142309e-001 1.84191436e-001 1.07699275e-001
      2.81165570e-001 1.39503792e-001 2.40843892e-001 1.53436556e-001
      1.19276203e-001 2.60951668e-001 1.07725039e-001 1.06253944e-001
      2.21868262e-001 1.21956483e-001 9.02942196e-002 1.39679238e-001
      9.24016684e-002 6.69153258e-002 1.28649414e-001 1.21421143e-001
      1.04968585e-001 1.36638209e-001 4.13251817e-001 1.18918166e-001
      1.77777365e-001 1.28469422e-001 1.18243180e-001 2.24189565e-001
      1.38206065e-001 8.83099213e-002 2.18880489e-001 2.13157728e-001
      1.40852183e-001 1.36553317e-001 7.04391524e-002 9.10700336e-002
      1.21312059e-001 9.28500667e-002 1.52166441e-001 1.69762537e-001
      2.94793081e-002 3.28080580e-002 4.01801020e-002 2.71665994e-002
      2.84439921e-002 1.77084804e-002 3.06470860e-002 2.31924355e-002
      4.58908267e-002 7.92273059e-002 2.25070328e-001 2.45876804e-001
      3.18956494e-001 3.87037843e-001 2.66634881e-001 1.14388615e-001
      1.31221920e-001 1.30952388e-001 3.65325361e-002 3.43178548e-002
      4.34679054e-002 2.08339170e-002 3.36629301e-002 2.48086732e-002
      2.61513200e-002 4.01781537e-002 5.86557947e-002 5.44698127e-002
      9.72600952e-002 1.24570392e-001 1.77634165e-001 3.87037843e-001
      3.35141003e-001 2.51932710e-001 2.63010621e-001 1.81875661e-001
      1.09168798e-001 1.39645711e-001 1.13428190e-001 1.29129186e-001
      2.56012052e-001 1.51940212e-001 5.26963510e-002 7.31439218e-002
      8.62243474e-002 2.47542113e-001 1.12203240e-001 1.23796239e-001
      2.56012052e-001 2.56012052e-001 1.53062180e-001 6.78547546e-002
      1.14749067e-001 2.56012052e-001 6.62187859e-002 2.49625538e-002
      3.16788815e-002 5.77280633e-002 2.56012052e-001 1.69630602e-001
      1.14673600e-001 1.82516456e-001 2.23613471e-001 2.43843526e-001
      7.21763819e-002 7.12938830e-002 1.52380943e-001 2.56012052e-001
      1.93255216e-001 9.08394456e-002 1.88395545e-001 2.56012052e-001
      1.51112273e-001 5.48100211e-002 1.48993567e-001 2.85420567e-001
      2.85420567e-001 1.45680279e-001 4.65067700e-002 9.27809849e-002
      2.17367455e-001 1.93804856e-002 5.88659793e-002 1.20284997e-001
      2.43038684e-001 2.85420567e-001 9.25173908e-002 2.64345203e-002
      2.57060658e-002 4.74528745e-002 1.77341893e-001 8.75546187e-002
      1.13838680e-001 2.65737832e-001 2.85420567e-001 2.63592213e-001
      1.04434021e-001 8.98344293e-002 2.31092408e-001 1.91669874e-002
      3.16488706e-002 3.93655263e-002 1.06252939e-001 2.78362989e-001
      2.60020047e-001 1.65453672e-001 5.03608994e-002 2.62832697e-002
      5.55512235e-002 6.82669580e-002 2.03185827e-001 1.98955059e-001
      2.85570085e-001 1.93172738e-001 8.12795609e-002 6.28905371e-002
      1.63282707e-001 7.40881413e-002 6.36860728e-002 9.51582566e-002
      1.52550295e-001 2.03063548e-001 1.57864124e-001 8.70574564e-002
      1.42168432e-001 1.19048379e-001 6.16060644e-002 4.83824909e-002
      5.47996573e-002 1.40046090e-001 3.09889525e-001 3.09889525e-001
      3.09889525e-001 7.28503913e-002 9.35721919e-002 6.89045712e-002
      4.27511744e-002 5.31928092e-002 1.91192552e-001 3.09889525e-001
      3.09889525e-001 1.62027657e-001 6.37874752e-002 5.43673076e-002
      1.69357106e-001 1.21276639e-001 9.15491059e-002 1.08858220e-001
      1.15033999e-001 5.75007796e-002 7.23253712e-002 2.02289581e-001
      1.85399786e-001 2.72601157e-001 1.12680681e-001 4.82762083e-002
      2.82434728e-002 3.50078084e-002 2.73977425e-002 9.13614482e-002
      3.34940702e-001 3.34940702e-001 1.22411445e-001 6.15007691e-002
      5.12652472e-002 1.40814245e-001 1.88313559e-001 1.66505158e-001
      1.60904691e-001 2.38667801e-001 1.88623846e-001 1.81819052e-001
      3.29136886e-002 2.53365897e-002 3.83622348e-002 4.19527702e-002
      4.98559512e-002 1.53052777e-001 3.34940702e-001 3.34940702e-001
      1.19977586e-001 4.75054085e-002 1.80805270e-002 2.68427413e-002
      3.45803462e-002 6.26768172e-002 1.08117864e-001 2.71063447e-001
      2.41833046e-001 1.02710515e-001 3.99922803e-002 2.67986916e-002
      6.70688003e-002 1.11539423e-001 1.62042797e-001 1.28319442e-001
      3.16789597e-001 2.69146413e-001 1.45048708e-001 2.17710324e-002
      3.05026397e-002 4.97423448e-002 4.69817035e-002 7.66924247e-002
      1.48965329e-001 3.16789597e-001 3.16789597e-001 1.18942387e-001
      2.64587589e-002 3.59191671e-002 5.94964661e-002 1.11848913e-001
      1.78756237e-001 2.53528327e-001 3.16789597e-001 3.16789597e-001
      1.19615793e-001 6.90094233e-002 3.18491571e-002 6.09173514e-002
      9.00832266e-002 1.31262407e-001 1.01479061e-001 2.70140409e-001
      2.17244342e-001 1.92749679e-001 1.12042531e-001 1.27151877e-001
      1.18913785e-001 1.25072867e-001 1.14582829e-001 1.20542489e-001
      1.98546410e-001 2.00982824e-001 6.60587102e-002 3.04188356e-002
      2.54175980e-002 2.45336927e-002 7.69275501e-002 1.39615491e-001
      2.44412646e-001 2.94952482e-001 2.57582456e-001 1.14565633e-001
      6.24426529e-002 8.44166353e-002 1.28100350e-001 2.65906721e-001
      2.78656989e-001 2.58928478e-001 2.71723032e-001 1.98714510e-001
      4.51222211e-002 3.29270624e-002 8.31800699e-002 1.12423688e-001
      1.23695016e-001 6.09373450e-002 6.18147142e-002 8.62646028e-002
      6.67404458e-002 3.82224768e-002 5.65626435e-002 1.16359256e-001
      3.66703570e-001 3.66703570e-001 2.71760792e-001 2.19164357e-001
      8.05527121e-002 5.38064577e-002 2.46260725e-002 1.69424284e-002
      4.83913086e-002 1.55341908e-001 2.66523778e-001 1.78152576e-001
      9.23529863e-002 4.85492907e-002 4.69043478e-002 1.60621386e-002
      2.98345592e-002 6.84340298e-002 3.66703570e-001 3.66703570e-001
      2.92546540e-001 1.12055406e-001 5.85334972e-002 3.07824258e-002
      4.91178893e-002 6.96818680e-002 1.24360405e-001 3.14554125e-001
      3.14554125e-001 2.75709748e-001 2.35998794e-001 6.42438382e-002
      3.33884805e-002 7.08332285e-002 1.31454438e-001 1.63989738e-001
      2.22068608e-001 1.17241196e-001 8.50377157e-002 1.10571660e-001
      8.10876861e-002 5.32223061e-002 1.81678813e-002 6.20287284e-002
      1.08669803e-001 3.14554125e-001 3.14554125e-001 3.14554125e-001
      1.30387262e-001 5.35149947e-002 3.14236507e-002 1.04837924e-001
      1.73040360e-001 1.37858659e-001 1.09639585e-001 1.60490379e-001
      1.85511291e-001 1.44516304e-001 8.92202184e-002 5.93069345e-002
      8.66993442e-002 1.42306864e-001 1.23078972e-001 2.23406836e-001
      1.48049146e-001 1.33489236e-001 1.06595092e-001 8.86636749e-002
      7.23262206e-002 1.23076938e-001 9.73003134e-002 1.09857380e-001
      9.68647897e-002 2.57133484e-001 2.57133484e-001 1.42234668e-001
      1.70215845e-001 2.40005314e-001 2.15935603e-001 1.71201825e-001
      9.99608040e-002 9.66155306e-002 1.40828252e-001 1.10116303e-001
      1.15873776e-001 1.13297552e-001 1.08327933e-001 2.57133484e-001
      2.32892126e-001 2.03076228e-001 7.14937299e-002 2.35429078e-001
      1.95760474e-001 1.70166522e-001 1.85875207e-001 2.57133484e-001
      9.79466066e-002 3.28888148e-002 8.53635520e-002 4.88530733e-002
      8.47253203e-002 1.30025223e-001 6.13681227e-002 1.26170024e-001
      1.93440020e-001 1.67247295e-001 6.19143806e-002 2.40930006e-001
      2.40930006e-001 2.40930006e-001 1.48462757e-001 2.11297646e-001
      1.68854430e-001 2.36917645e-001 2.40930006e-001 1.41830474e-001
      1.50616944e-001 7.20356107e-002 6.69413731e-002 1.07106701e-001
      8.96463022e-002 1.02677844e-001 2.40930006e-001 2.40930006e-001
      2.40930006e-001 1.64847136e-001 1.81965351e-001 1.04804300e-001
      1.38616234e-001 2.40930006e-001 1.32239297e-001 2.40930006e-001
      1.01754203e-001 8.61247480e-002 2.30921701e-001 2.30921701e-001
      1.87836751e-001 1.09270722e-001 2.30921701e-001 1.23649411e-001
      1.83009833e-001 1.66935593e-001 1.73324138e-001 1.66479692e-001
      1.27149865e-001 7.47810528e-002 8.28907862e-002 1.70907572e-001
      1.02260813e-001 1.49375305e-001 1.86938092e-001 2.04871804e-001
      1.40690267e-001 1.91872194e-001 1.08806551e-001 1.03582487e-001
      2.30921701e-001 1.28825083e-001 1.88304156e-001 2.30921701e-001
      2.30921701e-001 1.77123129e-001 2.30637297e-001 1.53253287e-001
      1.26763433e-001 1.16955586e-001 9.10615623e-002 1.83005571e-001
      2.34529138e-001 2.03097776e-001 1.13305040e-001 8.71260017e-002
      9.13960412e-002 8.65208060e-002 7.13020116e-002 1.54215544e-001
      2.34529138e-001 2.19950944e-001 1.75741553e-001 6.98313341e-002
      8.26511756e-002 8.98586214e-002 9.26573426e-002 8.13788548e-002
      1.79822236e-001 2.34529138e-001 2.34529138e-001 2.34529138e-001
      1.73130229e-001 2.34529138e-001 2.34529138e-001 2.05327004e-001
      5.83162680e-002 1.41308874e-001 1.77067012e-001 1.86974466e-001
      1.26305223e-001 9.15302411e-002 1.20091975e-001 2.25628957e-001
      2.01224849e-001 1.52120903e-001 1.43514276e-001 1.54763207e-001
      1.51407272e-001 2.34780923e-001 1.54981032e-001 1.64230794e-001
      2.41137937e-001 2.62899250e-001 2.38513991e-001 1.80763647e-001
      2.26701483e-001 7.45499879e-002 1.06756121e-001 1.03560157e-001
      1.02179289e-001 2.21460372e-001 2.44615570e-001 1.42207101e-001
      7.60236531e-002 6.25113845e-002 1.53546467e-001 1.68779850e-001
      1.44297183e-001 1.43434301e-001 2.62899250e-001 2.62899250e-001
      2.62899250e-001 1.02427632e-001 9.11154673e-002 1.07656211e-001
      1.18378103e-001 1.03538804e-001 1.24665737e-001 1.55096903e-001
      1.20977916e-001 1.01060353e-001 3.73571403e-002 3.79236303e-002
      2.27749065e-001 1.04085870e-001 6.13177828e-002 5.41331731e-002
      8.87711719e-002 1.08585231e-001 6.04739077e-002 5.80991469e-002
      1.45232379e-001 2.57038414e-001 1.12392396e-001 4.83644307e-002
      1.36833871e-002 7.22226799e-002 9.39401686e-002 3.63389626e-002
      7.63654783e-002 2.02206805e-001 3.82499903e-001 2.00292960e-001
      4.21398059e-002 2.25014556e-002 3.44945565e-002 5.51474132e-002
      3.06825954e-002 1.77899227e-001 3.82499903e-001 3.82499903e-001
      2.08694041e-001 6.17439933e-002 1.13998819e-002 2.69094650e-002
      5.33853397e-002 2.09684819e-002 1.40452236e-001 3.82499903e-001
      1.89263880e-001 6.13685511e-002 3.48187760e-002 1.18606305e-002
      3.42056043e-002 3.83400731e-002 2.37136055e-002 5.66445291e-002
      2.22973183e-001 1.45141810e-001 1.24150924e-001 1.24587432e-001
      1.16374306e-001 2.15141490e-001 1.82049334e-001 1.51083320e-001
      1.77871227e-001 2.98767239e-001 3.69285703e-001 9.51438546e-002
      2.28187367e-002 1.32360309e-002 1.19970851e-002 1.60761699e-002
      1.87997986e-002 8.68265852e-002 3.69285703e-001 3.69285703e-001
      9.22146589e-002 2.68849619e-002 2.78881788e-002 2.34826468e-002
      3.60476933e-002 4.74971198e-002 1.81390703e-001 3.69285703e-001
      1.28702983e-001 6.80765733e-002 7.23492876e-002 7.74921030e-002
      1.35507345e-001 1.41090691e-001 1.29170790e-001 2.32037306e-001
      3.05827945e-001 3.05827945e-001 1.48352385e-001 9.71145406e-002
      1.06241003e-001 1.76565826e-001 1.98112637e-001 1.28631413e-001
      3.05827945e-001 3.05827945e-001 1.89447105e-001 3.88849676e-002
      2.01831795e-002 1.97329428e-002 1.34787178e-002 2.30362266e-002
      2.26006918e-002 8.69317129e-002 3.05827945e-001 3.05827945e-001
      6.86852038e-002 9.00857449e-002 3.05932686e-002 4.04076055e-002
      6.45638555e-002 4.95964363e-002 1.26075193e-001 2.82709807e-001
      1.53252468e-001 8.42713490e-002 7.13060424e-002 9.60333422e-002
      2.25505948e-001 2.68847227e-001 2.00112507e-001 2.12637678e-001
      2.61848003e-001 5.28408475e-002 2.69063823e-002 2.06304211e-002
      5.49632497e-002 1.72250971e-001 2.77929723e-001 2.77929723e-001
      2.50260383e-001 9.94338542e-002 2.04867274e-001 4.23037447e-002
      5.47728539e-002 3.40441689e-002 4.29469496e-002 1.03459790e-001
      1.22537144e-001 1.46720409e-001 1.38621598e-001 1.56731874e-001
      2.78534256e-002 3.98019589e-002 4.07237895e-002 3.57797071e-002
      2.77929723e-001 2.77929723e-001 2.77929723e-001 1.84139445e-001
      5.09633310e-002 2.71001421e-002 1.14657264e-002 4.26758714e-002
      1.24022856e-001 2.92078227e-001 2.92078227e-001 1.47479504e-001
      6.57987148e-002 6.76862970e-002 7.00809136e-002 7.91710541e-002
      7.48366714e-002 1.65384054e-001 2.54276216e-001 1.42582029e-001
      5.80307879e-002 3.69591676e-002 1.16338573e-001 5.88861518e-002
      2.58219857e-002 3.82270589e-002 6.84033632e-002 2.92078227e-001
      2.92078227e-001 2.92078227e-001 1.87075123e-001 1.90918311e-001
      1.37252420e-001 1.21632688e-001 5.74559905e-002 1.51450470e-001
      2.73373544e-001 2.43067935e-001 2.33565003e-001 2.04595089e-001
      1.15446225e-001 7.83572644e-002 6.62517026e-002 5.59698232e-002
      9.15770158e-002 1.12466887e-001 8.78529102e-002 1.33209333e-001
      1.69516504e-001 1.81265101e-001 6.46441951e-002 1.71982776e-002
      2.33376455e-002 2.45354287e-002 3.33199985e-002 8.34076181e-002
      2.43023485e-001 3.09142619e-001 2.90593207e-001 1.80363625e-001
      1.02867469e-001 4.32851762e-002 9.70057175e-002 8.92973244e-002
      1.50153503e-001 2.69023538e-001 3.09142619e-001 3.09142619e-001
      2.44398087e-001 4.88894098e-002 2.88734604e-002 2.57407390e-002
      1.44356862e-002 1.41716063e-001 2.84888953e-001 3.09142619e-001
      1.90091580e-001 7.56202787e-002 3.89855430e-002 2.85180286e-002
      2.89866831e-002 3.68615240e-002 8.14642534e-002 1.81269795e-001
      2.06649989e-001 1.13970540e-001 7.29635283e-002 5.38917445e-002
      3.01237907e-002 6.49669766e-002 9.73194391e-002 2.32336611e-001
      2.85279363e-001 1.91663921e-001 2.85279363e-001 1.75662667e-001
      7.57383183e-002 3.31198797e-002 2.42831763e-002 1.95061378e-002
      1.24804355e-001 2.53022313e-001 2.85279363e-001 2.85279363e-001
      1.33393630e-001 9.32773724e-002 7.52114430e-002 3.62673029e-002
      1.43591478e-001 2.85279363e-001 2.85279363e-001 2.85279363e-001
      4.60042432e-002 3.56938243e-002 7.00524077e-002 4.46210541e-002
      9.27016214e-002 9.63914767e-002 2.23695979e-001 2.75948584e-001
      1.50514916e-001 9.42169577e-002 5.07754944e-002 1.35953009e-001
      7.09017068e-002 1.52664974e-001 2.05793738e-001 2.20272630e-001
      1.34136617e-001 1.25093907e-001 2.38865986e-001 9.62478220e-002
      9.28026289e-002 8.55111405e-002 8.14873204e-002 1.59474999e-001
      2.21577495e-001 2.75948584e-001 2.75948584e-001 2.75948584e-001
      2.47424975e-001 2.01087490e-001 1.19003840e-001 8.83787870e-002
      1.29689127e-001 1.30257428e-001 1.09652385e-001 2.75948584e-001
      4.96737435e-002 2.52606608e-002 3.68707515e-002 6.33807182e-002
      1.67973235e-001 2.00830817e-001 1.37140766e-001 4.96589877e-002
      7.67868683e-002 8.01425055e-002 2.69681960e-002 2.49369591e-002
      2.82271296e-001 2.82271296e-001 2.82271296e-001 1.30603388e-001
      1.34648412e-001 1.09795809e-001 2.28937775e-001 1.96410909e-001
      9.03196111e-002 7.77792782e-002 7.54785910e-002 1.10818028e-001
      8.84144306e-002 7.15779811e-002 1.42024204e-001 2.02090696e-001
      1.41495630e-001 1.51976019e-001 2.24872693e-001 2.82271296e-001
      2.82271296e-001 1.84203073e-001 2.82271296e-001 1.87508345e-001
      6.96869865e-002 6.05134815e-002 7.18056560e-002 1.74672499e-001
      2.43836761e-001 1.94991723e-001 8.69148523e-002 9.46469456e-002
      8.18161219e-002 2.28421092e-001 2.05070302e-001 1.24761887e-001
      5.39790988e-002 1.00682296e-001 1.06209822e-001 9.74315777e-002
      8.22448432e-002 8.60846266e-002 1.43854201e-001 1.48296550e-001
      2.43836761e-001 2.40487427e-001 2.43836761e-001 2.26536438e-001
      1.08929135e-001 2.43836761e-001 1.35565296e-001 2.43836761e-001
      2.43836761e-001 2.43836761e-001 1.74332589e-001 2.35359401e-001
      1.22038811e-001 1.12753354e-001 1.19682208e-001 9.14481282e-002
      2.79780239e-001 2.43924081e-001 1.23606063e-001 2.83061359e-002
      7.77759030e-002 5.44838868e-002 5.83635010e-002 7.66001046e-002
      1.61186546e-001 2.79780239e-001 2.79780239e-001 2.03077197e-001
      7.57447332e-002 1.32348761e-001 4.23586294e-002 8.53727609e-002
      1.33428141e-001 2.45881736e-001 2.79780239e-001 2.21046999e-001
      1.26962721e-001 1.14057615e-001 2.25510180e-001 9.55187082e-002
      9.08531696e-002 6.48326054e-002 1.12549707e-001 2.67210364e-001
      1.62145585e-001 1.27989843e-001 1.69408888e-001 2.79780239e-001
      6.98526800e-002 4.72948700e-002 6.50187209e-002 1.30074784e-001
      2.89594442e-001 2.76892602e-001 1.65578827e-001 9.65602472e-002
      7.62955993e-002 5.64109646e-002 1.21648736e-001 1.54866651e-001
      2.47574925e-001 2.89594442e-001 2.89594442e-001 1.03231959e-001
      7.16577992e-002 1.63045395e-002 6.62733540e-002 1.44235224e-001
      1.63487688e-001 2.89594442e-001 2.47894526e-001 1.18774176e-001
      8.38927403e-002 1.58143908e-001 2.89594442e-001 5.59715182e-002
      6.52953833e-002 8.20962787e-002 1.26547515e-001 2.89594442e-001
      1.17987573e-001 7.88125247e-002 8.75826851e-002 6.41956106e-002
      6.20072260e-002 9.07911733e-002 6.90244287e-002 1.30050346e-001
      3.00930828e-001 2.60925949e-001 6.85197636e-002 8.64540935e-002
      5.66695072e-002 8.01301897e-002 1.69541433e-001 1.94266081e-001
      3.00930828e-001 3.00930828e-001 3.00930828e-001 1.53088287e-001
      1.81230351e-001 1.58799827e-001 1.43228173e-001 9.54706967e-002
      9.72429365e-002 3.00930828e-001 2.49962941e-001 1.12529881e-001
      6.05069548e-002 5.88583909e-002 4.40150611e-002 6.68933392e-002
      6.98311850e-002 6.88292980e-002 1.62788346e-001 2.62967139e-001
      1.61681533e-001 5.10365330e-002 3.55006233e-002 5.68933077e-002
      7.42624998e-002 6.31223470e-002 6.12105057e-002 1.63735777e-001
      2.83513397e-001 2.83513397e-001 2.43904278e-001 2.83513397e-001
      2.83513397e-001 2.37724885e-001 6.92201257e-002 1.02925569e-001
      1.40733957e-001 1.03788435e-001 1.20218702e-001 1.29033014e-001
      1.32627949e-001 2.83513397e-001 2.83513397e-001 1.88956410e-001
      1.29524082e-001 8.39942396e-002 1.72537491e-001 1.34834304e-001
      9.18593779e-002 5.41534349e-002 6.82531595e-002 7.10863024e-002
      9.05319527e-002 8.57758299e-002 1.03120536e-001 3.75776142e-002
      5.14814779e-002 5.79209514e-002 5.25427982e-002 2.03135535e-001
      2.83513397e-001 9.82102752e-002 7.56172761e-002 4.78477851e-002
      9.29397568e-002 1.11608043e-001 1.31118074e-001 1.82998791e-001
      3.46629351e-001 3.46629351e-001 3.15581232e-001 1.06477596e-001
      4.62381802e-002 1.33552104e-001 9.38902870e-002 7.52769634e-002
      2.28447124e-001 2.24424973e-001 1.30285889e-001 6.53604940e-002
      5.96341267e-002 4.21082079e-002 1.80604756e-002 4.50823717e-002
      6.22527376e-002 1.14721060e-001 3.46629351e-001 3.46629351e-001
      1.29179761e-001 7.02655166e-002 2.18769442e-002 3.07047348e-002
      4.43997085e-002 5.76266460e-002 1.95774898e-001 2.20057324e-001
      1.71795726e-001 4.98826578e-002 5.15594929e-002 2.21886858e-002
      3.70166391e-001 1.54478967e-001 3.96210998e-002 1.09727532e-002
      1.25836057e-003 1.06679294e-002 2.09720656e-002 1.47756651e-001
      3.70166391e-001 3.70166391e-001 1.52570605e-001 7.84940496e-002
      2.88058687e-002 6.63448405e-003 2.53031608e-002 3.28157283e-002
      1.37549639e-001 3.70166391e-001 3.45457822e-001 6.98265061e-002
      3.55932973e-002 1.23373922e-002 9.16435011e-003 1.71599463e-002
      1.52608901e-002 5.90089336e-002 3.42316061e-001 1.50552064e-001
      8.36861804e-002 8.17361251e-002 7.19213560e-002 6.82966784e-002
      6.01714887e-002 5.69947436e-002 1.11631885e-001 1.92068934e-001
      3.85990918e-001 8.14325511e-002 6.86792359e-002 6.65099248e-002
      5.51212206e-002 3.02536450e-002 3.22995968e-002 7.47873709e-002
      3.85990918e-001 3.85990918e-001 9.02668461e-002 5.62704839e-002
      9.11921635e-002 8.79758894e-002 3.94655280e-002 3.62588167e-002
      1.34090841e-001 3.85990918e-001 9.33301672e-002 4.10555564e-002
      7.74844289e-002 1.48185313e-001 2.08212346e-001 1.22857735e-001
      4.92953174e-002 5.21794707e-002 1.12023830e-001 1.19092748e-001
      8.51893723e-002 1.01395905e-001 1.84390515e-001 2.54551262e-001
      2.14928612e-001 6.63193837e-002 4.07511927e-002 1.68300882e-001
      3.23581874e-001 5.45132495e-002 3.82419750e-002 5.38141951e-002
      3.55181023e-002 5.67936227e-002 3.06759961e-002 1.25621200e-001
      4.00320053e-001 4.00320053e-001 1.15521975e-001 1.24010205e-001
      6.04095161e-002 5.98656759e-002 7.85065070e-002 4.26484048e-002
      1.40588254e-001 4.00320053e-001 9.65353996e-002 7.18346760e-002
      7.20556304e-002 1.31568447e-001 1.38076141e-001 2.11386919e-001
      6.72233030e-002 5.45824543e-002 2.12462008e-001 2.22621456e-001
      1.13484643e-001 8.59643742e-002 8.92078653e-002 1.15251422e-001
      1.24904469e-001 5.59218563e-002 9.26664397e-002 2.15706483e-001
      3.46576780e-001 1.18987769e-001 1.00343533e-001 6.08023666e-002
      8.46912190e-002 7.68820643e-002 8.45559090e-002 1.45783186e-001
      2.52144814e-001 3.46576780e-001 1.15135849e-001 9.15836692e-002
      7.07208514e-002 5.34150340e-002 3.05989236e-001 3.46576780e-001
      3.46576780e-001 3.43973100e-001 1.82265058e-001 9.10993665e-002
      8.91417935e-002 8.89409110e-002 9.03092921e-002 2.39806324e-002
      2.34579239e-002 5.23026958e-002 7.62255862e-002 1.15031451e-001
      6.19246550e-002 7.90279433e-002 1.13013089e-001 8.94071087e-002
      2.28681024e-002 4.64972891e-002 8.72448757e-002 1.09842740e-001
      1.95328280e-001 8.10798854e-002 2.62089018e-002 2.18591392e-002
      4.23580259e-002 2.69223630e-001 3.22879285e-001 3.22879285e-001
      3.22879285e-001 3.22879285e-001 8.57143775e-002 4.43232208e-002
      2.18249541e-002 7.92458057e-002 1.40872836e-001 2.38794491e-001
      3.22879285e-001 3.22879285e-001 8.23054984e-002 3.37171070e-002
      2.24405229e-002 1.96926445e-002 3.78856696e-002 1.96202882e-002
      5.04338369e-002 9.75263789e-002 1.42067954e-001 1.73793435e-001
      5.02924770e-002 3.91396917e-002 2.64524389e-002 2.29695905e-002
      1.00460276e-002 2.96725705e-002 1.12732045e-001 2.57140070e-001
      3.14929187e-001 8.44596624e-002 3.09275631e-002 1.43045736e-002
      2.97895055e-002 2.84561962e-002 1.31438658e-001 2.96229839e-001
      3.23055565e-001 3.23055565e-001 1.90313473e-001 3.37107666e-002
      1.18003944e-002 7.93174282e-003 5.48905833e-003 1.77794576e-001
      3.01798850e-001 3.23055565e-001 1.54294536e-001 4.83284667e-002
      3.80218960e-002 3.00750714e-002 1.15949130e-002 5.89043461e-003
      3.55911441e-002 9.44340229e-002 2.57127076e-001 2.21959338e-001
      7.51903430e-002 3.38005573e-002 2.89094038e-002 2.89818309e-002
      1.86788645e-002 1.19396165e-001 1.75376251e-001 3.18019301e-001
      2.53321469e-001 1.08300015e-001 5.94374016e-002 2.50134841e-002
      7.30865682e-003 2.51687579e-002 1.61418334e-001 2.44171858e-001
      2.69082367e-001 2.69082367e-001 1.02501512e-001 6.50119856e-002
      8.71648192e-002 3.41269784e-002 1.63397461e-001 2.52375871e-001
      2.69082367e-001 2.69082367e-001 1.75051764e-001 5.17314672e-002
      3.61468494e-002 1.72937326e-002 1.62259582e-002 3.24400887e-002
      1.28997386e-001 1.92992941e-001 2.47622713e-001 2.09704891e-001
      1.07329130e-001 4.87575345e-002 7.10416287e-002 5.69817498e-002
      1.24144718e-001 2.22590804e-001 2.69082367e-001 2.69082367e-001
      2.36371189e-001 1.12260334e-001 4.93535027e-002 1.25526682e-001
      9.56064761e-002 1.27957493e-001 1.40925497e-001 1.61013350e-001
      2.39965692e-001 2.47286677e-001 2.47286677e-001 1.89378828e-001
      1.92689106e-001 1.16039507e-001 9.64543372e-002 8.14819559e-002
      8.87263194e-002 2.47286677e-001 1.96291998e-001 1.41584128e-001
      5.76401278e-002 1.96332812e-001 1.53583631e-001 1.12789065e-001
      1.38393074e-001 1.20323919e-001 1.66768566e-001 1.94428310e-001
      2.47286677e-001 2.17033327e-001 2.47286677e-001 2.10606232e-001
      9.31791961e-002 1.01158433e-001 6.75931871e-002 1.22516721e-001
      2.20548853e-001 2.43568495e-001 1.39524475e-001 1.40009820e-001
      5.93615100e-002 6.43371716e-002 6.27630651e-002 5.70981652e-002
      1.61821797e-001 2.20219478e-001 1.94510773e-001 2.04129234e-001
      1.64561912e-001 2.43568495e-001 2.43568495e-001 2.43568495e-001
      2.43568495e-001 2.43568495e-001 8.31349418e-002 1.41005933e-001
      1.34985432e-001 9.58295912e-002 8.14927518e-002 6.22838326e-002
      6.86760917e-002 4.54054773e-002 1.49990231e-001 9.96693075e-002
      8.02749544e-002 1.54459953e-001 1.82533577e-001 2.18664512e-001
      1.31540015e-001 1.73360571e-001 1.89014509e-001 2.43568495e-001
      1.85478523e-001 1.88622162e-001 2.30537966e-001 1.50085077e-001
      2.30537966e-001 1.78541139e-001 1.43607974e-001 2.30537966e-001
      1.70096159e-001 2.30537966e-001 2.29151860e-001 2.30537966e-001
      1.57832235e-001 2.01062590e-001 1.26642928e-001 8.18598121e-002
      1.05434313e-001 1.15241498e-001 1.37079626e-001 1.07351117e-001
      2.30537966e-001 2.30537966e-001 2.28639796e-001 9.40290466e-002
      8.99278671e-002 1.25940293e-001 1.21046528e-001 1.23865843e-001
      1.18177526e-001 1.75594956e-001 1.78728670e-001 1.99506402e-001
      1.13003708e-001 4.61760722e-002 5.46412654e-002 8.32387656e-002
      2.36064017e-001 1.68524995e-001 1.63942724e-001 2.04877123e-001
      3.73014033e-001 2.23380655e-001 1.38824895e-001 9.03459638e-002
      1.01029724e-001 2.88316179e-002 3.06765493e-002 5.28025217e-002
      1.80299506e-001 3.73014033e-001 2.17422977e-001 8.05820301e-002
      5.48989959e-002 4.78959903e-002 7.27798119e-002 6.98385164e-002
      8.31829831e-002 1.22301161e-001 3.54991674e-001 1.84212223e-001
      7.00453892e-002 5.90668805e-002 7.58813545e-002 9.01332404e-003
      5.28386701e-003 1.77617930e-002 7.08379969e-002 3.73014033e-001
      1.64030388e-001 4.56994176e-002 2.72311363e-002 2.92701311e-002
      1.83321740e-002 3.26982327e-002 5.16021475e-002 2.17330545e-001
      4.16008770e-001 2.38234892e-001 1.09773509e-001 7.70510659e-002
      6.80482909e-002 3.70332450e-002 6.33595735e-002 8.70937780e-002
      1.50282413e-001 3.02230150e-001 2.08853319e-001 2.00840861e-001
      7.04539865e-002 5.85209318e-002 7.98762194e-004 3.25779640e-003
      2.35142019e-002 8.46618786e-002 4.16008770e-001 2.07025304e-001
      5.05008139e-002 2.16482822e-002 1.79075655e-002 2.02244776e-003
      1.25736296e-002 3.09418216e-002 1.39384687e-001 4.16008770e-001
      2.07929671e-001 8.94150734e-002 2.99987234e-002 1.12904301e-002
      8.31962526e-002 9.84249339e-002 9.77806300e-002 1.48509353e-001
      2.44036287e-001 2.07221851e-001 2.21599311e-001 7.31308758e-002
      7.31959641e-002 1.29433870e-001 1.08655259e-001 7.83227384e-002
      1.76605999e-001 2.16051102e-001 2.08624750e-001 2.00948566e-001
      1.04206122e-001 1.25042096e-001 6.24896307e-003 2.03035958e-002
      3.16694230e-002 2.58281916e-001 3.38138223e-001 1.82154551e-001
      1.33236870e-001 3.85367349e-002 6.26211613e-003 1.59527846e-002
      2.32799575e-002 3.55238020e-002 3.38138223e-001 3.38138223e-001
      2.50497192e-001 1.79526851e-001 4.84841727e-002 1.04299206e-002
      9.91813987e-002 6.17333688e-002 9.57413539e-002 1.65376946e-001
      1.98996857e-001 1.51910916e-001 1.56045735e-001 1.19741440e-001
      1.01549797e-001 4.81245928e-002 3.62665802e-002 4.72038314e-002
      1.23867415e-001 3.37440908e-001 3.37440908e-001 1.20621577e-001
      7.98280910e-002 4.40880358e-002 2.90017352e-002 2.18754783e-002
      5.96825257e-002 2.67585129e-001 3.37440908e-001 2.51679897e-001
      1.27760932e-001 6.26128092e-002 2.55273916e-002 2.96826549e-002
      2.32732669e-002 1.65339574e-001 3.06562275e-001 3.37440908e-001
      2.04052627e-001 6.99897632e-002 6.15924969e-002 3.82406600e-002
      7.63480784e-003 2.06132233e-002 2.41063982e-002 9.69616622e-002
      3.74527603e-001 3.74527603e-001 9.46255624e-002 4.98032942e-002
      1.73828453e-002 1.85245629e-002 4.00536358e-002 3.51265147e-002
      1.60472676e-001 2.69276351e-001 1.56120867e-001 6.57087564e-002
      5.77749237e-002 3.07005513e-002 8.74583516e-003 1.05770752e-002
      1.23556450e-001 3.21976274e-001 3.74527603e-001 2.42389202e-001
      6.40680417e-002 2.57284641e-002 2.15745680e-002 2.94885021e-002
      2.74154097e-002 3.28212194e-002 2.09448084e-001 3.74527603e-001
      2.03933388e-001 7.57933185e-002 2.73838695e-002 2.82786563e-002
      2.93681175e-001 3.99645790e-002 2.55393442e-002 1.42514920e-002
      3.00725736e-002 3.70623730e-002 1.56206740e-002 6.20688200e-002
      2.94228435e-001 9.26920548e-002 8.83079767e-002 7.49213919e-002
      1.12029351e-001 1.76642343e-001 1.05062217e-001 8.28653276e-002
      1.10273741e-001 1.14034265e-001 3.75828236e-001 4.26297486e-002
      5.25971949e-002 3.87529507e-002 9.78922471e-002 4.77192551e-002
      1.65618546e-002 9.97188166e-002 3.84514123e-001 1.53741792e-001
      1.80722713e-001 1.61672309e-001 1.62137792e-001 3.80081564e-001
      2.02925071e-001 1.48656771e-001 1.84273213e-001 1.94846392e-001
      3.08176838e-002 5.33039086e-002 3.42209414e-002 1.31561130e-001
      2.63443053e-001 1.58495039e-001 5.97386658e-002 3.83581743e-002
      5.55396415e-002 3.72318737e-002 6.94692805e-002 6.55860379e-002
      1.29815191e-001 2.75177985e-001 2.99996763e-001 9.07440186e-002
      6.06806725e-002 4.84777577e-002 6.26600459e-002 1.48162052e-001
      7.69132674e-002 1.45592734e-001 3.51361603e-001 2.48770237e-001
      1.31465450e-001 1.25482723e-001 1.38571382e-001 7.33439550e-002
      1.74162418e-001 1.22392483e-001 1.70974180e-001 3.52608383e-001
      3.48785669e-001 1.31056145e-001 1.44197255e-001 9.88190249e-002
      4.69865948e-002 5.67802191e-002 9.09345299e-002 1.67455882e-001
      2.49218002e-001 2.83525884e-001 9.01156068e-002 1.26453921e-001
      5.60664833e-002 8.13029930e-002 8.53521079e-002 1.04420379e-001
      1.39301553e-001 2.15788677e-001 1.37573108e-001 8.25832784e-002
      1.65464401e-001 8.44262615e-002 8.68009105e-002 1.17697552e-001
      1.54484302e-001 1.91857055e-001 3.37778389e-001 2.93454081e-001
      1.19384728e-001 1.95364460e-001 9.48515013e-002 1.02017604e-001
      7.62264878e-002 1.43270925e-001 2.32274175e-001 3.18306863e-001
      1.96699321e-001 1.14960529e-001 1.83316603e-001 1.11660138e-001
      7.01258257e-002 1.14215575e-001 1.84066713e-001 1.95213050e-001
      2.08486989e-001 1.06716126e-001 7.71149993e-002 9.62623283e-002
      6.18068911e-002 4.66819145e-002 8.32152590e-002 1.62044600e-001
      2.16651767e-001 1.92664862e-001 1.17166981e-001 4.28662263e-002
      2.83557642e-002 3.49421948e-002 6.47402331e-002 5.39245047e-002
      1.22241713e-001 3.21126103e-001 4.41951990e-001 2.44544119e-001
      1.14306286e-001 8.61135423e-002 4.93122339e-002 2.75688935e-002
      8.25932100e-002 9.09021571e-002 1.90362424e-001 3.55515361e-001
      3.10552746e-001 1.18573926e-001 4.53582779e-002 1.80185568e-002
      9.47532803e-002 9.95467752e-002 9.51391235e-002 6.82292879e-002
      1.59401566e-001 9.55873802e-002 7.49507695e-002 8.11085403e-002
      9.25344154e-002 1.48846760e-001 1.66798130e-001 1.47633836e-001
      9.74781737e-002 1.63108408e-001 6.71543330e-002 1.07266560e-001
      1.79163292e-001 1.93365932e-001 1.02704100e-001 1.59292907e-001
      1.50070816e-001 7.32134134e-002 1.50321379e-001 1.86421335e-001
      1.39878407e-001 1.65589675e-001 1.40173331e-001 1.77537054e-001
      1.12081870e-001 1.18202217e-001 8.13455805e-002 9.46219191e-002
      7.57369474e-002 2.39607781e-001 4.95160431e-001 3.78736109e-001
      1.47341117e-001 1.26935899e-001 1.20428510e-001 9.10145044e-002
      8.79560560e-002 4.12136056e-002 7.70535916e-002 1.62385523e-001
      1.49588823e-001 2.93219209e-001 1.66268870e-001 1.28237352e-001
      1.22688465e-001 1.74858823e-001 1.05013072e-001 1.38733983e-001
      2.84747988e-001 2.23822594e-001 6.85408786e-002 9.15553048e-002
      9.31979790e-002 1.24885350e-001 1.15040250e-001 7.66671151e-002
      1.50602490e-001 2.60985166e-001 1.64587006e-001 7.12069646e-002
      9.99652147e-002 1.46631196e-001 3.03710580e-001 3.56176853e-001
      1.92234755e-001 1.06741026e-001 1.89341605e-001 1.40398011e-001
      2.00495794e-001 1.13985561e-001 7.48399869e-002 4.93560843e-002
      8.15518796e-002 8.71861354e-002 1.33475512e-001 2.44731307e-001
      1.61748454e-001 2.25793749e-001 1.83807850e-001 1.41481325e-001
      7.93737620e-002 1.35582924e-001 2.19178721e-001 2.47234687e-001
      3.25077355e-001 3.18921298e-001 7.19815344e-002 4.74834740e-002
      6.04892373e-002 1.16331547e-001 2.14571387e-001 1.94695920e-001
      9.47663337e-002 7.55532309e-002 7.40940720e-002 1.13938548e-001
      8.43244642e-002 8.28695372e-002 9.78077874e-002 2.80463070e-001
      2.86142290e-001 1.45887867e-001 1.20089389e-001 9.92930681e-002
      2.02095091e-001 1.38767168e-001 8.94381553e-002 1.46005243e-001
      1.71358109e-001 2.25236848e-001 1.66117594e-001 1.68460563e-001
      2.09082469e-001 2.46116862e-001 2.14353949e-001 2.01422885e-001
      2.41893709e-001 2.50431091e-001 2.17269957e-001 1.24118328e-001
      1.08069852e-001 1.97310835e-001 5.58264852e-002 3.64212058e-002
      4.79387194e-002 9.20712352e-002 2.34747484e-001 1.97654977e-001
      8.95910263e-002 1.34867579e-001 7.18732104e-002 8.88950154e-002
      3.65904532e-002 4.90140915e-002 1.20748438e-001 2.58521259e-001
      2.41135806e-001 8.94458666e-002 1.58119023e-001 1.46250248e-001
      9.50054377e-002 1.30623803e-001 1.54092029e-001 1.00915574e-001
      1.28853574e-001 1.22111142e-001 7.55966753e-002 7.31127560e-002
      1.89458907e-001 6.48916662e-002 7.12848008e-002 1.85286507e-001
      3.02294135e-001 3.02294135e-001 1.72948614e-001 1.19252965e-001
      1.90448195e-001 2.43575558e-001 7.57473186e-002 4.22653593e-002
      4.96405028e-002 7.18952343e-002 1.19761914e-001 1.16382048e-001
      5.68097197e-002 1.06229044e-001 1.57640606e-001 1.13845691e-001
      1.61254480e-001 2.57799745e-001 3.02294135e-001 3.02294135e-001
      2.63557523e-001 7.44494423e-002 1.64907709e-001 1.39923841e-001
      4.92550693e-002 4.07222472e-002 1.90657973e-001 2.86103547e-001
      2.86103547e-001 8.25038850e-002 5.90712503e-002 7.02071339e-002
      6.28434345e-002 3.06490995e-002 3.89538296e-002 1.60943493e-001
      2.86103547e-001 2.86103547e-001 1.22102335e-001 6.36284873e-002
      3.00989207e-002 1.52184004e-002 7.57720023e-002 9.95794535e-002
      2.64788508e-001 2.86103547e-001 2.86103547e-001 1.91219091e-001
      8.01110566e-002 8.42442364e-002 2.26469524e-002 6.39122650e-002
      6.68268055e-002 2.09930480e-001 2.86103547e-001 2.86103547e-001
      1.66512981e-001 1.17225811e-001 6.11743554e-002 6.31880434e-003
      2.27054749e-002 2.53248662e-002 8.11404958e-002 1.36460617e-001
      3.99941444e-001 1.65966675e-001 5.44143468e-002 3.67283560e-002
      2.30822153e-002 9.22686886e-003 6.00577472e-003 1.52528025e-002
      8.64468068e-002 4.53832060e-001 1.55833974e-001 2.68988255e-002
      1.94074493e-002 1.62573289e-002 6.24051802e-002 5.64338639e-002
      9.87950340e-002 2.06402943e-001 3.92764479e-001 1.69672504e-001
      7.68725350e-002 4.76325452e-002 2.55530011e-002 1.83773506e-002
      6.26910664e-003 1.61731634e-002 1.91589594e-001 4.53832060e-001
      2.00204372e-001 3.91287841e-002 2.76910625e-002 1.76278260e-002
      1.83635112e-003 7.27194082e-003 2.43335348e-002 9.18532684e-002
      4.24454689e-001 1.43574387e-001 1.65640954e-002 3.32372286e-003
      4.55917092e-003 8.26818927e-004 7.26464763e-003 5.22643663e-002
      1.66638866e-001 4.24454689e-001 1.41125098e-001 2.33705621e-002
      8.31962191e-003 7.68146897e-003 8.58126965e-004 8.47727899e-003
      4.24599573e-002 2.47078672e-001 4.24454689e-001 1.14952661e-001
      1.10287527e-002 2.62541138e-003 3.38469259e-003 4.47430531e-004
      1.15157180e-002 7.19614848e-002 3.28343958e-001 4.24454689e-001
      6.57867268e-002 1.04082171e-002 6.63642073e-003 9.20877140e-003
      2.16157828e-003 5.69727551e-003 5.10158017e-002 2.68539906e-001
      3.39877099e-001 1.15139268e-001 2.72222925e-002 1.29017690e-002
      5.35069639e-003 6.31381851e-003 9.95243154e-003 7.28884190e-002
      2.95915544e-001 3.39877099e-001 1.88425779e-001 8.36242214e-002
      4.05735746e-002 1.76553763e-002 1.83401387e-002 3.25367898e-002
      9.10615772e-002 3.39877099e-001 3.39877099e-001 1.05688773e-001
      1.41710946e-002 3.39150243e-002 2.98268385e-002 4.55041490e-002
      5.86256795e-002 1.66990250e-001 2.59594202e-001 3.30234975e-001
      2.25534454e-001 1.23003587e-001 6.82784542e-002 6.72723278e-002
      1.67966187e-002 2.27790307e-002 8.80518407e-002 1.95746988e-001
      3.05460155e-001 2.17190683e-001 1.14732563e-001 6.65324107e-002
      4.12093103e-002 3.65506075e-002 4.07386012e-002 1.93012297e-001
      2.91835696e-001 3.05460155e-001 1.33030549e-001 7.78218582e-002
      6.61966726e-002 5.79385161e-002 4.02442701e-002 4.33008708e-002
      1.47868901e-001 2.00376377e-001 2.52027690e-001 2.39469990e-001
      2.34254986e-001 7.63831660e-002 9.01675001e-002 5.72237782e-002
      5.95264360e-002 1.34341434e-001 2.49303252e-001 3.05460155e-001
      2.24828139e-001 1.98663786e-001 7.12440982e-002 9.72965062e-002
      2.96893436e-002 2.15912797e-002 1.59323797e-001 3.00504118e-001
      3.26766223e-001 1.58865556e-001 6.93213642e-002 2.37692762e-002
      3.95848081e-002 3.71609405e-002 2.45173853e-002 4.18524258e-002
      1.52182698e-001 2.79572189e-001 2.33248591e-001 7.28915185e-002
      3.16058844e-002 5.22573218e-002 6.16362169e-002 3.98398489e-002
      1.29189804e-001 2.46552989e-001 3.26766223e-001 2.74255663e-001
      1.43858314e-001 3.99157144e-002 4.72896919e-002 1.21184863e-001
      1.40159160e-001 1.88884526e-001 1.80416331e-001 2.47557223e-001
      2.77242810e-001 1.06237449e-001 1.14861794e-001 1.32965535e-001</_>
    <_>
      2.45411709e-001 2.03627020e-001 1.31446630e-001 7.69123212e-002
      9.54072252e-002 1.20432064e-001 1.20019853e-001 1.02626316e-001
      2.45411709e-001 2.07591802e-001 1.94136694e-001 9.17053074e-002
      1.05921097e-001 1.67186841e-001 1.28683314e-001 1.42194673e-001
      1.23800077e-001 2.44962454e-001 2.45411709e-001 2.18176991e-001
      2.45411709e-001 1.01612747e-001 4.92068045e-002 5.03117889e-002
      5.39242812e-002 1.23588644e-001 1.93912342e-001 2.45411709e-001
      2.45411709e-001 2.45411709e-001 9.70483795e-002 6.42063767e-002
      5.72909191e-002 8.12609196e-002 1.49520308e-001 2.40492240e-001
      1.09571539e-001 9.14972872e-002 4.78759818e-002 6.35742545e-002
      1.63948253e-001 1.67814642e-001 2.01335624e-001 1.91519067e-001
      1.48051530e-001 1.11969002e-001 2.42775708e-001 1.96453080e-001
      1.31058797e-001 1.83360219e-001 2.13953972e-001 2.42775708e-001
      2.42775708e-001 6.14544600e-002 2.42775708e-001 2.42775708e-001
      2.27440983e-001 1.19177647e-001 1.25494048e-001 8.16930085e-002
      7.57408440e-002 1.64154992e-001 1.66719049e-001 6.64983094e-002
      1.03382766e-001 1.24095134e-001 2.10363626e-001 2.42775708e-001
      1.90866232e-001 1.32049322e-001 1.47831321e-001 1.10669717e-001
      1.73559204e-001 2.67830789e-001 2.44544119e-001 1.60580754e-001
      1.83996439e-001 1.93896741e-001 1.43599823e-001 1.17274947e-001
      6.89458251e-002 1.70695528e-001 1.38339356e-001 1.34169012e-001
      1.02861993e-001 1.56636417e-001 1.54265225e-001 1.37283191e-001
      1.16091102e-001 1.72674671e-001 4.80182879e-002 1.03528604e-001
      1.65945232e-001 2.67830789e-001 2.67830789e-001 2.35210344e-001
      1.45346746e-001 8.91500041e-002 4.18226384e-002 6.28424361e-002
      7.72823840e-002 2.11825788e-001 2.67830789e-001 2.67830789e-001
      1.65591061e-001 1.00053333e-001 6.41986132e-002 4.45558578e-002
      9.37394202e-002 1.56963244e-001 2.28171200e-001 1.57542542e-001
      1.93764314e-001 1.39903009e-001 1.22520201e-001 1.12983927e-001
      1.59715578e-001 3.71122323e-002 1.29293889e-001 2.52362162e-001
      2.61614382e-001 2.61614382e-001 2.61614382e-001 1.96066976e-001
      1.32586032e-001 4.02120575e-002 5.99693023e-002 1.00446552e-001
      2.00126022e-001 2.50418752e-001 2.61614382e-001 1.22411057e-001
      5.22439890e-002 4.18233052e-002 5.08019887e-002 2.45023053e-002
      6.58739880e-002 1.31829888e-001 2.61614382e-001 2.61614382e-001
      2.37985477e-001 8.78883973e-002 3.52368318e-002 1.38840871e-002
      1.38430884e-002 6.68039396e-002 1.55205309e-001 2.91749537e-001
      2.91749537e-001 2.36105070e-001 1.20515786e-001 7.35310763e-002
      1.55755449e-002 2.77889390e-002 3.20673585e-002 5.58852702e-002
      1.83662146e-001 2.91749537e-001 1.62352741e-001 4.82101440e-002
      3.52904089e-002 6.93055987e-002 1.15407929e-002 2.36628149e-002
      1.28370926e-001 2.91749537e-001 2.91749537e-001 2.91749537e-001
      1.18630394e-001 3.07025630e-002 1.62104908e-002 5.74614853e-002
      3.92776541e-002 1.28124222e-001 2.35369682e-001 2.91749537e-001
      2.84707218e-001 1.34215027e-001 7.23210350e-002 9.89896879e-002
      4.16763164e-002 5.79681732e-002 1.17131427e-001 1.75468400e-001
      1.80219308e-001 9.03940946e-002 4.10536639e-002 8.43272507e-002
      9.99672338e-002 2.70260964e-002 3.94138433e-002 1.04156941e-001
      2.29199916e-001 2.20392168e-001 3.74267586e-002 3.13687511e-002
      4.33158912e-002 2.62159929e-002 1.72164395e-001 1.25593722e-001
      2.02090293e-001 2.72602439e-001 1.51329353e-001 1.62100762e-001
      1.61098450e-001 1.94701061e-001 1.85978383e-001 2.75790602e-001
      2.40180269e-001 2.42072135e-001 2.84465462e-001 2.04790279e-001
      5.07997572e-002 1.70692623e-001 1.81352973e-001 2.84465462e-001
      1.97400153e-002 3.38755064e-002 1.17228284e-001 2.42615372e-001
      1.71253100e-001 4.43854630e-002 6.40295520e-002 2.37802397e-002
      1.41390609e-002 3.35052833e-002 6.76031932e-002 2.12430760e-001
      2.79897124e-001 1.15617909e-001 5.93929999e-002 7.18658715e-002
      2.12507993e-002 2.10801866e-002 2.04575598e-001 2.56237239e-001
      1.68770328e-001 1.86661035e-001 2.37184778e-001 1.10893495e-001
      2.61213303e-001 1.38438404e-001 2.90137440e-001 1.79258451e-001
      2.21674487e-001 2.03065634e-001 1.50156245e-001 2.18324155e-001
      1.56711876e-001 2.55733162e-001 1.33257970e-001 1.52563304e-001
      7.05890730e-002 1.20734498e-001 1.52380183e-001 1.21445403e-001
      1.24782287e-001 4.47696745e-002 3.51794921e-002 2.23392025e-002
      3.87632065e-002 1.05506770e-001 2.17101812e-001 2.03943819e-001
      2.35719740e-001 2.28758499e-001 1.23599492e-001 5.67432642e-002
      6.25919774e-002 9.75488350e-002 1.63492322e-001 2.14044526e-001
      1.94518447e-001 1.34482935e-001 2.05146819e-001 9.76665169e-002
      1.22607864e-001 8.35213065e-002 1.19170859e-001 1.91346362e-001
      2.81720221e-001 2.66152680e-001 2.70289958e-001 2.49089018e-001
      1.52900815e-001 1.29756778e-001 1.55316800e-001 2.76573807e-001
      5.81202060e-002 1.30521581e-001 1.43056229e-001 2.53016740e-001
      2.76075810e-001 1.64452508e-001 1.16713785e-001 6.02179058e-002
      5.95901050e-002 4.59003448e-002 7.96169564e-002 1.51414439e-001
      1.92800775e-001 2.71570891e-001 2.24177375e-001 1.52571544e-001
      4.80166525e-002 5.75927347e-002 1.90712824e-001 1.57856256e-001
      1.83667779e-001 2.58206129e-001 1.98261872e-001 1.53829053e-001
      1.07539393e-001 1.25886843e-001 1.91658065e-001 2.09885806e-001
      1.51873216e-001 1.74067199e-001 2.04968765e-001 1.91659540e-001
      1.70992002e-001 1.68979779e-001 9.83560309e-002 1.19753227e-001
      5.62997423e-002 9.62056965e-002 1.49133533e-001 1.68528825e-001
      2.89144367e-001 1.50001064e-001 9.41223055e-002 7.88679123e-002
      8.85416046e-002 9.99257490e-002 9.99432430e-002 1.75032794e-001
      1.99985102e-001 1.97183147e-001 1.55159608e-001 1.15840591e-001
      2.04885274e-001 1.16486922e-001 1.05508342e-001 7.01101124e-002
      1.26240492e-001 1.94250405e-001 2.94060916e-001 1.75291389e-001
      1.89255059e-001 1.40034303e-001 1.07605524e-001 7.99177215e-002
      7.67220110e-002 1.37448683e-001 2.99740911e-001 2.71196932e-001
      2.15599060e-001 1.57635272e-001 2.19600245e-001 1.19796634e-001
      1.03040405e-001 5.36003150e-002 1.07991949e-001 1.13219142e-001
      1.31162763e-001 2.37670794e-001 1.46944627e-001 1.85950860e-001
      9.98127460e-002 7.98478648e-002 6.61497340e-002 1.38995975e-001
      9.37115476e-002 2.93406546e-001 2.93406546e-001 1.30913764e-001
      1.46629587e-001 7.74270967e-002 7.71318376e-002 7.55647942e-002
      1.36951596e-001 2.21709579e-001 1.94794461e-001 2.77016491e-001
      1.49912104e-001 1.86227635e-001 1.03642210e-001 6.73046187e-002
      1.14846863e-001 2.02876449e-001 1.70420170e-001 2.75130391e-001
      2.80696511e-001 1.37050644e-001 1.74840227e-001 9.84936431e-002
      2.12644413e-002 5.59383333e-002 1.19161069e-001 1.16845898e-001
      2.41724551e-001 1.68343902e-001 8.39223564e-002 1.09169446e-001
      3.24694104e-002 1.70006100e-002 1.45412117e-001 1.60938904e-001
      2.69336671e-001 2.69336671e-001 2.58127362e-001 2.25534037e-001
      1.90328822e-001 3.60519402e-002 4.89954278e-002 9.63599980e-002
      1.46891132e-001 1.16816044e-001 1.74801096e-001 1.31406501e-001
      7.88334534e-002 1.38536036e-001 5.68984523e-002 6.85907602e-002
      1.88357800e-001 1.98974222e-001 2.67467827e-001 2.69336671e-001
      1.29182830e-001 2.59574771e-001 2.69004941e-001 8.93697888e-002
      7.03076646e-002 2.19778895e-001 1.36111006e-001 2.45466515e-001
      2.24934280e-001 1.72384232e-001 2.25658998e-001 2.12670490e-001
      6.60445467e-002 8.14289302e-002 1.54157147e-001 1.30794108e-001
      1.68874934e-001 1.16744697e-001 8.00408795e-002 1.08535729e-001
      1.27154440e-001 6.67444095e-002 8.27816874e-002 2.21714124e-001
      1.44261226e-001 2.07424358e-001 1.91913322e-001 1.30573064e-001
      2.69164979e-001 2.29101494e-001 1.16261192e-001 8.03641602e-002
      2.11217016e-001 1.31750554e-001 1.01926677e-001 1.41319841e-001
      2.06467852e-001 2.52907813e-001 1.66559726e-001 1.03426173e-001
      7.35185817e-002 7.83762187e-002 1.00077152e-001 2.07136661e-001
      1.12328790e-001 8.97159651e-002 7.74952918e-002 1.09817356e-001
      7.73180127e-002 1.21283524e-001 1.54222086e-001 1.82616130e-001
      1.92325994e-001 1.46762073e-001 1.65531650e-001 1.62684962e-001
      2.27143526e-001 1.43795893e-001 8.49666968e-002 2.24930629e-001
      1.37169689e-001 1.06769927e-001 1.19643509e-001 1.95919603e-001
      1.76075935e-001 1.60624400e-001 1.10673808e-001 1.36841908e-001
      3.21250081e-001 3.21250081e-001 2.96520680e-001 1.02414772e-001
      1.43766776e-001 1.02144703e-001 1.95536271e-001 1.68650955e-001
      6.81079403e-002 2.35012695e-001 2.19391540e-001 1.33062616e-001
      1.21429645e-001 1.19832024e-001 1.47386819e-001 1.56196550e-001
      6.08893409e-002 1.79116860e-001 2.91047424e-001 2.13460356e-001
      2.72687048e-001 2.39206329e-001 5.71277142e-002 5.73116653e-002
      8.59149769e-002 9.20216963e-002 8.21098536e-002 2.91047424e-001
      2.91047424e-001 2.07191765e-001 4.73407507e-002 6.85084537e-002
      5.16037233e-002 8.59181508e-002 5.11206575e-002 1.46313742e-001
      2.91047424e-001 2.91047424e-001 1.76904529e-001 8.87898728e-002
      3.82738300e-002 2.15237346e-002 3.70869264e-002 6.42731264e-002
      1.47228792e-001 1.53048486e-001 2.44485661e-001 8.47990513e-002
      3.32272649e-002 4.41318676e-002 5.05905077e-002 9.14134458e-002
      1.35805354e-001 2.44485661e-001 2.44485661e-001 2.44485661e-001
      8.48804042e-002 4.83157411e-002 2.57016122e-002 6.48192838e-002
      1.30408794e-001 2.17097878e-001 1.51380479e-001 9.63794291e-002
      1.64950401e-001 2.24707648e-001 2.44485661e-001 1.55380398e-001
      1.30989090e-001 1.31787553e-001 1.43150955e-001 2.44485661e-001
      2.38183737e-001 2.06961364e-001 2.44485661e-001 2.11448237e-001
      1.37841105e-001 1.24768183e-001 1.26746163e-001 1.78683609e-001
      2.31327847e-001 2.31327847e-001 1.45475313e-001 9.51636136e-002
      7.01996088e-002 3.32014076e-002 5.85190430e-002 1.46868795e-001
      1.70942366e-001 6.54094443e-002 9.06039551e-002 7.62668028e-002
      1.02704778e-001 2.31327847e-001 1.11536920e-001 1.55223221e-001
      1.59687087e-001 2.17525363e-001 1.78399190e-001 1.71057433e-001
      1.11433908e-001 2.31327847e-001 1.50730684e-001 9.92503166e-002
      1.04716919e-001 2.20532000e-001 1.72794089e-001 1.14229441e-001
      1.66057616e-001 1.55523345e-001 2.23280996e-001 1.77066118e-001
      2.29955599e-001 2.31327847e-001 2.31327847e-001 2.31327847e-001
      3.35803777e-002 6.46911561e-002 1.06493399e-001 1.93982422e-001
      2.49212533e-001 2.12204620e-001 2.10383549e-001 6.08635955e-002
      9.49411243e-002 2.98518687e-002 4.69224975e-002 1.12698399e-001
      2.29775116e-001 2.49212533e-001 1.47634029e-001 6.96839392e-002
      2.48642638e-002 4.35014032e-002 1.35771051e-001 2.10241646e-001
      2.28217572e-001 2.32157305e-001 2.49212533e-001 2.49212533e-001
      2.49212533e-001 1.59138098e-001 1.89953074e-001 9.75607634e-002
      1.18064478e-001 1.70314908e-001 1.76185563e-001 2.41895691e-001
      1.80848792e-001 1.09532885e-001 8.78415629e-002 9.20188949e-002
      4.27098386e-002 8.94117579e-002 1.45392865e-001 2.60484308e-001
      2.83650964e-001 1.30891472e-001 3.31725404e-002 4.13270965e-002
      7.63619319e-002 1.49456421e-002 4.92589027e-002 1.26042157e-001
      2.83650964e-001 2.83650964e-001 1.99634954e-001 6.81402609e-002
      2.56327540e-002 3.48987654e-002 8.07829648e-002 1.20785043e-001
      2.00435221e-001 2.11190701e-001 2.40665287e-001 1.28322646e-001
      9.15349275e-002 8.97707567e-002 9.50583741e-002 1.04395680e-001
      2.11784124e-001 2.83650964e-001 2.83650964e-001 2.83650964e-001
      1.26239121e-001 1.84341475e-001 8.98353755e-002 7.37410337e-002
      1.83395520e-002 1.63909346e-002 9.36602876e-002 2.50880927e-001
      2.80574739e-001 1.75023332e-001 7.90139288e-002 2.16367096e-002
      2.14176327e-002 1.62266567e-001 1.65489480e-001 1.46273255e-001
      1.84907123e-001 1.47571892e-001 1.74713984e-001 1.24216005e-001
      7.69140199e-002 7.56516755e-002 1.43353298e-001 2.57513285e-001
      2.48676986e-001 2.37017438e-001 2.23676682e-001 9.85264108e-002
      1.37824669e-001 4.67314050e-002 7.03225434e-002 2.80574739e-001
      2.80574739e-001 2.56722659e-001 1.92991123e-001 9.28145200e-002
      8.96959826e-002 9.43328887e-002 9.70181003e-002 1.82663113e-001
      2.32068315e-001 2.16509044e-001 1.51098251e-001 8.75545293e-002
      2.90592853e-002 3.90000306e-002 5.53478971e-002 6.81666136e-002
      1.03421591e-001 2.91224062e-001 2.69135386e-001 1.47808000e-001
      1.15548156e-001 8.44737068e-002 4.26078402e-002 5.77768385e-002
      5.92512451e-002 2.69675553e-001 2.91224062e-001 2.91224062e-001
      2.03066841e-001 5.64339161e-002 1.77604537e-002 2.30367742e-002
      3.06215920e-002 8.12200978e-002 1.76997960e-001 2.91224062e-001
      2.91224062e-001 1.62791908e-001 6.28654733e-002 1.04023382e-001
      7.84937367e-002 6.99944869e-002 5.99964783e-002 2.91224062e-001
      2.84529895e-001 2.16429010e-001 8.43886510e-002 5.68874441e-002
      1.10993668e-001 8.03053901e-002 8.95094424e-002 5.31778075e-002
      2.30766207e-001 2.00327218e-001 1.44215718e-001 5.76844476e-002
      2.88322344e-002 6.03037104e-002 4.99440841e-002 7.97683224e-002
      9.84811112e-002 2.00749367e-001 3.00377101e-001 2.48708531e-001
      7.84926564e-002 6.22764938e-002 1.49036258e-001 1.23189874e-001
      1.22369424e-001 8.30920413e-002 3.00377101e-001 3.00377101e-001
      3.00377101e-001 4.99281846e-002 4.88891080e-002 6.80989474e-002
      4.88107279e-002 9.60324556e-002 2.12087706e-001 3.00377101e-001
      1.91698134e-001 9.41349491e-002 5.26750386e-002 4.00184579e-002
      5.52592278e-002 3.33627388e-002 5.24508655e-002 7.20514283e-002
      1.38534844e-001 1.82654619e-001 9.15172696e-002 6.08570799e-002
      6.83488771e-002 6.53438494e-002 3.83103490e-002 7.49653354e-002
      1.13350123e-001 2.27973640e-001 3.41398388e-001 3.16180021e-001
      4.09859382e-002 3.96090709e-002 3.20567265e-002 1.99538935e-002
      1.19659349e-001 2.09511772e-001 3.41398388e-001 3.41398388e-001
      2.01096252e-001 6.91428706e-002 1.09524436e-001 9.83149409e-002
      3.92693691e-002 1.89266726e-001 2.36000448e-001 3.41398388e-001
      1.61284551e-001 8.40018168e-002 9.57368687e-002 1.02595851e-001
      1.08082749e-001 5.96583337e-002 8.98733139e-002 1.29145205e-001
      2.47880831e-001 1.31636322e-001 1.03247158e-001 8.96769911e-002
      1.19523413e-001 1.25161335e-001 9.91797447e-002 9.32411477e-002
      6.51001930e-002 5.88883683e-002 2.90497094e-001 1.17667735e-001
      1.63570449e-001 1.88283175e-001 2.90497094e-001 1.10401519e-001
      1.90473452e-001 2.15323523e-001 2.90497094e-001 2.14528441e-001
      1.47161454e-001 2.21652970e-001 2.16522366e-001 2.77835727e-001
      1.43598348e-001 1.52750552e-001 1.12456828e-001 1.70716137e-001
      1.12132333e-001 7.81355947e-002 9.05767754e-002 2.22411439e-001
      2.25259140e-001 1.81167856e-001 1.40212685e-001 6.44388944e-002
      5.40190563e-002 4.04576659e-002 4.59813215e-002 8.65046903e-002
      2.94982821e-001 2.90723085e-001 1.45430684e-001 8.16958845e-002
      6.87638447e-002 5.78647852e-002 1.79542467e-001 1.56432107e-001
      2.07272008e-001 2.52690077e-001 2.74581552e-001 1.91127941e-001
      1.61601827e-001 9.18871611e-002 1.31952316e-001 9.02714208e-002
      1.24472909e-001 1.32837132e-001 2.78099179e-001 2.77988136e-001
      2.12008804e-001 8.74400437e-002 6.40401170e-002 1.08279109e-001
      4.74375635e-002 5.68365268e-002 7.00653419e-002 2.13108361e-001
      3.05574000e-001 1.73245504e-001 9.21241716e-002 9.19460431e-002
      6.22942671e-002 6.76619560e-002 8.84433612e-002 1.21530361e-001
      2.16602162e-001 3.05574000e-001 1.85403243e-001 1.27254620e-001
      1.26802310e-001 7.24356249e-002 1.14491485e-001 1.12121291e-001
      1.08186066e-001 2.06572920e-001 3.05574000e-001 2.06342116e-001
      8.14265460e-002 9.39513370e-002 1.18712202e-001 1.23712294e-001
      1.11706130e-001 1.26895919e-001 2.03658834e-001 3.05574000e-001
      1.95610955e-001 2.17621520e-001 1.61688864e-001 1.46671265e-001
      9.88419354e-002 8.55875462e-002 1.39037743e-001 1.51272014e-001
      1.80928901e-001 1.21733867e-001 7.71101713e-002 1.40169546e-001
      8.87031704e-002 9.94665474e-002 1.54526755e-001 2.80817986e-001
      2.86757231e-001 2.03417644e-001 1.26461342e-001 1.23283520e-001
      1.86975315e-001 1.05097160e-001 1.12628587e-001 7.08807632e-002
      1.16986990e-001 1.55696154e-001 1.76503405e-001 1.29698664e-001
      1.63119465e-001 1.49932370e-001 1.40660703e-001 1.20209806e-001
      1.32288203e-001 2.83357829e-001 2.86757231e-001 2.76924670e-001
      1.80200785e-001 1.41615406e-001 1.68922797e-001 1.36626616e-001
      2.66954210e-002 8.80349800e-002 1.30634755e-001 1.93084195e-001
      1.77647308e-001 1.26734942e-001 1.17503993e-001 8.78855512e-002
      4.67539132e-002 3.82552557e-002 8.24835971e-002 1.20247044e-001
      1.52441189e-001 2.70637244e-001 2.70637244e-001 1.59768835e-001
      6.15093783e-002 5.43481335e-002 6.92699328e-002 1.51891023e-001
      1.92220494e-001 2.29254201e-001 2.53466040e-001 1.31089777e-001
      9.64538306e-002 1.21269420e-001 6.14703931e-002 2.03010395e-001
      2.70637244e-001 2.70637244e-001 2.60412782e-001 2.70637244e-001
      2.24615827e-001 8.06659013e-002 9.78885219e-002 1.28589854e-001
      4.82446700e-002 1.91306293e-001 2.47754797e-001 1.28401041e-001
      1.56600296e-001 1.80729270e-001 1.02622062e-001 4.17436101e-002
      5.18447086e-002 1.20283745e-001 3.03595126e-001 3.03595126e-001
      2.42770165e-001 6.92555532e-002 5.65836951e-002 3.46406102e-002
      5.63386902e-002 7.72820786e-002 1.28334761e-001 2.64102191e-001
      3.03595126e-001 2.63890088e-001 1.73676044e-001 1.56273738e-001
      5.08148372e-002 3.32575515e-002 8.56404901e-002 1.01529650e-001
      2.21711338e-001 3.03595126e-001 2.13591322e-001 8.08542892e-002
      5.44181503e-002 3.90779860e-002 6.76990077e-002 7.37105384e-002
      1.75044715e-001 4.08447087e-001 4.08447087e-001 4.08447087e-001
      1.23857163e-001 7.83196390e-002 4.19672057e-002 1.01046585e-001
      9.22853351e-002 1.08474173e-001 1.88072279e-001 2.45754957e-001
      1.95257470e-001 1.32455662e-001 7.48695806e-002 4.56910953e-002
      6.53681010e-002 8.06478932e-002 1.36423662e-001 1.67500049e-001
      2.67024696e-001 2.21104369e-001 1.25430912e-001 7.38262609e-002
      6.96305484e-002 1.06213152e-001 7.43884742e-002 5.01105785e-002
      4.35126051e-002 7.93548226e-002 7.93392658e-002 5.75862452e-002
      5.12626655e-002 6.63059130e-002 4.80303131e-002 4.25233245e-002
      9.38267186e-002 6.41668811e-002 7.51736984e-002 2.41750464e-001
      2.41750464e-001 2.04463974e-001 1.08283386e-001 1.37039036e-001
      1.09527491e-001 1.21477209e-001 7.94972181e-002 8.49487707e-002
      2.17642292e-001 2.40827069e-001 2.41750464e-001 1.65223956e-001
      1.28121465e-001 1.47187591e-001 1.14429630e-001 1.10482574e-001
      1.12011120e-001 2.38916114e-001 2.41750464e-001 2.41750464e-001
      1.06157191e-001 1.07030183e-001 1.10653274e-001 1.89668179e-001
      2.06445664e-001 2.41750464e-001 1.71724916e-001 1.77270576e-001
      1.99208051e-001 1.16596676e-001 9.85218659e-002 1.12331793e-001
      7.78071433e-002 8.80017877e-002 9.99750495e-002 1.98894292e-001
      1.90205231e-001 1.66218117e-001 1.06892131e-001 1.20883144e-001
      1.03564441e-001 1.25346929e-001 1.55113026e-001 1.51410758e-001
      2.01530308e-001 1.49946705e-001 2.30091959e-001 2.08127752e-001
      1.69394135e-001 1.63982227e-001 2.30091959e-001 2.30091959e-001
      2.30091959e-001 1.38311058e-001 1.18721254e-001 1.24291904e-001
      6.13317750e-002 4.98988144e-002 1.22911856e-001 2.30091959e-001
      2.29861155e-001 2.14968324e-001 1.96203575e-001 1.67132005e-001
      2.30091959e-001 1.40923813e-001 9.24949497e-002 1.65840134e-001
      2.09083006e-001 1.20678812e-001 1.40904039e-001 1.79219544e-001
      1.70244977e-001 2.32905313e-001 2.23813340e-001 1.64353326e-001
      1.80053353e-001 1.54598668e-001 8.76128972e-002 1.09270230e-001
      1.45088926e-001 1.78744152e-001 1.37809575e-001 1.05902679e-001
      1.26540989e-001 1.02836303e-001 2.32905313e-001 1.39709413e-001
      1.74771950e-001 2.32905313e-001 2.32905313e-001 2.32905313e-001
      1.57254562e-001 1.37663618e-001 1.56404257e-001 2.02935651e-001
      1.07217818e-001 1.14283659e-001 1.86631486e-001 2.32905313e-001
      1.43172830e-001 1.06237426e-001 9.45227593e-002 1.03126474e-001
      5.76966405e-002 1.41122848e-001 2.12975621e-001 1.58809870e-001
      1.58649981e-001 7.30685815e-002 1.01159506e-001 8.64115953e-002
      5.21994382e-002 1.70277655e-001 2.89612144e-001 2.89612144e-001
      2.17929155e-001 1.22445300e-001 4.10149209e-002 1.37360722e-001
      1.14795238e-001 7.74242282e-002 8.27115029e-002 1.20463304e-001
      2.89612144e-001 2.70554185e-001 1.90530315e-001 1.10276669e-001
      1.01600587e-001 9.76398438e-002 6.82119131e-002 1.50021136e-001
      2.10165858e-001 2.89612144e-001 2.89612144e-001 1.27417117e-001
      9.16576609e-002 1.03972785e-001 1.44363403e-001 1.06217057e-001
      1.43768921e-001 2.61464149e-001 2.61464149e-001 1.01178303e-001
      7.31315464e-002 3.77010182e-002 7.76832104e-002 4.83463667e-002
      6.33328110e-002 2.61464149e-001 2.61464149e-001 2.61464149e-001
      1.56924933e-001 1.04014881e-001 7.11345077e-002 5.96564673e-002
      5.99670671e-002 1.41922221e-001 8.49267617e-002 1.19267754e-001
      2.26429671e-001 1.07901953e-001 1.10277556e-001 1.04673691e-001
      1.10281691e-001 7.29915872e-002 7.05512837e-002 2.33803809e-001
      1.41385093e-001 2.61464149e-001 2.61464149e-001 2.31802329e-001
      1.99411243e-001 2.03790769e-001 1.59350842e-001 1.89662471e-001
      2.58852810e-001 2.14381948e-001 2.16868922e-001 1.32031187e-001
      9.58280489e-002 4.79263589e-002 3.88310254e-002 8.36025998e-002
      1.83290496e-001 2.58852810e-001 1.63014188e-001 7.54495263e-002
      5.40546812e-002 4.90312316e-002 3.57395411e-002 5.81232496e-002
      1.31655142e-001 2.58852810e-001 2.58852810e-001 1.03658810e-001
      2.58852810e-001 2.58852810e-001 2.00134143e-001 1.04193255e-001
      1.04976624e-001 1.30034283e-001 2.09917337e-001 2.58852810e-001
      1.40487581e-001 9.89604294e-002 1.94313735e-001 1.01026088e-001
      6.21907488e-002 4.33583297e-002 1.44590795e-001 2.58852810e-001
      2.62561023e-001 1.74325287e-001 3.26525345e-002 4.30152975e-002
      6.12744167e-002 4.81890701e-002 6.86152801e-002 8.86699185e-002
      2.45308205e-001 2.62561023e-001 2.62561023e-001 4.20229062e-002
      1.33779511e-001 1.56436861e-001 1.74497783e-001 1.16829403e-001
      8.84192809e-002 2.62561023e-001 2.35213622e-001 1.79845750e-001
      7.42197856e-002 1.23520158e-001 1.12551711e-001 8.02434087e-002
      5.18758781e-002 7.54582360e-002 1.48497567e-001 1.87802181e-001
      1.92401171e-001 1.96560353e-001 2.62561023e-001 2.62561023e-001
      2.62561023e-001 1.59364492e-001 2.85799820e-002 1.07286386e-001
      2.71479845e-001 2.56025672e-001 4.41827141e-002 8.68459269e-002
      9.22644883e-002 8.99854824e-002 1.19946145e-001 1.25079289e-001
      2.71479845e-001 2.71479845e-001 1.39252976e-001 4.85151820e-002
      8.51060525e-002 5.82867675e-002 2.22001467e-002 1.35175943e-001
      1.49463475e-001 2.71479845e-001 1.54979438e-001 1.44047722e-001
      1.66898564e-001 2.71479845e-001 2.71479845e-001 2.31181920e-001
      1.31211102e-001 5.66506684e-002 1.39234781e-001 2.63328493e-001
      1.04757465e-001 8.84218961e-002 9.58866104e-002 7.54079670e-002
      3.54040898e-002 8.61037001e-002 9.29474905e-002 2.71479845e-001
      3.02089036e-001 9.72813368e-002 5.91078065e-002 8.91318172e-002
      1.31716579e-001 6.53122514e-002 9.28419456e-002 9.94966477e-002
      3.02089036e-001 3.02089036e-001 1.12232730e-001 9.03809965e-002
      5.68818152e-002 9.63884443e-002 6.85883090e-002 1.14960365e-001
      1.88753843e-001 3.02089036e-001 3.02089036e-001 9.19332281e-002
      9.04688984e-002 9.13516209e-002 5.52898720e-002 3.10509373e-002
      5.84810600e-002 8.54691043e-002 3.02089036e-001 2.48257682e-001
      1.24857351e-001 1.08448215e-001 4.99107316e-002 7.90961236e-002
      5.94902970e-002 1.28585950e-001 2.29719043e-001 3.02089036e-001
      1.51297167e-001 7.98830912e-002 6.30463436e-002 3.81952748e-002
      4.56763841e-002 5.05430847e-002 9.22810361e-002 2.26394087e-001
      3.25258076e-001 1.41964808e-001 6.70146570e-002 4.55084480e-002
      4.59678955e-002 3.48398909e-002 6.72173426e-002 3.25741470e-002
      1.68772832e-001 3.25258076e-001 1.91954628e-001 9.91967469e-002
      8.54278877e-002 2.54176985e-002 7.16997758e-002 9.91966575e-002
      1.45202249e-001 3.25258076e-001 3.25258076e-001 3.07627320e-001
      5.04058190e-002 5.62233664e-002 2.00475585e-002 2.28263214e-002
      5.89262396e-002 5.78204282e-002 3.25258076e-001 3.25258076e-001
      1.57716289e-001 5.30299135e-002 4.70241271e-002 4.93553989e-002
      2.86463816e-002 7.25674033e-002 3.77947539e-002 1.43644184e-001
      3.07109088e-001 1.32556081e-001 5.83631843e-002 5.98169044e-002
      6.95026368e-002 3.60352695e-002 6.42736256e-002 9.69827622e-002
      1.37590915e-001 2.22921491e-001 3.39212984e-001 3.52414288e-002
      5.92331812e-002 1.81050655e-002 1.10735856e-002 4.71848957e-002
      4.10975926e-002 3.39212984e-001 3.39212984e-001 3.39212984e-001
      7.16134757e-002 6.06683828e-002 2.92943045e-002 2.22234651e-002
      1.00251548e-001 1.10979907e-001 3.34654957e-001 3.39212984e-001
      7.77771100e-002 5.41506074e-002 4.23839726e-002 4.96889986e-002
      3.29773054e-002 4.21961695e-002 8.82051885e-002 9.45836678e-002
      1.67824343e-001 1.43209487e-001 1.28888130e-001 7.09824041e-002
      4.83593084e-002 5.06174900e-002 4.26380299e-002 5.87197579e-002
      1.24468513e-001 1.35779858e-001 3.55959684e-001 9.51256901e-002
      5.20039834e-002 2.06732750e-002 2.66283099e-002 7.26777688e-002
      8.57493505e-002 2.83699423e-001 3.73446554e-001 3.73446554e-001
      2.12441280e-001 5.62577285e-002 1.20552396e-002 4.17290032e-002
      5.23073152e-002 7.43124485e-002 3.73446554e-001 3.73446554e-001
      1.27897292e-001 1.96798190e-001 1.09660119e-001 5.66413589e-002
      4.51262742e-002 2.75161956e-002 3.38974930e-002 7.11921230e-002
      6.02147467e-002 1.73650205e-001 3.03495049e-001 2.18530953e-001
      7.37887844e-002 5.48508093e-002 2.68126465e-002 2.07888465e-002
      4.76768054e-002 6.45952150e-002 3.38142395e-001 2.30645567e-001
      8.79818276e-002 3.29086818e-002 2.94490401e-002 2.65851393e-002
      3.16897258e-002 2.57726789e-001 3.38142395e-001 3.38142395e-001
      2.65429050e-001 1.19440995e-001 8.73264968e-002 1.63105801e-001
      7.38497376e-002 8.78788158e-002 8.41795132e-002 3.38142395e-001
      1.78207144e-001 2.63340265e-001 3.05255383e-001 1.38768703e-001
      8.83347839e-002 5.09585962e-002 2.88867056e-002 3.88097428e-002
      7.60694891e-002 3.81873958e-002 6.36752695e-002 1.21455163e-001
      1.01922117e-001 9.47000906e-002 5.01256734e-002 4.13698852e-002
      4.03909497e-002 4.55049723e-002 3.05255383e-001 1.84031874e-001
      1.37056872e-001 2.45335057e-001 3.05255383e-001 1.86128452e-001
      1.93525940e-001 1.16214767e-001 3.05255383e-001 1.62223548e-001
      6.01439737e-002 8.48415643e-002 1.95052430e-001 3.05255383e-001
      1.61953256e-001 1.19457453e-001 6.12201244e-002 1.63528219e-001
      7.59470537e-002 7.93697610e-002 1.38239965e-001 1.93068579e-001
      3.13785911e-001 1.37120977e-001 1.46562755e-001 9.56105441e-002
      7.72440508e-002 5.52046224e-002 4.85076234e-002 9.49976221e-002
      1.05104662e-001 1.27139032e-001 3.95324528e-002 9.08135623e-002
      6.14794232e-002 4.70893160e-002 1.50110304e-001 1.26818106e-001
      1.69271603e-001 2.66338110e-001 4.39351797e-001 3.15833420e-001
      2.67715454e-001 1.45332277e-001 1.74552172e-001 6.65651262e-002
      1.53276742e-001 1.50628850e-001 1.76195905e-001 2.19855234e-001
      5.34733459e-002 1.15146168e-001 1.16062813e-001 4.50713076e-002
      1.12249903e-001 1.17256179e-001 1.77401006e-001 2.25217581e-001
      1.64592147e-001 1.40542120e-001 7.53430128e-002 1.06123917e-001
      1.20304219e-001 1.45452306e-001 2.07587540e-001 2.36391902e-001
      2.25175217e-001 1.96674421e-001 8.16366449e-002 2.13585924e-002
      5.35200313e-002 6.03943542e-002 2.36391902e-001 1.77722365e-001
      2.36391902e-001 2.36391902e-001 1.46989748e-001 1.00041486e-001
      6.36565462e-002 1.35459900e-001 2.21075445e-001 2.36391902e-001
      2.10700303e-001 2.36391902e-001 2.36391902e-001 2.23847300e-001
      6.79052845e-002 2.31244732e-002 6.71995282e-002 1.17330030e-001
      1.69713199e-001 1.76508054e-001 2.24595666e-001 1.37013361e-001
      1.80635884e-001 6.34323657e-002 1.69380177e-002 1.69084389e-002
      6.54736385e-002 2.03048527e-001 1.70983166e-001 2.92178571e-001
      2.92178571e-001 2.74630457e-001 1.27188116e-001 8.32124203e-002
      7.35568255e-002 8.93549845e-002 1.03491791e-001 7.96234086e-002
      9.03165266e-002 1.31414860e-001 2.32300669e-001 7.43811876e-002
      1.91410240e-002 1.43038714e-002 2.84318347e-002 2.37277020e-002
      9.02504623e-002 2.92178571e-001 2.92178571e-001 2.92178571e-001
      2.92178571e-001 1.28709212e-001 4.47293818e-002 3.42722833e-002
      2.05477893e-001 1.97950900e-001 2.61460155e-001 2.61460155e-001
      2.00091705e-001 1.25381216e-001 7.82993063e-002 1.00765936e-001
      8.05749819e-002 1.64605573e-001 1.27367005e-001 2.06776276e-001
      1.61340609e-001 1.54973403e-001 1.17342137e-001 5.51063791e-002
      8.18754733e-002 8.30818564e-002 5.35296202e-002 1.48441985e-001
      2.61460155e-001 2.61460155e-001 2.61460155e-001 2.61460155e-001
      1.48286059e-001 8.71574655e-002 8.38795602e-002 1.14301436e-001
      9.62646082e-002 2.10480243e-001 1.97164640e-001 2.04373226e-001
      1.15192257e-001 6.97538331e-002 1.28224164e-001 1.31802633e-001
      1.24852933e-001 5.48727214e-002 1.39420271e-001 1.32720202e-001
      1.76703006e-001 1.35056332e-001 5.92272878e-002 9.41918194e-002
      1.19787171e-001 2.03658774e-001 9.36972052e-002 1.41888291e-001
      1.53562173e-001 1.36452228e-001 1.20898180e-001 9.39353555e-002
      1.38224930e-001 1.92403927e-001 2.41432413e-001 8.50532874e-002
      1.06851012e-001 9.87781733e-002 2.41432413e-001 1.65859446e-001
      1.07907064e-001 2.18942985e-001 2.41432413e-001 2.41432413e-001
      2.07330897e-001 1.17058992e-001 1.51677057e-001 2.18971565e-001
      1.64327502e-001 2.31744140e-001 2.41432413e-001 2.41432413e-001
      1.69925660e-001 8.20306093e-002 1.25158250e-001 1.18070535e-001
      1.62946582e-001 1.83000118e-001 1.49498463e-001 1.35934278e-001
      1.54487476e-001 1.21907949e-001 7.67504796e-002 2.41525769e-001
      1.82659909e-001 2.01773927e-001 1.97690278e-001 2.11096644e-001
      2.06827074e-001 2.25876957e-001 2.24021763e-001 2.03236669e-001
      1.17164969e-001 2.02735096e-001 2.41525769e-001 2.41525769e-001
      1.75745293e-001 1.83954179e-001 1.91804186e-001 6.23292625e-002
      9.65421572e-002 7.36215264e-002 8.82695839e-002 1.87634885e-001
      1.59163356e-001 6.03091903e-002 9.64389294e-002 1.12422295e-001
      1.99099019e-001 1.22680314e-001 2.71483451e-001 2.71483451e-001
      2.29447722e-001 1.70237288e-001 1.64348036e-001 2.15269238e-001
      2.50079304e-001 1.45769209e-001 1.73401907e-001 2.08863884e-001
      2.71483451e-001 1.86093062e-001 1.89233914e-001 8.67974013e-002
      1.33826286e-001 1.50213435e-001 1.09117538e-001 1.21554129e-001
      1.00598760e-001 7.75285065e-002 1.51517808e-001 1.45676896e-001
      9.87485871e-002 1.16571501e-001 1.37471110e-001 1.47589520e-001
      1.43353716e-001 1.40181690e-001 1.35499209e-001 1.59481779e-001
      1.55130967e-001 9.38911587e-002 9.14761946e-002 1.19673572e-001
      6.10857904e-002 7.36266300e-002 9.03321877e-002 1.15495495e-001
      1.16114981e-001 7.74003342e-002 3.09694298e-002 2.72899494e-002
      5.27603738e-002 7.06431419e-002 7.23915547e-002 1.88417196e-001
      3.98761779e-001 3.98761779e-001 3.46982479e-001 1.10036083e-001
      3.16585228e-002 7.21409246e-002 3.90396975e-002 4.39389907e-002
      5.61858229e-002 5.40571474e-002 1.18639149e-001 6.20864965e-002
      2.86383089e-002 3.25748101e-002 4.12333682e-002 3.09777260e-002
      4.13066782e-002 9.69138443e-002 3.28155726e-001 3.98761779e-001
      3.28716338e-001 9.08754691e-002 8.91617239e-002 6.98253140e-002
      4.99109663e-002 6.42556921e-002 1.62532732e-001 3.67941797e-001
      3.67941797e-001 2.67284662e-001 1.62539020e-001 6.77562058e-002
      6.68015406e-002 5.86399734e-002 5.32985292e-002 6.82594478e-002
      1.13584943e-001 1.06849521e-001 5.76635823e-002 9.68789309e-002
      7.51648620e-002 8.31818879e-002 5.56975417e-002 5.10127880e-002
      1.11783817e-001 3.67941797e-001 3.67941797e-001 2.67792195e-001
      1.52207702e-001 1.54073581e-001 1.44841477e-001 5.95412999e-002
